1344 12
AAA 1.1242529 0.18182507 0.33577624 -0.312573 -0.40525377 -0.5318403 -0.54999405 -1.039881 -0.5980296 -1.1454755 -0.25008532 0.04169052
TTT 0.9277847 0.5220297 -1.3926398 -0.33231407 -0.016000483 -1.0046344 -0.3326537 -0.4309856 -0.39578396 -0.4687364 0.5209789 0.42739508
AAT 1.2860295 0.2185834 -0.29964387 0.31610093 -0.7653607 0.28095433 -0.59744304 -0.6588056 -0.37977123 -0.8622448 -0.058129173 0.15808782
GAA 0.81747305 0.3557909 -0.14186342 0.05296047 -0.4921514 0.06319166 -0.36897868 -0.99645305 -0.841529 -1.0105146 -0.06454924 0.32450804
ATT 1.3225299 0.39153492 -1.6195636 -0.19754899 -0.48307583 -0.044955038 -0.4404049 -0.53621805 -0.49651426 0.059699025 -0.038372975 0.21268748
ATG 0.659189 0.33697045 -0.51735514 0.9991447 -0.651698 0.06653247 -0.7030769 -0.6078225 -0.2925405 -0.9310043 0.057457007 -0.1329275
TGG 0.43090075 0.7020449 -0.5858098 0.64662254 -0.96654207 0.13549438 -0.36210793 -0.26591855 -0.5588129 -1.3768159 0.40738723 -0.032636143
GGA 0.5081202 0.5157434 0.18060543 0.5948618 -0.97266454 0.13444367 -0.44681785 -0.8774259 -0.67132545 -1.2807876 0.6066824 0.39819133
TTC 1.0261018 0.64052486 -0.75917107 -0.7513561 -0.58858985 -0.8811695 -0.54651093 -0.38884896 0.32098785 0.15783525 0.562957 0.1350043
AGA 0.76309246 0.28806877 0.03178105 -0.49089682 -0.20095997 0.47640032 -0.7962318 -0.5780624 -1.3369917 -0.8379035 0.19354282 0.3929259
CAT 1.5277567 0.69898945 -1.0043306 -0.2497477 -0.56376034 -0.1484138 -0.1662487 -0.10984755 -0.51138693 0.6479083 0.23941116 -0.37438303
TCT 0.98145944 0.45585012 0.06638381 -0.027513534 0.1331927 -0.59388024 -1.0150045 -0.4386087 -0.104623355 0.2502798 0.9278915 0.76074684
ACA 1.3025658 0.92500216 0.7495437 0.053582866 -0.60140663 -0.54457587 0.42152992 -0.5122342 -1.0344789 -0.15468396 0.14857295 -0.14188036
TGA 0.3160212 0.27170232 -0.68902534 0.5658332 -0.18357687 -0.16672203 -0.67050487 -1.2023295 -1.1372042 -0.22352405 0.22522016 0.4931145
TGT 0.62484956 -0.06159543 -0.98533374 0.8511169 -0.08888605 -0.86054206 -0.94682455 -0.019108327 -0.6432783 -0.536369 0.76016694 -0.3570855
TTG 0.46124664 0.67847645 -1.2001911 0.48241723 -0.056621328 -0.43389034 -0.04437218 -1.1348336 -0.47276857 -0.48555452 0.46476895 0.4030257
CCA 1.1415614 0.85810363 -0.38673797 -0.3401343 -0.77157706 -0.72476 -0.33089986 -0.9645572 0.47607836 0.5308533 0.14314476 -0.58063716
CTT 0.55154985 0.88890386 -1.0218687 -0.54108185 0.42012835 -1.0452994 -0.8103552 -0.16814226 -0.6366762 -0.0011876443 0.25567254 0.44036478
TCA 1.4782126 0.274177 0.6434683 -0.27041855 -0.82716656 -0.43890437 0.053991742 -0.9359331 -0.36124215 0.293091 0.89472455 -0.04327781
CAA 1.1634465 0.019515727 0.1596026 -0.2326877 -0.59947616 -0.35412517 -0.3876397 -1.0748255 -0.79939383 -0.18608813 -0.13252228 -0.7021189
ATA 1.6940074 0.25198737 -0.3637277 -0.19976534 -0.26943895 0.55832416 -1.0062587 0.1871512 -0.56707156 -0.6606001 -0.29786345 -0.019304257
AAG 0.6865259 0.25945485 0.25465405 -0.46054327 -0.18040195 0.072007716 -0.16506737 -1.2149 -0.5152465 -1.2331228 0.53576833 -0.0904856
CTG -0.119754694 0.740707 -0.10549643 0.71668875 -0.010741965 -0.40812662 -1.0344473 -0.23061398 -0.5682338 -0.34279042 0.47379395 0.1941188
TAT 1.5810223 0.42158028 -0.49954447 0.50437295 -0.09921684 -0.05611958 -0.7637425 0.095127285 0.0958677 -0.2626859 0.4993031 0.50100476
TCC 0.95186794 0.6324279 -0.43657178 -0.06882703 -0.44304395 -1.0298958 -0.81886196 -1.3134686 0.40235424 0.8762931 0.43362612 -0.26811448
CAG 0.49682942 0.3317017 -0.050811604 -0.5928403 -0.13870113 0.2121069 -0.28560096 -0.39997724 -1.3396068 -0.077179894 0.7952319 -0.5545714
TTA 1.6620172 0.5335172 -0.77561146 -0.22143652 0.045823354 -0.55445045 -0.26689085 0.12983662 -0.09765903 -0.81902003 0.09883185 0.31505945
TAA 1.571656 0.08942324 0.26277673 0.4218422 -0.08967414 -0.5486358 -0.58386004 -0.41062275 -0.31684518 -1.2144445 0.027207408 0.27658755
GAG -0.026457574 0.38686147 -0.51908314 -0.24361058 -0.11745558 0.29715535 -0.42818305 -0.8823363 -1.2686758 -0.56626296 1.0398847 0.092711
AGG 0.29819572 0.830016 -0.26541865 -0.8154116 -0.5288567 0.33994102 -0.16403458 -0.3311511 -0.23481537 -1.7263325 0.4592267 -0.3547235
ACT 0.32951698 1.0163844 0.43911314 -0.013008816 -0.24917242 -1.0326262 -0.87946725 -0.25895816 -0.5144072 -0.25913784 -0.085748285 0.62122124
CTC 0.24258955 0.8267835 0.19610691 -1.0382887 -0.6315739 -0.6472643 -1.1121032 -0.0615455 -0.20056327 0.034682244 0.25633678 0.08617243
CCT 0.18020444 0.90824425 -0.79219836 -0.47979224 0.3838512 -0.7686056 -1.1896943 -0.5809795 0.50342786 -0.21244949 0.0036115914 -0.081833385
GTG 0.04219821 0.19362131 -0.7692757 0.9925543 -0.2589822 -0.52463865 -0.52374566 -0.78900945 -0.6741329 -0.7830991 0.9257587 -0.53212357
CAC 0.7345274 1.0431032 0.29730815 -0.2757171 -0.47087806 -0.7933212 -0.28339517 -0.114861846 -0.9261885 0.41300616 -0.0349493 -0.8107415
AGT 0.22962996 -0.26885012 -0.88407564 -0.3972407 -0.20175998 -0.4625116 -0.62217456 -0.2554984 -0.832308 -1.0450097 0.89251083 -0.7430719
AAC 0.5210772 0.9033761 0.37464118 -0.29059535 -0.32498106 -0.8842815 -0.5109792 -0.41306195 -0.62410265 -0.74991405 -0.50784206 0.03738456
AATG 0.95063853 0.45680517 -0.32676557 0.88541424 -0.97196716 0.35570726 -0.6755863 -0.9051371 -0.5517976 -1.3231901 -0.14064175 -0.3378231
GTT 0.4857864 0.017474527 -1.1865479 -0.27826005 -0.0945596 -0.8594584 -0.31431186 -0.560169 -0.56880623 -0.60651135 0.92628694 -0.16785917
ATC 1.1361276 0.12738456 -0.08180339 -0.6702652 -1.1824161 0.16442345 -1.1810905 -0.16286129 0.011042226 -0.093240015 0.18164487 -0.19824968
TGC 0.80713665 0.66024536 -0.7325103 0.59528834 0.53290427 0.18353306 -0.12648822 -0.7705151 -0.38942507 -0.018389376 0.13961455 -0.809866
GAAT 1.0795788 0.52936304 -0.3639585 0.5081809 -0.9812957 0.71870863 -0.5894187 -0.9242656 -0.86071175 -1.0473521 0.15503724 0.19590273
TTTT 1.3307804 0.71026 -1.5042809 -0.43971366 0.09840969 -1.3384615 -0.1791949 -0.39835438 -0.54126114 -0.49679792 0.6529668 0.69341034
GCA 1.1639422 0.83422774 0.07673155 0.5970839 0.25846735 0.23916349 0.6326375 -1.3106818 -0.3094636 -0.005155773 0.6127376 -0.54181755
TGGA 0.41711384 0.670072 -0.50219184 0.56736475 -1.1307765 0.11007773 -0.54329586 -0.41742915 -0.9207499 -1.4260379 0.34256378 -0.013569332
GAT 0.8543784 0.5984489 -0.9110871 0.40519872 -0.6674236 0.52461976 -0.46893752 -0.34097698 -0.64252627 -0.07999676 0.58377564 0.6932478
AAAA 1.3658854 0.0120977005 0.29304898 -0.44058293 -0.5852816 -0.7681353 -0.8009514 -1.1507938 -0.5865382 -1.3933136 -0.37924817 -0.05445166
GGAA 0.8455107 0.5157944 0.23419137 0.5377589 -1.059593 0.2506183 -0.41223922 -1.1306478 -0.5489589 -1.739747 0.36898062 -0.0052034906
GCT 0.2676802 1.1769623 -0.23982501 0.18688528 0.93774396 -0.023702407 -0.5464227 -0.57960904 0.033923928 -0.13517262 0.7135101 0.21777968
TAG 1.1667732 0.37051216 0.31472895 -0.12875251 0.3836893 0.5784688 -0.58605516 -0.2737918 -0.7329368 -1.2439095 0.7423677 0.47185683
ATGG 0.8258724 0.7122323 -0.47750574 0.78550786 -1.0501916 0.38147038 -0.73582464 -0.61560416 -0.10410152 -1.5707214 0.12879016 -0.07985207
CTA 1.1444172 0.46853957 0.13744988 -0.1618552 0.3582704 -0.28420666 -1.3252885 0.09227222 0.083120145 -0.34128684 0.07674316 0.28884658
AGC 0.41009575 0.9325931 -0.5006397 -0.7938032 0.80392665 0.4372339 -0.29859236 -0.8633703 -0.5398675 -0.34935302 0.06563354 -0.59392637
GGG -0.2072919 1.1909524 -0.30925384 -0.22532244 -0.9497395 0.18584956 -0.15213586 -0.40894803 0.07818191 -1.2001468 0.88925445 -0.13224635
CCC 0.3569593 1.1837828 -0.21104082 -0.14687048 -0.37209606 -0.3353082 -1.0290523 -1.1292073 0.5865217 0.3530078 -0.3945036 -0.59824723
GTA 1.1341023 -0.054717798 -0.10959821 0.7244256 0.027457535 -0.2963953 -0.8115 0.1900646 -0.374634 -1.2658372 0.63951033 -0.32700452
ACC 0.36049947 1.2064255 0.18645899 0.15612374 -0.5010631 -0.6420314 -0.74415934 -0.7614712 0.005041891 0.011049109 -0.7846209 -0.3257418
GGT 0.25458142 0.434479 -0.65544724 0.1282124 -0.71168286 -0.32963523 -0.361763 0.21657446 0.09316287 -1.0665251 1.1911145 -0.33152947
GAC 0.14509755 1.2569959 0.31000006 0.056993954 -0.9021075 -0.17450285 -0.6088547 -0.057713285 -1.0225165 -0.36610147 -0.10667321 0.3116522
AAAT 1.6377289 -0.28162777 -0.21242134 0.21198897 -0.90221846 -0.18176724 -0.91055274 -0.952902 -0.5618177 -0.82414013 -0.26441228 -0.012659225
TAC 1.5093983 0.9823307 0.27345473 0.15384142 -0.0034509765 -0.60899705 -0.27524728 0.36132666 -0.26867953 -0.19351278 -0.15655777 -0.02857609
ATTT 1.515932 0.41673175 -1.711714 -0.066131614 -0.15958045 -0.46771 -0.3425308 -0.36378324 -0.87431 -0.108163565 0.12618639 0.44522616
GCC 0.18613443 1.1069031 -0.28375176 0.28462285 0.35612148 0.28360534 -0.72791064 -1.1973163 0.5868137 0.14234735 0.22798808 -0.7470605
GGC 0.15467934 1.5623944 -0.4033603 -0.089678906 0.096991904 0.65349394 0.089860104 -0.33106413 0.21235947 -0.46008047 0.6845904 -0.7947287
CATT 1.3826648 1.0474223 -1.4343545 -0.27847886 -0.65036 -0.3702724 -0.09231834 -0.2719433 -0.53924125 0.75323904 0.2583965 -0.12792724
GTC 0.32745856 -0.17553332 -0.3373791 -0.39778963 -0.9293104 -0.784606 -1.1059755 -0.32942665 0.021764858 -0.23097804 1.0519376 -0.81295747
AGAA 0.8901115 0.42155832 0.022592684 -0.705326 -0.0031770878 0.48195753 -0.7514257 -0.89694977 -1.224957 -1.1294315 -0.13661025 0.24029033
ATGGA 0.9011541 0.78788507 -0.27960014 0.61629325 -1.1984121 0.26619506 -0.836997 -0.8772192 -0.54209507 -1.7328866 0.10548057 0.08332881
ATTC 1.6398054 0.32128468 -1.1633211 -0.4892242 -0.2785981 -0.236733 -0.9127784 -0.50225264 -0.25426546 0.6884492 0.36494774 -0.05242907
GAATG 0.77220786 0.81714803 -0.47426552 0.91403216 -0.9963241 0.6537059 -0.6391849 -1.0336492 -0.99121827 -1.5111371 0.16882138 -0.06619393
GAAA 0.6212371 0.3593201 -0.039874434 -0.23809524 -0.61827624 -0.33986065 -0.4315396 -1.1638278 -0.82780284 -1.3715031 -0.14427802 0.19052814
TGGAA 0.8921191 0.68139833 -0.60633415 0.5596144 -1.2319175 0.25406066 -0.3892416 -0.6765169 -0.7585718 -1.8235933 0.061682172 -0.21637125
TCCA 1.2809864 0.71665525 -0.21315277 -0.11261379 -0.7329006 -0.9937448 -0.65248847 -1.3007464 0.10150081 1.0678769 0.46595365 -0.44363713
AATGG 0.9124296 0.6689113 -0.38094524 0.6676504 -1.2821835 0.32327065 -0.7348713 -0.8547408 -0.60751116 -1.5913824 0.12930791 -0.19503461
TTCC 1.2093353 1.1143734 -1.3698404 -0.5144027 -0.55851805 -1.0800703 -0.6331467 -0.74053246 0.7557122 0.3219616 0.1882593 -0.3366617
TTCT 0.8586375 0.6119592 -0.584158 -0.4213121 -0.039217822 -1.0067753 -1.1460207 -0.26355323 0.4213609 -0.11669545 1.0745703 0.69665
TTTC 0.9480174 0.5032 -1.0256952 -0.9646273 -0.21187769 -1.1542215 -0.5467362 -0.50213146 -0.0146041615 0.020297373 0.787662 0.13059627
AAAG 0.82495433 0.34549856 0.4241291 -0.5969952 -0.21808779 -0.10847329 -0.24742983 -1.4594665 -0.46510437 -1.7638693 0.22496362 -0.14749822
TTTG 0.4975354 0.89404064 -1.3835653 0.42701873 0.030086486 -0.7764353 -0.05751193 -0.7577621 -0.4920471 -0.4323522 0.71278507 0.5768013
CAAA 1.2218317 -0.11787928 0.36365172 -0.49312615 -0.6705896 -0.519127 -0.56193495 -1.2171739 -1.092351 -0.45829552 -0.15945333 -0.615914
GGAAT 1.1199704 0.64113945 -0.20516999 0.7891125 -1.1208216 0.5206124 -0.619264 -1.2153198 -0.45230266 -1.6985375 0.55718124 -0.00923774
CTTT 0.6384921 0.95926964 -1.3048373 -0.69887495 0.5911771 -1.2967852 -0.80830854 -0.4777091 -0.50212395 -0.09924123 0.30288488 0.51075876
TAAA 1.7947628 0.011898225 0.29482654 -0.059621874 -0.10270499 -0.72398156 -0.6991904 -0.6479921 -0.21408148 -1.3047965 -0.25988778 0.20678142
AATA 1.9868565 0.1706025 0.18490258 -0.18004437 -0.15986946 0.5825928 -1.0330865 -0.46827108 -0.59405774 -1.0889364 -0.2423872 0.106433064
AATT 1.6122895 0.2970403 -1.0570492 -0.10714284 -0.5798269 -0.26891375 -0.14069808 -1.309951 -0.3557603 -0.6326418 -0.092443384 0.60250473
TGAA 0.42835873 0.25628033 -0.7154029 0.7067886 -0.5208862 -0.59479576 -0.6384632 -1.5443535 -0.9884591 -0.8867766 -0.22861774 0.4592693
CCAT 1.523125 1.0810828 -0.85592055 -0.08794938 -0.6925371 -0.68094575 -0.5118628 -0.59501 0.5843623 0.6895983 0.46671084 -0.48201934
TTTA 1.7106441 0.6894407 -1.2833728 -0.5421716 0.18655838 -0.6513746 -0.12281954 0.13012 -0.09382826 -1.0397547 0.022982614 0.37397355
TTCA 1.5943848 0.5402642 -0.3985694 -0.98863804 -1.0299115 -0.6984224 0.2231084 -0.37794515 -0.19747433 0.19449745 0.8023259 -0.056821715
ATAT 1.8852934 0.1972241 -0.83526766 0.070160694 -0.5544956 0.38459903 -1.1523482 0.31487453 -0.32040876 -0.35276428 0.062416103 0.24270342
TATT 1.9825954 0.64617693 -0.9000232 0.31558186 0.067373395 -0.4034156 -0.5692636 -0.06588666 0.2278379 -0.13799544 0.5366391 0.7050644
TTGA 0.36984292 0.59138626 -1.1599166 0.30106488 -0.26031002 -0.51614314 -0.5002528 -1.32449 -0.8941346 -0.46325377 0.15349983 0.8712656
CACA 1.2430531 0.92571765 0.5024984 -0.38609353 -0.7055302 -0.58846974 0.11852313 -0.22882617 -1.2874076 0.26338226 0.07033969 -0.85055155
TCTT 1.0105523 0.843424 -0.3690808 -0.35304648 -0.0044831657 -1.1351793 -0.75093216 -0.50956327 -0.19678798 0.12965253 1.0557895 1.1482273
AAAC 0.62821406 0.90728074 0.4305184 -0.40537533 -0.46663678 -1.0868338 -0.4947418 -0.7486776 -0.8220637 -1.0039145 -0.79841787 -0.057986006
GTTT 0.5609896 0.28156424 -1.2677611 -0.37109554 -0.114495374 -1.2351938 -0.04325905 -0.36109197 -0.39518976 -0.68414265 1.1922576 -0.20652212
TGTG 0.25581804 0.3595508 -1.0003041 1.3289957 -0.052480187 -0.9963745 -0.90570396 -0.29971004 -0.74108124 -0.38710636 0.79445803 -0.41778758
AAGA 0.9519904 0.33221084 0.13818805 -0.6383474 -0.32552177 0.31493014 -0.5680095 -1.336321 -1.1068131 -1.0896682 0.02005807 0.49079838
TGTT 0.7366212 0.33355334 -1.6384473 0.33329996 -0.052589204 -1.3677771 -0.547487 0.08021728 -0.6248116 -0.42258546 0.9543894 -0.14884773
TTAT 1.8420691 0.5773551 -1.2518451 0.18994142 -0.23325846 -0.41968086 -0.63344395 0.24413292 0.08655447 -0.6421708 0.2491012 0.64042854
CAGA 0.6761254 0.61072224 0.17384511 -0.6706408 -0.38809347 0.60724753 -0.57305914 -0.69364387 -1.9025748 0.015859507 0.20705247 -0.3172916
TTAA 1.6376983 0.31119487 -0.60601956 -0.18311259 -0.00037212073 -0.76437837 -0.22282547 -0.67386574 0.17297973 -1.3407477 -0.14192677 0.37250856
ATGT 1.1079456 -0.25491905 -0.7498887 1.2917651 -0.5912396 -0.6098504 -0.9672118 -0.2502123 -0.383868 -0.67552763 0.45480573 -0.65916336
TCAA 1.5483466 -0.07221437 0.83026826 -0.3751701 -0.8624132 -0.7397671 -0.17205454 -1.5305988 -0.19922264 -0.19763665 0.87789416 0.11848807
AACA 1.2486757 0.79935336 0.60187304 -0.010982422 -0.70287293 -0.43701628 0.072890036 -0.50109166 -1.2207775 -0.8831545 -0.41369396 -0.4917081
TGCA 1.2164687 0.5959563 -0.53884983 0.6588119 0.43262798 0.0709989 0.34460837 -1.031058 -0.654801 -0.020989837 0.25500983 -0.9943949
ATAA 2.0755465 0.1946744 0.06300367 0.040537644 -0.19744757 -0.07583853 -0.97634894 -0.3903662 -0.38049614 -0.8458354 -0.7523682 -0.24175474
ACAA 1.5081416 0.87840664 1.1718476 0.15495081 -0.8529524 -0.7149669 0.26983264 -1.1751454 -0.6207282 -0.60785997 -0.3273895 -0.32280305
TCTG 0.41284767 0.4593388 -0.11623752 0.46008006 0.2573425 -0.21169822 -1.162477 -0.46386757 -0.3997402 0.36262083 1.1539123 0.3737004
ACAT 1.7302911 1.2539062 0.11354617 0.49816146 -1.1394255 -0.5309349 0.5088279 0.124657094 -0.42240041 0.06412861 0.060784414 -0.018286686
TGAG -0.13258417 0.55491585 -0.7404347 0.060879286 0.1830123 0.24051262 -0.79851496 -1.0651118 -1.3455216 0.110598885 0.78158396 0.2800303
TAAT 1.8089228 -0.17149182 -0.3352146 0.7341683 -0.1704826 -0.21416245 -0.9939573 -0.60624164 -0.13084976 -0.9547678 0.19914898 0.29260308
AGGA 0.6211154 0.79889745 0.05442286 -0.9050254 -0.86091274 0.31139696 -0.45178935 -0.5945437 -0.8145155 -1.8030357 0.13951278 0.008933143
TTGT 0.75179875 0.38346773 -1.0151614 0.90410435 0.033959046 -1.4313895 -0.49745187 -0.60044074 -0.1524133 -0.681921 0.8921349 0.35624072
GAGA 0.12504737 0.77873385 -0.27062574 -0.37611267 -0.5385785 0.5418301 -0.71822 -0.8318907 -1.750423 -0.64874023 0.46860006 0.7422754
ACAG 0.8943228 0.93396825 1.0189167 -0.32505575 -0.18216023 -0.045276016 0.2511913 -0.3867831 -1.5500749 -0.6039539 0.709008 -0.22143489
TCCT 0.57961166 0.80554897 -0.66116905 0.02930414 0.33335564 -1.0820338 -1.3985876 -1.0287381 0.49674404 0.460335 0.7559431 0.35473606
TTTTT 1.6260337 0.78992397 -1.7493787 -0.45750993 0.15734364 -1.495448 -0.2526392 -0.6559719 -0.6019848 -0.45443246 0.61283845 0.9627947
CAAT 1.7061368 -0.17592034 -0.44880027 0.39307132 -0.49820098 0.14901476 -0.48922426 -1.1851535 -0.9658162 0.16301985 -0.034047607 -0.6665282
ATTG 0.92654055 0.6201933 -1.5476034 0.60334694 -0.19594374 0.06334043 -0.08492458 -1.1264663 -0.6879988 -0.5273601 0.10132441 0.1634021
AGAG 0.28450674 0.3369351 -0.05613654 -0.73425865 0.091837786 0.6234785 -0.61026096 -0.85364187 -1.7815541 -0.8845049 1.0242447 -0.1443588
AAGG 0.67150897 0.7392422 0.30151352 -0.624345 -0.6007539 0.1752895 -0.05399748 -1.144548 -0.089608945 -1.927444 0.58781713 -0.08437486
ATTA 2.033932 0.6164921 -1.1659145 -0.5402855 -0.21748853 -0.18290836 -0.48161158 0.14353815 -0.18725792 -0.6193454 -0.5393237 -0.00037344324
AGTG -0.17123125 0.17267923 -0.58402085 0.38760868 0.020640241 -0.25336945 -0.8465823 -0.6989201 -0.9827872 -1.5208619 0.79850173 -0.87678254
AATC 1.2576263 -0.057487383 -0.025579227 -0.63555115 -1.1617669 0.4094985 -1.2929686 -1.0318738 -0.116582446 -0.36777192 0.035699904 -0.05990165
TCTC 0.6824106 0.45982927 0.45433623 -0.74138427 -0.71853197 -0.8742796 -1.2433177 -0.4319574 -0.0659887 0.5234171 1.3437176 0.2587931
CTCA 0.7346697 0.66935724 0.68507516 -1.1519988 -0.64968604 -0.43920925 -0.7141531 -0.018328436 -0.43804777 0.13430789 0.68219465 -0.3618917
GGAG -0.04841218 0.7902844 -0.37619543 0.1252229 -0.5282166 0.56031215 -0.38222653 -0.7777184 -1.0351322 -1.1678245 1.3847871 -0.12762548
AAAAA 1.618655 -0.08744248 0.2473312 -0.7008165 -0.6015499 -0.95826364 -0.8753826 -1.4437009 -0.7939785 -1.6356763 -0.5626588 -0.052779093
AGTT 0.52860445 0.010454425 -1.110651 -0.8354247 0.39485478 -0.8195285 -0.12720832 -0.48162943 -1.0833063 -1.050585 0.9996633 -0.3134801
TAGA 1.477714 0.52405155 0.31639948 -0.1635559 0.14161949 0.8356903 -0.9431233 -0.4111157 -1.0784974 -1.059215 0.34568045 0.9108333
CCTT 0.47974163 1.1982208 -1.3717068 -0.676159 0.22205625 -1.2884259 -0.94734776 -0.73068625 0.31333247 -0.01781936 0.04055461 0.19603536
TGTA 1.295447 -0.14091583 -0.5879109 1.04152 0.12163678 -0.6394305 -1.0007479 0.21088879 -0.587444 -1.2102 0.39581004 -0.26358312
GATT 0.96267873 0.9576042 -1.3557135 -0.2344445 -0.78585845 0.367121 -0.17609607 -0.7461891 -0.43029013 -0.056784492 0.5596271 1.0471065
TCAT 1.9036573 0.60072553 -0.08035527 0.033751782 -0.8276307 -0.2593675 -0.13764115 -0.16074656 0.17605387 0.55924314 1.5014066 0.040304452
ATGA 0.7312118 0.44998863 -0.82758605 0.6513881 -0.6779345 0.3735919 -1.1680326 -0.89009064 -1.0274422 -0.6177524 -0.737708 -0.0015663126
CGA 0.40616664 0.6310988 -0.14799576 -0.049863953 -1.1863253 0.48730558 -1.1539577 -1.1783087 -0.3044638 -0.3450703 0.29581463 0.3226166
CTTC 0.7837983 0.8418358 -0.3083354 -1.1950248 0.2795021 -1.0787411 -0.9758276 -0.24315326 -0.44930026 0.53696275 0.51061434 0.03557473
CTGT 0.313232 0.46612906 -0.3035047 0.7415621 0.3919677 -1.3849086 -1.4361949 0.22035931 -0.41476208 -0.07062181 0.98548895 -0.1915431
ACTT 0.5737617 1.3825607 -0.13688329 -0.36936447 0.08310539 -1.5507461 -0.19358501 -0.27521396 -0.81649745 -0.50673157 -0.14385249 0.86678684
CACT 0.45094913 1.41191 -0.0791843 -0.43787876 -0.03435091 -1.3064159 -0.63459 0.13310742 -0.9258685 0.47677395 0.09511372 -0.24025905
CTCC -0.0109356465 1.34288 -0.15297215 -0.79185617 -0.33800188 -0.8500496 -1.4526737 -0.5457689 0.10025026 0.61965984 0.43127525 -0.53876555
TATA 2.3788376 0.42256048 -0.2379176 0.4186239 0.12045821 0.11638625 -0.8659622 0.43489155 -0.28465492 -0.6119478 0.1410956 0.26357868
AACT 0.4052453 0.74792284 0.44071808 -0.35255715 0.24719788 -1.3208783 -1.0265894 -0.48582217 -0.7383421 -0.7994422 -0.3163317 0.46574938
ATCT 1.1526575 0.26355553 0.040272586 -0.40630093 -0.57432044 -0.2607112 -1.4724011 0.18289198 0.14423965 -0.052556667 0.58400655 0.4239989
ACAC 0.97738886 1.7369926 0.68126273 0.20548652 -0.68578935 -0.9673344 0.18316793 -0.2846507 -1.2083184 -0.052092258 -0.48828208 -0.43197525
GAAG 0.25674376 0.58261466 -0.0051507563 -0.32803494 -0.23640648 0.4508697 -0.34758458 -1.3393368 -0.8879302 -1.4038593 0.5411108 0.26061854
TGAT 0.8987629 0.49466008 -1.3887764 1.1877309 -0.4113708 0.06777276 -1.0069722 -0.7308552 -0.594015 0.17382462 0.7646516 0.74137384
GAGT -0.0062230863 -0.06617919 -0.5725225 -0.061904743 -0.5045625 -0.121501364 -0.7119445 -0.6234486 -1.4196421 -0.93115366 1.4510485 -0.23633562
TCCAT 1.6998954 0.9177735 -0.94490224 0.068497986 -0.7050938 -0.8572559 -0.73426634 -0.9309091 0.09784307 0.9788122 0.82545966 -0.33680466
CTCT 0.20937672 1.0809659 0.018986082 -0.59644 0.21659152 -0.74824274 -1.733861 0.14108616 0.11160635 0.056649666 0.93990034 0.58316475
CTGG -0.28812048 1.7375152 -0.047685552 0.5012763 -0.6595785 -0.1590539 -0.8019772 0.19132525 -0.068977565 -1.0416061 0.44837385 0.11531699
AGAT 1.1827881 0.43555173 -0.43366447 -0.33348882 -0.26617092 1.0884285 -0.68255776 -0.45037782 -0.97040784 -0.16874248 0.50560683 0.6572497
TCG 0.40667686 0.7940117 -0.25897673 -0.22599597 -1.3825603 0.41753897 -1.099775 -1.0429357 0.021579625 -0.18897878 0.5471737 0.42523518
AGCA 0.97035176 0.79762083 -0.27371526 -0.7425818 0.62688345 0.37024903 0.4023385 -0.9650272 -1.1592467 -0.4287412 0.29614756 -0.93908376
TGCT 0.49515858 1.2123569 -0.70827425 0.56121475 1.2600837 -0.284943 -0.75017667 -0.27467412 -0.3693078 0.25667948 0.770326 -0.022551343
ATCA 1.7229334 0.025433779 0.16699602 -0.8491132 -1.5411386 0.18025854 -0.568674 -0.34666345 -0.54416364 -0.40137964 0.38459226 -0.6257216
CCTG -0.5467662 1.377133 -0.6496333 0.541273 0.17738415 -0.39763695 -1.5108343 -0.3060275 -0.079273865 -0.034670863 0.14512897 -0.6557743
GTGG -0.049420808 0.6207749 -0.4912474 0.70052356 -0.7282781 0.0028441073 -0.33311456 -0.67503464 -0.49696195 -1.5066005 1.2523565 -0.7289939
CATTC 1.6675558 0.9964417 -1.0924712 -0.53176665 -0.42898333 -0.5202013 -0.6420502 -0.5107423 -0.13266692 1.008844 0.5863959 -0.5167946
AAGT 0.49214 -0.46612263 -0.14853257 -0.29628968 0.054153606 -0.77618104 -0.61564773 -1.0226135 -0.59679914 -1.4815784 0.86244 -0.69859034
TACA 2.071301 0.8469432 0.54477394 0.15603341 -0.07397171 -0.5099901 0.30434108 0.23920187 -0.7348773 -0.24630827 0.22781633 -0.09753298
TTCCA 1.4858888 0.9755528 -1.133271 -0.55142087 -0.7565342 -1.039856 -0.48551762 -0.959976 0.3925711 0.54709125 0.34293127 -0.4312741
TCAG 0.6845793 0.45288348 0.57031685 -0.6571496 -0.31450713 0.22260046 -0.13201734 -1.0969126 -0.50567764 0.3394668 1.7957762 -0.058387615
ACTC 0.31121174 1.0704783 0.63150805 -0.49541023 -0.99511236 -0.93201923 -1.232141 -0.37412763 -0.4631871 0.21464191 0.049034134 0.45366165
ACTG -0.09963262 1.3374896 0.3807132 1.0923744 0.0033291215 -0.7204862 -0.7460321 -0.081935816 -1.0878189 -0.80123615 -0.08884943 -0.079525225
CAGG 0.17864072 1.10111 0.23861293 -0.8044601 -1.0122216 0.7097433 -0.1268666 -0.19175872 -0.64909625 -0.34865353 1.1026986 -1.1735158
TTGG 0.444992 1.2178484 -0.94991153 0.4439875 -0.7022305 -0.25662264 0.33114657 -0.60107374 0.0988257 -1.1059315 0.7722592 0.5994744
CTGA -0.24241087 0.829999 -0.47788087 0.21203624 0.14609288 0.07501671 -1.5939726 -0.7186617 -1.0538349 -0.09881165 -0.15493669 0.6388205
TCTA 1.6918931 0.3422822 0.34490794 -0.2475986 0.22973025 -0.5212122 -1.4958494 -0.20818515 0.5345011 -0.11534073 0.97421867 0.716685
CCAG 0.34970632 0.72976774 0.1306023 -0.7937904 -0.40028965 0.09909364 -0.5914644 -1.1072168 0.11062847 0.17130274 0.6044611 -1.207158
TCAC 1.1511297 1.0777713 0.832507 -0.2776598 -0.65096015 -0.9790689 -0.07274861 -0.003517864 -0.7965575 0.6786495 0.8810767 -0.3010652
TGGG -0.11427877 1.4894434 -0.5627992 0.53546125 -0.9039442 0.2600193 -0.2903625 0.026108172 0.2798823 -1.0724608 0.9907938 -0.055736035
CCCA 0.55476916 0.9181746 0.1756265 -0.27879825 -0.9271869 0.015781978 -0.7052015 -1.4219455 -0.0502724 0.4909748 -0.29806626 -1.3312252
GTGA -0.15295354 0.17885627 -0.6633797 0.9790562 -0.43546018 -0.31977978 -0.93711674 -0.82977724 -1.2922127 -0.47972244 0.5284556 -0.16340624
GTGT 0.5113604 -0.07989028 -0.77629983 0.98851186 -0.06649936 -1.1419038 -0.8341434 -0.3001342 -0.37962994 -0.766662 1.3877176 -0.7624774
CTGC 0.34811723 1.1692532 0.037192754 0.21855287 1.1690426 -0.37979487 -0.75000376 -0.50633943 -0.61317664 0.32824373 0.36337316 -0.64653844
CATG 0.7931616 0.6834557 -1.0569855 0.8420187 -1.0499045 0.31138194 -0.30914 0.006667399 -0.8442417 0.2342417 0.1456494 -1.0671936
CCATT 1.5928961 1.2187694 -1.0215372 -0.16937354 -0.6626152 -0.84351885 -0.52245027 -0.9087737 0.45957938 0.59120476 0.45697275 -0.30277896
TGGT 0.3289749 0.7428588 -0.791908 0.75687253 -0.7321379 -0.3614837 -0.44023764 0.36740625 0.120567314 -1.1363279 1.201444 -0.22112073
GACT -0.04115811 1.2597989 0.37110132 0.18517627 -0.8949102 -0.5459846 -1.2002044 -0.19881637 -0.8274671 -0.91889554 0.24811797 0.8258009
CCAA 1.1482319 0.54584616 0.17540051 -0.3967772 -0.7162871 -0.38252956 -0.652934 -1.5602243 0.42236236 -0.0604132 -0.5150168 -0.94619113
GACA 0.61863303 1.2206521 0.2911643 0.19240372 -0.9444864 0.007465963 0.16441795 -0.34124693 -1.6662507 -0.09390162 0.26168132 0.1171353
ATAG 1.5535634 0.27624142 -0.15293099 -0.33923468 -0.02422047 1.2625862 -0.8647135 -0.20620945 -0.9062438 -1.2519181 0.40402353 -0.23797175
ACCA 0.88081557 0.98052853 0.41021594 0.2348691 -0.7917293 -0.24892771 -0.64717686 -0.66727 -0.43439853 0.28400934 -0.6834676 -0.96890897
CCTC 0.017812876 1.2731719 -0.11039304 -0.9749611 -0.2882892 -0.38701206 -1.5000625 -0.6118399 0.2777233 0.62822163 0.52683103 -0.51333076
CCAC 0.559918 1.5648967 0.118173175 -0.11063556 -0.596878 -0.9880783 -0.5191687 -0.44707498 -0.101078294 0.5908118 -0.22202384 -0.8858359
GGGA 0.12485745 1.2737429 -0.07200023 -0.054900534 -1.0466261 0.5180137 -0.22083698 -0.4931337 -0.33160308 -1.4137113 0.54363734 0.3014763
TATG 1.0578898 0.59937704 -0.6685675 1.2357616 -0.019608604 0.27182305 -0.7865525 0.2058903 0.06399736 -0.6648396 0.3890502 -0.10170527
ATTCC 1.831105 0.74005735 -1.306589 -0.4063974 -0.26036337 -0.8316926 -1.1053407 -0.8523498 0.13078643 0.6827702 0.20466451 -0.44385955
GCAA 1.3240372 0.6210614 0.41338766 0.58357686 0.3892813 0.26461938 0.16966727 -1.7393434 -0.21705753 -0.73935276 0.049477886 -0.7884867
GCAG 0.5627321 0.8519179 0.21757667 0.038363207 0.642073 0.50541747 0.3781759 -1.271798 -0.7715825 -0.3503067 1.3244513 -1.0480074
ATGC 1.2693328 0.6931676 -0.67942476 0.9112876 0.2999365 0.7329499 -0.39642382 -1.0949517 -0.14821075 -0.2700253 -0.31681946 -1.065427
CATA 1.8643066 0.6222862 -0.08705762 -0.18842188 -0.31115043 0.35605454 -0.53250253 0.564484 -0.58899325 0.02373995 -0.13204786 -0.6220476
CAGT 0.72052807 -0.11276053 -0.41831735 -0.4091033 0.19184262 -0.81482947 -0.27182555 -0.30334353 -1.0199252 -0.053773798 1.1469986 -1.4810549
GCCT -0.010827968 1.1795886 -0.07671236 0.17479819 0.7368041 0.2770959 -1.1995205 -0.9310943 0.7001159 -0.15599406 0.41494733 -0.35380518
CATC 1.4202474 0.7845323 -0.011900772 -0.5684694 -1.1346977 0.21302155 -0.6896105 0.10345394 -0.40262732 0.91640455 0.5982466 -0.5813223
GGTG -0.10314678 0.64039016 -0.62892616 0.8798943 -0.64546794 -0.2202118 -0.20929706 -0.36848548 -0.40160635 -1.2804501 1.2052249 -0.5119275
GCAT 1.5790013 1.1668534 -0.5206059 0.76882434 0.15242769 0.62445736 0.5302501 -0.7966338 0.22327897 0.3247421 0.84795254 -0.48685136
AGCT 0.24540754 1.0178747 -0.13597937 -0.8673453 1.2776058 0.21268268 -0.739328 -0.6514709 -0.4822517 -0.27622926 0.64363176 0.025998637
GCTG -0.28651297 1.4065555 -0.56887764 0.8042644 0.8974557 0.24959214 -0.76319855 -0.51012266 -0.4790939 -0.39200544 0.9549075 -0.21761073
GAGG -0.33032718 1.18991 -0.17496026 -0.14749703 -0.37270084 0.99471235 -0.4280746 -0.77849257 -0.8879002 -0.91085225 1.0934263 -0.14063345
AGGG -0.123404585 1.1932563 0.116829455 -0.72925824 -0.8208664 0.47998446 -0.19526832 -0.44306004 -0.17509648 -1.591634 0.9919936 -0.6291183
TGTC 0.34418803 0.113273256 -0.5002953 0.61556125 -0.867287 -0.9061943 -1.17732 -0.06261294 -0.5095955 0.40286583 1.257599 -0.6396919
CAGC 0.73692393 1.2434766 0.16094388 -0.9131852 0.6211785 0.43589783 -0.3808341 -0.6536888 -0.8987606 0.5954947 0.4455905 -1.3238358
AGGC 0.16472223 1.4537617 -0.08101959 -0.48589003 0.32031608 0.98262167 -0.32900932 -0.2923464 -0.20715353 -0.61649275 0.50767833 -1.0215626
GCTT 0.4355046 1.3089013 -0.7798124 -0.43789262 1.2478333 -0.2467675 -0.16492216 -0.97524846 -0.062322546 -0.30976322 0.67751724 0.35769287
TCCC 0.50050044 0.8430423 -0.26542822 -0.10096048 -0.342298 -0.403985 -1.3848276 -1.3166549 0.6686392 0.8040584 0.26529658 -0.37416747
CTTG -0.018636938 1.0850996 -1.0104551 0.35622844 0.27184436 -0.9568716 -0.6491644 -0.651383 -0.5949908 -0.12195713 0.35981354 0.5183332
CTAT 1.4624922 0.7664234 -0.5884291 0.28976834 0.26139063 -0.05206809 -1.4425333 0.2656161 0.35561907 0.22427803 0.55225253 0.49575737
ACG 0.07591473 1.1416782 0.22117555 0.1625569 -0.8617559 -0.20131218 -0.13346791 -0.45900252 -0.75705916 -0.8282094 0.012621389 -0.6219744
CAAG 0.66415393 0.13995123 0.5640517 -0.8891268 -0.35514966 -0.0014568649 -0.33711728 -1.1508218 -0.6726179 -0.4937443 0.577939 -0.78106314
AAAAT 1.7234825 -0.21989684 -0.037823696 -0.13657063 -0.88991815 -0.25325558 -0.88757 -1.1796795 -0.4454126 -1.080348 -0.34274277 -0.042485565
CCCT 0.13769278 1.459654 -0.43985543 -0.2487647 0.118648015 -0.5614686 -1.5417765 -0.9276236 0.67150766 0.28546333 -0.21025692 -0.07107832
CTAA 0.9884546 0.2330366 0.7377819 -0.13477166 0.6198083 -0.48995954 -1.4164078 -0.617926 0.048617244 -1.0266026 -0.11517756 0.21656387
GAAC 0.086714245 1.2693198 0.10813256 -0.033711497 -0.7101836 -0.41580117 -0.43177065 -0.54322845 -1.0561657 -0.8647421 -0.5654547 0.03165149
CACC 0.39878133 1.4435796 0.259203 -0.35468346 -0.5410669 -0.9962763 -0.89453834 -0.33845836 -0.36642268 0.5902832 -0.4037141 -1.3592359
AGAC 0.39803928 1.3507494 0.49026316 -0.5086458 -0.4606134 0.14959289 -0.59039706 -0.360339 -1.4769794 -0.36404413 -0.30605918 0.32968056
GTAA 1.4368992 -0.22439028 0.17713319 0.71475756 0.0041361377 -0.6115761 -0.8724101 -0.31605142 -0.39436486 -1.6523627 0.4063646 -0.52601457
TTGC 0.94362104 1.1595893 -1.1061102 0.56375474 0.8657778 -0.3605847 0.19296996 -1.1676544 -0.07958274 0.09388401 0.4399256 -0.3363151
TTAC 1.5962368 1.1625227 -0.23072626 0.09182574 -0.2076057 -1.245643 -0.15323651 0.48255488 -0.28713593 -0.2445612 -0.13197568 0.17841682
CCG -0.2673787 1.2964648 -0.4034323 -0.1814447 -0.6402361 -0.36891642 -0.60833615 -0.75429404 0.27639654 -0.08815327 0.28939524 -0.66035336
GATA 1.3854563 0.696474 0.04808589 0.20110719 -0.29582378 0.9670516 -0.95288897 0.066954754 -0.7791319 -0.62925404 0.0015551158 0.61581516
TACT 1.2944326 1.0986469 0.28341225 0.36830658 0.41198593 -1.0264654 -1.0025284 0.5518917 -0.40502465 -0.34777424 -0.038333304 0.580984
ATTTT 1.7444968 0.30980745 -1.5575396 -0.15707758 -0.17124906 -0.7075739 -0.31375656 -0.563288 -0.7898238 -0.015355912 0.2766584 0.5462837
GATG 0.4772111 0.5786329 -0.9494409 1.2218707 -0.6963188 0.7576734 -0.8124068 -0.39833856 -0.7166756 -0.19028011 0.80428463 0.03815003
AGTA 1.2172556 -0.10536857 0.13302763 -0.2715382 0.68561155 -0.19169295 -0.86509246 0.32217914 -0.9408454 -1.7726363 0.6220068 -0.65364164
TTAG 1.0888511 0.5402163 -0.7675132 -0.76177 0.8964762 0.036156904 -0.3056152 -0.19257624 -0.22759824 -1.0258616 0.689941 0.36882502
GGAC 0.17654422 1.5103168 0.65196323 0.36694545 -1.1706308 -0.26833892 -0.70511526 -0.23613791 -0.7494934 -1.0016034 0.27402174 0.40805823
TGCC 0.48906013 0.8279226 -0.96569026 0.52820206 0.5435657 -0.12486858 -0.97217613 -0.7738509 0.23637198 0.3139387 0.12615776 -1.1358026
ACTA 1.2167996 0.9859694 1.0607709 -0.03159209 0.3790551 -0.61511415 -1.1904825 0.13009416 -0.47368476 -1.0630345 -0.3439447 0.5501246
TTTCT 1.113165 0.73564696 -0.8529971 -0.69436365 0.20001543 -1.3606682 -1.0669457 -0.57137966 0.2643728 -0.05917248 1.1668695 0.95349914
TATTT 2.2971447 0.62274235 -1.1377963 0.38526872 0.07866084 -0.5224154 -0.37257156 -0.16330993 -0.12633513 -0.4316754 0.6945343 1.1307132
AAGC 0.8655588 0.8991439 0.081577234 -1.0240391 0.80320084 0.46847904 -0.23013134 -1.4092953 -0.33778077 -0.7352274 -0.22689456 -0.55719095
AGCC 0.050076935 0.9552114 -0.34206444 -0.86251384 0.44652247 0.5665976 -1.2193187 -1.0953826 -0.024175951 -0.28793305 -0.13975166 -1.1253835
CGG -0.08049527 1.3651924 0.05045349 0.20453587 -0.89978355 0.24259456 -0.31955257 -0.51120496 -0.06770693 -0.89761347 0.38926637 -0.52325827
TAGT 1.3438429 -0.13399404 -0.21266335 -0.13850388 0.7717496 -0.44176462 -0.52266383 0.08499103 -0.26616055 -1.1635454 1.2318449 -0.42015788
CGT 0.010971476 0.7079547 -0.5235112 0.049098995 -0.2715833 -0.782817 -0.45830584 -0.28121442 -0.051884744 -0.047007877 0.8942102 -0.7639019
TTTTG 0.8376381 0.9628032 -1.5503109 0.3905338 0.06518272 -1.1706423 -0.0056729214 -0.7921742 -0.55487233 -0.48064744 0.84006363 0.7152567
AAATA 2.1338348 -0.100894526 0.17532258 -0.099521056 -0.3540903 0.20536928 -1.1074368 -0.6526585 -0.58755004 -1.0685457 -0.4183944 -0.08374647
GTCA 0.7841921 -0.21793844 -0.031933863 -0.027997447 -1.1769432 -0.48927298 -0.4304065 -0.1895989 -0.69731265 -0.11406103 1.2941742 -1.0790622
ATCC 1.1099178 0.482369 -0.45274383 -0.27872804 -0.90487635 0.13582702 -1.4313877 -0.73845536 0.5382738 0.37951657 -0.14412571 -0.50818336
TAAG 0.99357325 0.15380464 0.41000026 -0.2293319 0.5053632 -0.012888554 -0.608437 -0.4371195 -0.17371054 -1.4608215 0.77997756 0.23398004
GGAT 0.87841517 0.8743998 -0.7610579 0.3665939 -0.96199745 1.0067954 -0.40406573 -0.40749088 0.14184333 -0.47301167 0.92804205 0.5288079
TGGC 0.3194294 1.6001874 -0.671966 0.6022451 -0.06295017 0.36257866 0.11246884 -0.15835519 0.061746582 -0.48760173 0.57279027 -0.817768
ATAC 1.6636281 0.9815969 0.380617 0.45079824 -0.3358861 -0.0827513 -0.84414035 0.4576633 -0.4709054 -0.124580815 -0.4966852 -0.15147738
GTCT 0.08656397 0.22760193 -0.042060643 -0.19395177 -0.3399301 -1.0406533 -1.4079943 -0.02502183 0.17112313 -0.48755008 1.3742502 0.037104767
GGCT -0.06619197 1.745339 -0.12736657 -0.113140985 0.526309 0.32133195 -0.3768248 -0.22290161 0.15824312 -0.474165 1.2761016 0.13188778
GGCA 0.8064357 1.5182316 -0.0043095155 0.18382382 -0.29173514 0.7532603 0.64909977 -0.36751086 -0.35449842 -0.54218817 0.62526125 -1.1644198
ACCT 0.26654813 1.318279 0.21370348 0.28734294 -0.010422246 -0.81436414 -1.298299 -0.08270462 0.032142986 0.014183291 -0.61501366 -0.14704438
AGGT 0.2708533 0.24824958 -0.33509964 -0.50126845 -0.25427297 -0.04042011 -0.24758461 -0.0018670345 -0.36861885 -1.3122634 1.4747962 -0.50578594
TATC 1.6548759 0.40666127 0.056798212 -0.15964669 -0.47181335 0.08273253 -1.2736996 0.33146295 0.15863466 0.17280258 0.6492927 0.35687017
GCCA 0.6150488 0.80562365 -0.36218628 0.37777567 -0.0058237147 0.11951093 -0.24301213 -1.3912033 0.054129552 0.2757744 0.09653519 -1.3410789
AAATG 1.2181057 -0.087686054 -0.3756522 0.6291728 -0.95408726 -0.12003467 -0.72482836 -1.300438 -0.7242727 -0.9632786 -0.34283417 -0.7987546
AAAGA 1.049172 0.4097712 0.40624678 -0.7497031 -0.46434686 0.1414353 -0.51030296 -1.4691023 -1.1906685 -1.4476664 -0.086176775 0.25754473
GAGC -0.13501364 1.1640208 -0.48869142 -0.32690868 0.5269266 0.67465764 -0.47109178 -1.2269499 -0.962184 -0.05316758 0.47018316 -0.37511748
GTAT 1.549941 -0.13394246 -0.6015346 0.7867614 -0.08129446 -0.051291466 -0.99385226 0.4063949 0.0036054207 -0.8358829 1.0529256 -0.27528754
GGGG -0.38767433 1.7085415 0.013939331 -0.10037347 -1.1167932 0.25256848 -0.26846623 -0.41035876 0.10408643 -1.3503244 1.3151882 -0.29321197
AGAAA 0.6815935 0.44179443 0.29507327 -0.9664873 -0.46021122 -0.068060875 -0.9223295 -1.2183188 -1.281212 -1.4321307 -0.23965472 0.27664182
GTTG 0.06812496 0.45313072 -1.3423673 0.7286195 0.06598646 -0.5927183 -0.2652396 -0.8305121 -0.8896788 -0.7620228 1.2000415 0.023441726
TAAAA 1.9091874 -0.1595756 0.027691241 -0.24284348 -0.039379764 -0.79508996 -0.83683324 -0.73947823 -0.3882305 -1.341354 -0.34850824 0.12831499
CAAC 0.7901995 0.8790132 0.61834145 -0.55068433 -0.37844834 -0.9480379 -0.30736697 -0.6710614 -0.914208 -0.03856054 -0.3712588 -0.82538825
AACC 0.33845413 1.114839 0.08168433 0.012545182 -0.435541 -0.5092696 -1.1025784 -0.88019466 -0.08235331 -0.6392972 -1.3414128 -0.7238691
CTTA 1.1555856 0.9546098 -0.63982624 -0.6933357 0.8210544 -0.51782286 -0.8965584 0.3383553 -0.12013167 -0.51976484 -0.21293986 0.3155145
AGTC 0.35517594 -0.082617804 -0.32412046 -0.7928989 -0.4839096 -0.5875874 -1.0553769 -0.5631931 -0.2548421 -0.2559321 1.0914621 -0.86685276
GGTT 0.43715286 0.67438966 -1.0475929 -0.43294737 -0.42785683 -0.4441199 0.3496389 -0.18187968 -0.026288914 -0.84226215 1.6936154 -0.037173394
TCAAA 1.4454768 -0.021810742 0.756874 -0.6380299 -1.106068 -0.6859515 -0.4257801 -1.4114718 -0.30256835 -0.5345087 0.50672346 0.03617166
TTTTC 1.3275367 0.51775986 -1.185691 -0.9882943 -0.16890357 -1.4568696 -0.5732872 -0.77570575 -0.11943989 0.06857609 0.92150843 0.4491192
TCGA 0.57751554 0.792882 -0.25957656 -0.2552123 -1.3182187 0.5072995 -1.2076334 -1.1001325 -0.19057758 -0.14338608 0.49018672 0.5151951
TCTTT 1.1536181 0.9227224 -0.7821626 -0.5674669 -0.04191528 -1.4612366 -0.925849 -0.6049201 -0.09976834 0.21894452 1.1225386 1.2270583
AGAAT 1.33391 0.30940843 -0.16326986 -0.45914015 -0.37647468 0.94932723 -0.9867744 -0.74641305 -0.84185433 -0.97723925 0.18499835 0.4354528
GCTC -0.0188162 1.3486097 0.09840134 -0.54266924 0.46844316 -0.052739657 -1.0116454 -0.5186095 -0.015949426 0.43374133 1.1616486 -0.3516419
GTTC 0.4399211 0.16172773 -0.7087665 -0.4647209 -0.43649703 -0.9164429 -0.6976349 -0.4840742 0.12329818 -0.013691794 1.7084336 -0.3592398
TAAC 1.3511925 0.50601023 0.62784237 0.24904765 0.22576614 -0.958954 -0.6742472 0.28170693 -0.6720608 -1.0088714 -0.28335658 -0.20658703
GGAAA 0.6416766 0.5960159 0.28134814 -0.109451264 -1.2056583 -0.19142559 -0.34573448 -1.1148176 -0.45318258 -1.9205979 0.12618908 -0.20814288
AAAAG 1.1321882 0.081426755 0.3176217 -0.84086514 -0.18796617 -0.29084283 -0.42454717 -1.4116875 -0.6628444 -1.6905446 0.0767677 -0.26820487
CAAAA 1.3409227 -0.041759178 0.44464186 -0.76186657 -0.70060676 -0.8282975 -0.46909338 -1.2029192 -1.0223316 -0.6631183 -0.23822519 -0.70251
TGAAA 0.4336257 0.13817233 -0.6050544 0.41196468 -0.6845087 -0.6297169 -0.73410416 -1.4296068 -0.9243359 -1.1067253 -0.3037019 0.18528742
TGAC 0.06108894 1.1311209 -0.20878483 1.017775 -0.7491604 -0.6348838 -0.7230236 -0.47484067 -1.5118724 0.25389183 -0.21043655 0.23009965
TTTTA 1.8933735 0.5485617 -1.3267624 -0.30893433 0.15269049 -0.9973293 -0.25997615 -0.01745829 -0.32507625 -0.98320735 0.29122064 0.7198707
TTCTT 1.0214962 0.83648086 -0.9656281 -0.930946 -0.06472003 -1.491586 -0.80274975 -0.65757567 0.2095804 -0.3529338 1.202153 1.046519
CATTT 1.5367308 1.1083161 -1.4473425 -0.2006938 -0.65496624 -0.9066098 0.44462922 -0.32371497 -0.93874836 0.38119873 0.26599464 0.0016499832
GGCC -0.20784163 1.4854429 -0.29150632 -0.04709323 -0.020347316 0.7089678 -0.7712093 -0.64488035 0.5337858 -0.35915443 0.52794933 -1.0275495
CTTTT 0.9272034 1.115751 -1.227801 -0.5853599 0.5804034 -1.5645531 -0.70963776 -0.42870653 -0.56794274 0.031003118 0.4860292 0.7262628
ACCC 0.36794975 1.4990243 0.3970726 0.20977423 -0.78109026 -0.3440498 -1.3187093 -0.9891657 0.013844778 0.10175725 -1.0398322 -0.76370245
GAAAA 0.7423573 0.1832292 -0.26412672 -0.29473007 -0.9127664 -0.16523936 -0.71930295 -1.3830185 -0.7455157 -1.507183 -0.33642828 -0.03046029
TTTGT 0.9677206 0.4561563 -1.4488398 0.7775662 0.10637433 -1.5953819 -0.41576087 -0.51283085 -0.36467686 -0.5527809 1.1526316 0.36373612
GCAC 0.620174 1.6410942 0.58626264 0.36424953 0.40826184 -0.42698735 0.21907946 -0.43600276 -0.78779984 0.12764642 0.25353587 -1.0609057
TTGAA 0.59707206 0.5090289 -1.1525402 0.22679001 -0.43690082 -0.71319747 -0.29931417 -1.6056855 -0.7232251 -1.0772406 -0.18539654 0.70644426
AATTT 1.7562865 0.21462394 -1.010397 -0.16976434 -0.290515 -0.5008115 0.020831848 -1.2245926 -0.40886772 -0.80225694 0.0677395 0.63566804
TTTAT 1.9405583 0.76031095 -1.6189886 0.03970668 -0.057223573 -0.60714006 -0.6612398 0.25593153 0.020559099 -0.6215405 0.3341511 0.84082913
ATAAA 2.1897814 0.02854416 0.07044381 -0.06701567 -0.40212396 -0.09395412 -1.0266334 -0.54602325 -0.40282035 -1.1285677 -0.80636585 -0.40007946
GGGT -0.027019462 0.9100235 -0.60752296 0.22396563 -0.80050755 -0.24378155 -0.21230823 -0.022715392 0.16314332 -0.9956945 1.6685808 -0.3601376
CCCC 0.28229037 1.6292087 0.04721447 -0.088306874 -0.6323151 -0.13139385 -1.3478166 -1.1909806 0.30269027 0.46101296 -0.60330373 -1.1483648
CGC 0.13220671 1.5672617 -0.16326624 -0.08483325 0.21083204 0.050445564 -0.25730684 -0.46972433 0.036347825 0.09642013 0.2768526 -0.8702749
GTGC 0.29018885 0.6398233 -0.64330006 0.8520542 0.7282021 -0.36357856 -0.26297134 -0.9098236 -0.18686222 -0.2269487 1.0204757 -1.3028599
AGGAA 0.87818176 0.663605 -0.05262052 -0.73941267 -0.7911714 0.39242142 -0.3871646 -0.92889845 -0.6714077 -2.0211346 -0.027548676 -0.37923685
AAGGA 0.9245168 0.7387913 0.43906182 -0.6169066 -0.90304315 0.22696263 -0.31731027 -1.1846893 -0.776031 -1.9042 0.22883181 0.04300344
GTTA 1.1302497 0.18661888 -0.71897507 0.036008533 0.16026819 -0.9641765 -0.43311352 0.6454332 -0.40480193 -1.3245244 0.65083987 -0.24396214
ATTCT 1.4973398 0.42681697 -0.6514199 -0.4176512 0.007357707 -0.2936058 -1.3459885 -0.46488458 0.20985422 0.4059785 0.717689 0.5013902
GCG -0.11588975 1.4089271 -0.20295012 0.19326054 0.032681588 0.23774727 -0.15733877 -0.6034833 -0.07495252 -0.22054555 0.68007344 -0.7737744
AAATT 1.9212627 0.03249228 -0.7274216 -0.34579244 -0.316427 -0.7277502 -0.39615738 -1.3134162 -0.4232392 -0.6573466 -0.43241245 0.2318562
TAGG 0.86740804 1.0109423 0.25020307 -0.043276917 -0.021261066 0.7937195 -0.22502585 0.33294308 0.030981846 -1.2838097 1.0860549 0.21513063
CCTA 0.7257444 0.7908207 0.11933478 -0.191904 0.5326732 0.13103682 -1.7094095 -0.20404343 0.70032305 -0.43330163 -0.3396166 -0.4408324
CTAG 0.51959693 0.5665155 0.42946398 -0.5549262 0.84231853 0.14578782 -1.2785814 -0.050902043 -0.2420468 -0.7527591 0.49765185 0.07011183
AAACA 1.4260116 0.7232743 0.56231695 -0.33637246 -0.9801304 -0.9221293 -0.016084496 -0.8485519 -1.094569 -1.1637871 -0.6486582 -0.42038536
TAGAA 1.6198596 0.5512769 0.034196347 -0.15307273 -0.05335195 0.75535476 -0.75009847 -0.59327936 -1.0290457 -1.5275673 0.23013005 0.6868256
GTAG 0.7340099 0.062955216 -0.094943546 0.27799383 0.67687076 0.29081035 -0.7919362 -0.0871668 -0.81118363 -1.497839 1.238019 -0.25031576
ACAAA 1.751396 0.74337363 1.0033098 -0.24146812 -0.7632085 -0.75208855 -0.06794235 -1.0090716 -0.7811982 -1.0187978 -0.6524612 -0.46155372
TTTCC 0.94665384 0.72110164 -1.4844826 -0.3813167 -0.27980748 -1.4051946 -0.7418973 -0.9369276 0.32331216 0.32746732 0.42592525 -0.2264116
TTTCA 1.722115 0.32297346 -0.7872852 -1.0915145 -0.581003 -1.0631465 0.18405816 -0.70357394 -0.42401266 0.14279474 1.0580468 -0.07167669
GTCC 0.2909789 0.3304533 -0.6810992 -0.22694044 -0.89725405 -0.8201124 -1.1268022 -0.9003224 0.44064838 0.063343965 0.943375 -1.0498743
GAAAT 1.0431432 -0.02691207 -0.523602 0.25681382 -0.76028484 0.1569258 -0.8452075 -1.1210314 -0.7841268 -0.9914553 -0.13069136 0.2532062
AAGAA 1.200911 0.3891001 0.14448373 -0.73922175 -0.6123771 0.025283406 -0.5816952 -1.3313279 -0.95350814 -1.664031 -0.21085347 0.28891805
CAAAT 1.6179712 -0.21746364 0.021840466 -0.10787832 -0.86632794 -0.15232562 -0.7686886 -0.9593945 -0.7945107 -0.25118434 -0.10954838 -0.603924
AAAGG 0.71624506 0.61475617 0.39046374 -0.6389974 -0.7745664 0.026790507 -0.20770124 -1.1262225 -0.4150317 -2.0125284 0.4123265 -0.41905716
CGAA 0.633581 0.78730005 0.15271407 -0.045045823 -1.1728263 0.3614181 -1.1273949 -1.062295 -0.33210662 -0.7386064 0.13054074 0.1329366
ACAGA 1.0256453 1.0079687 0.9542977 -0.43285143 -0.4666907 0.34276897 -0.22159083 -0.6782222 -1.850593 -0.5176138 0.17099983 0.0684742
TTTGA 0.66817683 0.81007594 -1.5748785 0.03866383 -0.21924464 -0.60045826 -0.43388292 -1.0652231 -0.8924636 -0.23225375 0.21044517 0.99779016
ACACA 1.636735 1.7046473 1.0684055 0.17346705 -0.8631422 -0.6257755 0.48161831 -0.21075486 -1.6258284 -0.30855396 -0.15169641 -0.72927153
GTTTT 0.95031613 0.36078492 -1.4476663 -0.24747066 -0.017288547 -1.380235 0.07286251 -0.5494329 -0.4667861 -0.66321254 1.1893662 0.112608194
CTAC 1.0894623 1.1798269 0.9345998 -0.08982673 0.466131 -0.5803595 -1.1731238 0.40990797 -0.27525887 0.161705 -0.049606774 -0.16238555
GAAAG 0.47498855 0.5642938 -0.22521228 -0.53366953 -0.43228668 0.20476368 -0.37246692 -1.5492399 -0.7311364 -1.8243376 0.34904847 -0.025219798
TGTTT 0.8717512 0.34499344 -1.7253625 0.53336436 0.0060992977 -1.5424674 -0.5252049 -0.23953535 -0.49089193 -0.29457852 1.1445893 -0.109421246
TTTAA 1.7096757 0.3116202 -0.88188726 -0.5141739 0.002141435 -1.0930622 -0.29611215 -0.53185356 -0.2973242 -1.3020349 -0.07806223 0.5615569
ATATT 2.14845 0.28859618 -1.1188506 0.17490186 -0.40272236 0.06022975 -0.77683866 -0.11978345 -0.12441248 -0.38033482 0.079197146 0.50434613
ATTTG 1.1019568 0.62092865 -1.6381075 0.5356518 -0.24401493 -0.30934417 -0.26480725 -0.69543755 -0.60537016 -0.06166804 0.30685997 0.41413474
TTATT 2.0053272 0.73642737 -1.7015085 -0.03339124 -0.06408414 -0.6578188 -0.6423228 -0.20458642 0.25724247 -0.46282187 0.35580292 0.7991393
AATAT 2.1789196 -0.005412259 -0.43899712 0.10627249 -0.50922906 0.47270507 -1.0311829 -0.4293539 -0.0666483 -0.7894122 -0.034099746 0.18587805
TTAAA 1.7549009 0.25145537 -0.528797 -0.3964588 -0.021916203 -1.2472949 -0.42705357 -0.86557555 0.044017132 -1.4016066 -0.31786337 0.47627136
TTCCT 0.9765703 1.213752 -1.4835768 -0.37045816 0.14340147 -1.2164426 -1.1665839 -0.75151354 0.6515514 0.3084453 0.6186585 0.20694016
AATAA 2.439143 -0.09568777 0.09914389 0.0603126 -0.3903581 0.009433281 -0.9420958 -1.0287831 -0.5933507 -1.3984894 -0.5857833 -0.22847936
AAACT 0.5718329 0.7203079 0.5226964 -0.42975843 0.11221575 -1.304328 -0.9194272 -0.68174624 -0.82498205 -0.95778793 -0.46021387 0.42067328
ATGAA 0.8244163 0.31688994 -0.78236425 0.5022627 -0.79245275 0.12372586 -0.84193885 -1.2321991 -0.9179366 -1.1664692 -0.6072949 -0.113220304
TGAAT 0.97491735 0.19239575 -1.1174362 0.7549996 -0.5139042 0.0914493 -0.8704432 -1.1508805 -0.8211857 -0.6257171 0.067675255 0.45989928
AAAAC 1.3126774 0.66493016 0.5426096 -0.47980663 -0.51815087 -1.1706631 -0.7020041 -0.9349941 -0.8737158 -1.2511098 -1.0338475 -0.2750422
CCTTT 0.6949927 1.2658411 -1.2949051 -0.6232164 0.22378196 -1.2740308 -0.8380573 -0.84579784 0.30795896 0.04424099 -0.1311727 0.2794867
ATAGA 1.7236416 0.563359 -0.12251056 -0.4425808 -0.30241108 1.0191225 -1.1241874 -0.50537246 -1.2486095 -1.3615384 0.14628135 0.40272915
GCCC -0.009816254 1.3076205 -0.22842693 0.060156252 0.08782961 0.29145408 -1.080327 -1.2914795 0.34347385 0.13354562 0.021470904 -1.2979673
CAGAA 0.6813599 0.5267731 0.22453924 -0.88752526 -0.5625606 0.41531315 -0.56266785 -1.0206722 -1.5784887 -0.39131147 -0.1159221 -0.333339
AGAGA 0.35633874 0.75058395 0.14404525 -0.68763757 -0.27165854 0.7027849 -0.7865426 -0.99189454 -2.0362027 -1.0228298 0.3027208 0.33720708
TACC 1.155408 1.0834781 0.08810221 0.22216311 0.087618545 -0.35077822 -1.2026454 0.20322451 0.27390432 0.024308432 -0.78315175 -0.5918372
TCTGT 0.7064028 0.32133824 -0.49541757 0.62679857 -0.004004672 -1.1340641 -1.5763173 0.064286105 -0.20170158 0.34150746 1.7311188 0.09779774
TCCTT 1.0231507 1.0365335 -1.2205809 -0.2566686 0.1891876 -1.3203478 -1.0883067 -1.0957042 0.32100433 0.42346534 0.66777414 0.40565357
TGGAG -0.09900881 0.9435657 -0.69742113 0.31915417 -0.5107426 0.32876223 -0.53876114 -0.4040467 -0.9492491 -1.3847145 1.1121267 -0.046017464
GGTA 0.8579746 0.5129837 0.090137035 0.45083627 -0.12802634 0.13579008 -0.51522785 0.52941674 0.038637415 -1.6948047 1.0268289 -0.40907592
TTCAA 1.5828853 0.095780656 -0.42077512 -1.0537481 -0.83194166 -0.90993494 -0.098482296 -1.1222774 -0.23558362 -0.24937591 0.5234942 0.08770659
GGGC -0.32194394 1.8624928 -0.09642884 -0.10182686 -0.25832283 0.4550832 -0.15093656 -0.43047115 0.17040235 -0.53824043 1.247957 -0.8341651
TTCTG 0.31290564 0.6873788 -1.003344 -0.045793146 -0.083888926 -0.643014 -1.121616 -0.25893065 0.069970936 0.19925177 1.2910051 0.44409972
ATTTA 2.0734122 0.5084793 -1.3211403 -0.15621811 -0.08842932 -0.29452947 -0.39252436 -0.12643443 -0.46551704 -0.7907739 -0.27517727 0.5199164
TTCAT 1.6576433 0.47759956 -1.0820854 -0.5715654 -1.0051832 -0.65067446 -0.31415725 -0.16486184 0.14534423 0.39424166 1.0419658 -0.11812351
AGTTT 0.8098145 0.047145236 -0.9193692 -0.71381176 0.4159361 -0.9405323 0.03986224 -0.6150519 -0.9020067 -1.152409 1.1133239 0.04320239
CTTTC 0.8210932 0.94030535 -0.72990197 -1.0209713 0.3736648 -1.2417798 -0.93899316 -0.6787194 -0.2174653 0.54205585 0.606913 0.1997041
AATGT 1.1551273 -0.42812124 -0.42257693 1.0683489 -0.62488663 -0.65839666 -1.0259465 -0.6832192 -0.5643392 -0.9324964 0.28080633 -0.6961113
GCTA 0.9736778 1.117243 0.22638941 0.40533742 1.3869401 0.39301413 -0.9742932 -0.14626743 0.14309639 -0.5217767 0.17549042 -0.07577674
AATGA 0.9186193 0.28897774 -0.6678104 0.5412749 -0.8358954 0.22425993 -0.93451 -1.1952776 -1.1090059 -0.9868094 -0.5134854 -0.12055798
AATAG 1.6328651 0.35513937 0.06699122 -0.25524843 -0.12152035 0.9404768 -0.8509417 -0.59456015 -0.87182033 -1.4448218 0.27883697 0.07276143
GATC 0.5297721 0.55078393 -0.23695205 -0.39219734 -1.1680416 0.848005 -1.316722 -0.4059104 -0.4508242 0.3556489 0.6522466 0.5181325
ATTTC 1.7321224 0.13174248 -0.9856382 -0.574965 -0.3211298 -0.5952825 -0.59871787 -0.74836475 -0.32227117 0.54651695 0.403106 0.10851291
TGTGT 0.6116509 0.22964191 -1.0960782 1.4968802 0.055361267 -1.2572368 -0.97729224 -0.14758489 -0.49131137 -0.4603817 1.2500943 -0.75715536
ATTCA 1.9438978 0.15531799 -0.6298588 -0.7759577 -0.747451 -0.2660597 -0.34457895 -0.5828536 -0.5325775 0.40199965 0.6489058 -0.225467
TAAAT 2.2929032 -0.19721133 -0.34454894 0.20078164 -0.25438353 -0.48899978 -0.9068874 -0.6203304 -0.15992764 -0.9753824 -0.13898078 0.3196402
TTCTA 1.743939 0.5965959 -0.42061365 -0.5174201 0.1448176 -0.8717845 -1.4678535 -0.263219 0.6725074 -0.039454702 0.71983635 0.7500559
TAGC 1.2455397 0.941428 0.07253378 -0.34178868 1.2666774 0.4294624 -0.34653902 -0.2837046 -0.071403995 -0.48886392 0.3114333 -0.43489155
GAATA 1.5383023 0.58589745 0.04440338 0.13395333 -0.33196315 0.8204752 -0.8727872 -0.54972136 -0.92139643 -1.3105323 0.0331437 0.19819197
GACC -0.12681726 1.3253152 -0.107042916 0.05946081 -0.93617517 -0.041832414 -1.008992 -0.6006576 -0.53841996 -0.022646714 -0.63705164 -0.3653758
ATTGA 0.93665653 0.5023512 -1.3434744 0.4911473 -0.25635737 0.050613683 -0.6274766 -1.2256062 -1.1101439 -0.6936306 -0.14477184 0.63647664
AGAAG 0.5282847 0.6159664 0.30879405 -0.84586406 -0.10444341 0.6601593 -0.5176575 -1.1336082 -1.1972898 -1.5668184 0.46826172 0.065247886
TGGAC 0.25655413 1.3312522 0.12162353 0.6584971 -1.0670751 -0.15500706 -0.8236724 -0.21728922 -0.9101743 -0.94906455 0.045316808 0.25063154
TTGTT 0.85234195 0.67774755 -1.6899815 0.63596016 -0.08043357 -1.6957383 -0.3921262 -0.7100819 -0.07928214 -0.55576754 1.0524913 0.40483814
AATTA 2.1376514 0.38331598 -0.45437562 -0.3156025 -0.21338037 -0.09728545 -0.43490493 -0.41213036 -0.112324536 -1.2658747 -0.30244184 0.37255123
TGCAA 1.2238942 0.3154478 -0.40691826 0.5175923 0.4393386 0.0039556487 -0.02876193 -1.2594924 -0.7114995 -0.53274834 -0.108134486 -0.94372106
GTGGA -0.0121815875 0.53644747 -0.32348207 0.565314 -0.81905675 0.067523085 -0.48514915 -0.635699 -0.684765 -1.4113697 0.9739286 -0.5542143
AATTG 1.0538214 0.45356146 -0.9999592 0.5974768 -0.42658284 -0.26424444 -0.26752347 -1.3374367 -0.5792724 -0.9356145 0.19728331 0.5603
TGTAA 1.2455828 -0.19082166 -0.30333737 0.93679994 0.09748869 -0.74210346 -0.9176328 -0.27852204 -0.52839077 -1.4023498 0.31876096 -0.529869
GGTC 0.021265268 0.52933514 -0.22654553 -0.11218205 -1.1284851 -0.35605365 -0.81065077 -0.15402573 0.21393378 -0.21820411 1.6269023 -0.52435553
CTTCT 0.51649433 1.0710094 -0.52702916 -0.806684 0.6086512 -1.1765984 -1.4196515 -0.37252992 -0.0265426 0.30243433 0.957982 0.54657847
GAATT 1.1731889 0.47649965 -1.0782253 0.0010277223 -0.5448035 0.08859444 -0.30161762 -1.1849769 -0.7150439 -0.9686735 0.12968083 0.8058324
TTCTC 0.7696566 0.6348862 -0.3940103 -0.8892004 -0.4003198 -1.0233551 -1.0781759 -0.48714644 0.1554746 0.43431273 1.2187879 0.48403916
CTCCA 0.49454573 1.2259624 0.17968766 -0.7981102 -0.6431206 -0.9936731 -1.1592261 -0.70337826 -0.010396283 0.7818059 0.15470791 -0.60231197
CACAC 1.1562141 1.8605846 0.7351263 -0.09522758 -0.54983306 -1.0218495 -0.0039315238 -0.10909325 -1.6802226 0.2780237 -0.14145502 -1.1533887
TCACA 1.4888444 0.86007833 0.71933526 -0.46896693 -0.78750086 -0.91307545 0.07227594 -0.23143311 -0.8964661 0.5637415 0.67176646 -0.31310445
CTTTG 0.12316291 1.189632 -1.1810459 0.17544867 0.39071193 -1.1905618 -0.5385352 -0.6830787 -0.52541536 0.02552624 0.45282748 0.48387715
ATATA 2.5293424 0.17910728 -0.30599913 0.4898487 -0.23466535 0.5629665 -1.3482867 0.31848794 -0.31530336 -0.82497156 -0.13716084 -0.12154328
AACAA 1.5630858 0.59997106 0.72564703 -0.3425619 -0.81252533 -0.8422145 -0.056900382 -1.0432405 -1.0124258 -1.2395208 -0.67305094 -0.50734377
CAGAG 0.13327624 0.7471467 0.29049665 -0.86715895 -0.3573835 0.32371175 -0.47027194 -0.6212278 -1.9400065 -0.1572285 0.78128713 -0.5332991
TGTGA 0.010601636 0.30667472 -1.045576 1.1800038 -0.43210328 -0.6739843 -1.0841876 -0.4800622 -1.0040582 -0.3679797 0.47643638 -0.033974532
AGTGG -0.022603549 0.6596365 -0.35664025 0.38002023 -0.3769868 0.1376321 -0.36292917 -0.6657763 -0.89813954 -1.6712929 1.1832045 -0.94272894
ACTTT 0.81545925 1.3996044 -0.28710213 -0.43374166 0.29729733 -1.8145471 0.055017777 -0.38969803 -0.7999582 -0.47132596 -0.01947203 0.72804314
AATCA 1.770993 0.04867614 0.2761643 -0.68110555 -1.3135005 0.023638044 -0.5948001 -0.7617226 -0.6001609 -0.5673585 0.17273727 -0.24227856
GAGAA 0.25268322 0.6872913 -0.23383611 -0.23584493 -0.4268374 0.44389316 -0.6921574 -1.1975857 -1.34716 -1.1412129 0.12882435 0.54156816
GAGTG -0.13725957 0.48292688 -0.5620288 0.5888567 -0.1633426 0.057817884 -0.5898241 -0.923008 -1.4794798 -1.3419464 1.1610569 -0.54963744
TCTCT 0.77777606 0.8022312 0.120979734 -0.45437345 -0.14595073 -0.91116506 -1.6387196 -0.29543966 0.17574756 0.49553546 1.477737 0.7945854
TAATT 2.2709386 0.005108569 -0.8056263 0.26088187 0.17307839 -0.61786026 -0.59065104 -0.66105264 -0.15638517 -0.8232477 0.2210109 0.51123273
ACATT 1.7508612 1.2193942 -0.37611753 0.2776048 -0.673234 -0.7509657 0.446612 -0.2052603 -0.59168255 0.0465626 -0.12856625 0.34648675
CAAAG 0.74282014 0.25813064 0.5472579 -0.9141586 -0.13316168 -0.16263166 -0.20336723 -1.2412999 -0.86728454 -0.68614125 0.27276212 -0.7369601
TATTC 1.9678594 0.7568183 -0.63926315 -0.3056328 -0.16529784 -0.49254298 -1.0734814 -0.1363158 0.5597847 0.2248274 0.6796439 0.39212567
TATAT 2.404398 0.3796299 -0.7707968 0.8239519 -0.07854725 0.21998957 -1.2319028 0.44202983 0.08174917 -0.49479377 0.46368003 0.3766115
GGACT 0.085970744 1.5402479 0.54898804 0.32098964 -0.86828834 -0.10909611 -0.9733125 -0.3155817 -0.87668943 -1.025135 0.51727974 0.60875565
GAAAC 0.27337158 1.0439681 0.1973131 -0.2384948 -0.62708646 -0.57382005 -0.44873863 -0.83703417 -1.0704991 -1.1094561 -0.65217525 -0.035997074
TCATT 1.9043335 0.7236821 -0.6248012 -0.17343634 -0.5625761 -0.78979176 -0.053469434 -0.62017506 0.075106844 0.55600244 0.95620984 0.1915237
ATGCA 1.3489419 0.52767086 -0.41248384 0.83538026 -0.043374244 0.39882535 -0.07097404 -1.0946338 -0.54574215 -0.51392823 -0.21597615 -1.2240067
GGAGT 0.044473533 0.5593946 -0.53933895 0.21466452 -0.47537202 0.15525784 -0.58322746 -0.5234321 -1.0134372 -1.3601716 1.5267068 -0.4027547
TCTCA 0.8687739 0.4124851 0.51629806 -0.9573826 -0.7176392 -0.6835492 -0.79341465 -0.37659773 -0.2190418 0.41688776 1.5211189 0.0037102003
AAAGT 0.9439868 -0.4149705 0.042124216 -0.28913662 -0.16198565 -0.8405581 -0.33846423 -1.0202346 -0.56559145 -1.636765 0.65424937 -0.6474991
TGATT 1.0401903 0.7029957 -1.5970699 0.56276286 -0.4803847 -0.08121579 -0.7424118 -0.70284075 -0.5164603 0.13294107 0.58349425 0.83999586
TTGAG -0.09688112 0.8827959 -1.3451483 -0.13295065 0.27882358 -0.10751507 -0.42446014 -1.0796772 -0.9913962 -0.64707553 0.7348669 0.7213489
TAATG 1.3908577 0.1977206 -0.6468184 1.0521381 -0.28778106 -0.13760935 -0.86723757 -0.25548425 -0.37298822 -1.2294652 0.16680242 -0.055033997
CTGTG -0.2584091 0.9034446 -0.5415859 1.1131928 0.3564394 -1.0203689 -1.2387811 -0.2234865 -0.5729692 -0.11448266 0.9953855 -0.63144624
AGACA 0.8051097 1.1983097 0.7610817 -0.38194838 -0.47602704 0.18269163 -0.18194534 -0.48757616 -1.7366326 -0.69616383 -0.06868938 0.049174886
TGAGA 0.025827708 0.6504001 -0.56868565 0.2302879 -0.19242693 0.39688635 -0.94955546 -0.84869957 -1.4495949 -0.47673818 0.39391807 0.7957212
TGGGA -0.06492182 1.323793 -0.33738053 0.61302185 -0.98235893 0.54678446 -0.41520306 -0.25976902 -0.45810834 -1.2399331 0.6415065 0.28097793
CTGCA 0.57250774 0.94962436 0.1841408 0.28647485 0.7298598 -0.18470742 -0.34763098 -0.5525496 -0.71099025 0.33155358 0.42006084 -0.99123585
AATGC 1.1873287 0.3398181 -0.5096869 0.58102393 0.047201626 0.46703798 -0.44213605 -1.2467402 -0.3593636 -0.5530767 -0.22216332 -1.0538067
TTTGG 0.32817456 1.4435735 -1.1901513 0.27697128 -0.4348304 -0.688826 0.5347841 -0.3434901 -0.17915253 -0.73515445 1.1412511 0.46870637
TCGAA 0.6253429 0.74520874 0.0524665 -0.1580837 -1.1340761 0.42613888 -1.2168858 -0.87242824 -0.33820897 -0.59288263 0.2327853 0.29347956
TTATA 2.263049 0.5163976 -0.92791635 0.14413442 0.059012383 -0.23962168 -0.7034755 0.29101133 -0.084108815 -0.8665695 0.10170618 0.5299593
CACAG 0.65670013 1.0371513 0.69068575 -0.6401209 -0.5304048 -0.21560809 -0.028534828 -0.35571966 -1.5383204 0.09175561 0.51777685 -1.1658417
GTTTC 0.647965 0.15669572 -1.2178394 -0.40951243 -0.2535404 -1.1822773 -0.64789855 -0.57735145 -0.12850188 -0.091914095 1.6488642 -0.11116241
TTACA 1.9725968 1.1667911 -0.19992846 0.13937373 -0.33980164 -0.938858 0.36566836 0.37216458 -0.45444855 -0.23211624 0.15756229 0.04901406
CTGGA -0.08278089 1.5131619 -0.0034221935 0.34482905 -0.6005248 0.03258988 -0.9155275 -0.09541787 -0.4644353 -0.98965305 0.44074008 0.55119187
CTTCA 1.0082994 0.73706156 -0.09531226 -1.2778295 -0.1180987 -0.8472158 -0.39793858 -0.24852653 -0.5371957 0.52696884 0.7137721 -0.1396575
GAATC 0.9420153 0.34459516 -0.16271374 -0.19514945 -1.1775101 0.5436769 -1.108382 -0.7955479 -0.5750796 -0.4780775 0.2652514 0.26821208
CACAT 1.5027113 1.1566335 0.0033007548 0.35366964 -0.8237477 -0.45617688 -0.0010823018 0.2981247 -0.68823135 0.5565063 -0.057440467 -0.8235805
ATAAT 2.4843776 -0.07545667 -0.3573405 0.31557885 -0.31377286 0.28053313 -1.0903283 -0.4081942 -0.43585342 -0.7802253 -0.089534774 0.066780515
AAGAT 1.3439319 0.2772845 -0.2734452 -0.1275172 -0.52497977 0.8088309 -0.5949827 -0.9042676 -0.62708133 -0.8092133 0.11990824 0.68351424
CTGAG -0.6267817 1.1611748 -0.4745019 -0.16982214 0.4002594 0.23226205 -1.2760367 -0.6611228 -1.1208199 -0.26744828 0.39246958 0.24993035
CTCAA 0.67923814 0.23737216 0.8033351 -1.1587881 -0.586471 -0.76392305 -0.83758247 -0.72772205 -0.2383346 -0.37735602 0.63060117 -0.32272345
AATTC 1.5812792 0.12948053 -0.5015121 -0.7773299 -0.61990196 -0.23664513 -0.6873282 -1.2241617 -0.07829893 -0.0007544153 0.22399674 0.2998428
TGCAG 0.43677592 0.81046885 -0.38966003 0.2537992 0.7092654 0.2786239 -0.028296785 -0.68491423 -0.838883 -0.060436465 1.0580076 -1.2606833
TTGCA 1.1681165 0.90547425 -0.9307128 0.4294592 0.53981066 -0.3433618 0.46470004 -1.0509068 -0.5163532 0.15774214 0.41802028 -0.53257334
TCCAC 0.7107319 1.3687991 0.06753805 -0.26007068 -0.45765468 -1.2142826 -0.88745487 -0.69695926 -0.24029356 1.0075424 0.031907562 -0.48412955
ATGTG 0.73624325 0.09783459 -0.89336026 1.4112673 -0.5200974 -0.50143695 -0.7167006 -0.33179495 -0.35427046 -0.57329655 0.5187759 -0.7569647
GAAGA 0.4636049 0.56023175 -0.035263743 -0.26085883 -0.48293203 0.53524727 -0.6409788 -1.1690897 -1.4013371 -1.3378412 0.1922317 0.51551825
AACAT 1.7258397 0.80942655 0.08559985 0.118932985 -0.8673613 -0.41013688 0.05900281 -0.33433136 -0.57373947 -0.43928045 -0.6702954 -0.28606945
AAGAG 0.4915275 0.38560924 0.18637282 -0.84382385 -0.26205596 0.44378373 -0.49916235 -1.3249224 -1.2630737 -1.3044496 0.4303096 -0.036404155
CTCTG -0.3588726 1.1536139 -0.3586966 0.056084916 0.10403491 -0.70456207 -1.5680299 -0.009879565 -0.23223616 0.28618053 1.04194 0.032793257
CTATT 1.7686502 0.86073095 -0.7354573 -0.14052065 0.45984623 -0.67891794 -1.3766884 -0.10345521 0.13395813 0.22831698 0.3537962 0.6212491
ATCTT 1.3183669 0.53154445 -0.4909454 -0.52110165 -0.5894166 -0.5517014 -1.1121391 0.05598373 0.15697683 -0.02683575 0.4124704 0.82451147
AGATA 1.64766 0.43154353 0.2069542 -0.077378556 -0.1334973 1.095166 -0.8852318 -0.35033524 -1.031061 -0.8571193 0.07547804 0.34527683
TCTTC 1.1529846 0.66971195 -0.16859561 -0.89958584 -0.2562572 -1.0039392 -1.049791 -0.59264535 0.24491043 0.6092233 1.1735357 0.44518578
GTAC 0.9402635 0.58027434 0.47600642 0.7172938 0.0982167 -1.0248823 -0.4230737 0.5692796 -0.48772597 -0.8303795 0.42737216 -0.6430042
ATTAA 1.9549956 0.32378462 -0.714998 -0.27959532 -0.30440852 -0.40045244 -0.5558408 -0.39494902 -0.1800076 -1.1890374 -0.55896735 0.19760405
CCAAA 1.0408366 0.4772764 0.39421862 -0.63636166 -0.5925183 -0.516709 -0.8286773 -1.5701365 0.041195355 -0.23788254 -0.75411296 -1.0843335
TCAAT 2.0137858 -0.041192595 -0.20636192 -0.20674254 -0.6352966 -0.36177865 -0.43845585 -1.1124154 -0.110655874 0.18756148 0.6591791 -0.13527624
TAATA 2.3871279 0.086447455 0.014510429 0.3099099 -0.00820188 0.07191204 -1.0597557 -0.092260405 -0.33973435 -0.92964727 0.02002951 0.2200962
GATTT 0.88392484 0.7543959 -1.2171693 -0.04986924 -0.3643228 0.1390918 -0.2145334 -0.58813983 -0.5915827 -0.6006457 0.546899 1.170571
CTCAG 0.04143188 0.8153527 0.23617633 -1.4845979 -0.21903908 -0.06734231 -1.0040942 -0.6428083 -0.51393926 0.33491004 1.2220005 -0.486038
CTTTA 1.1314787 1.0922744 -0.77225596 -0.5897716 0.7908603 -1.0777414 -0.84101397 0.013988547 0.07198731 -0.53049415 -0.09182982 0.3892349
TCCTG -0.21018061 1.3184551 -0.66184443 0.39572397 -0.0696712 -0.6557755 -1.3749942 -0.60791594 0.13307214 0.5905888 1.046759 -0.21765518
AACAG 0.97566456 0.7041456 0.69424075 -0.32813653 -0.2477912 0.008034425 -0.10940512 -0.53502524 -1.4694948 -1.0840513 -0.029068552 -0.62342507
CTCCT 0.06716125 1.5894774 -0.47025526 -0.44220307 0.33258623 -0.68156946 -1.6433175 -0.30940714 0.32065105 0.47996944 0.5070281 -0.06410261
TGCAT 1.3873665 0.9450655 -1.1039088 0.8408871 0.26449937 0.05724481 -0.05536842 -0.3948477 -0.34680936 0.5118559 0.625769 -0.8195984
TCCCA 0.92101306 0.49536094 -0.22532915 -0.17279635 -0.6867424 -0.20116939 -1.0085471 -1.2105507 0.18369092 0.8400781 0.028491165 -0.80719763
CATCT 1.2779416 0.83568096 -0.133238 -0.43818527 -0.70986325 -0.37285176 -1.185508 0.19425395 -0.19084391 1.0109679 0.6761929 -0.06721137
ATTAT 2.3208756 0.35591117 -1.2631795 0.26524258 -0.31192318 0.01742181 -0.9075422 0.20976269 -0.053677727 -0.49041846 -0.1282346 0.32944238
CGAAT 0.74246246 0.762665 -0.02518934 0.16698909 -1.1414758 0.49431926 -1.2316045 -0.9361653 -0.3492756 -0.6835073 0.16357115 0.13996692
TTGTA 1.3267499 0.16997522 -0.74164116 0.8108272 0.4843699 -0.94369763 -0.6189617 -0.2278635 -0.10078216 -0.99833125 0.64666355 0.24569497
TACAT 2.1370637 1.050507 -0.38909635 0.58954024 -0.43360475 -0.6773483 -0.0875214 0.47930804 -0.3450661 0.002102229 0.023981154 -0.14876813
TATGT 1.6221967 0.15744747 -0.8181944 1.2312546 -0.05892515 -0.56118846 -0.8859805 0.5142025 -0.1943647 -0.6722287 0.69991106 -0.11316497
ATCAA 1.6340312 -0.00200525 0.22371477 -0.6337996 -1.2173975 -0.10541862 -0.6966361 -0.7238331 -0.41389626 -0.4924002 0.042728882 -0.40191555
CTGTT 0.5261197 0.6883172 -0.942516 0.3901785 0.2427127 -1.389315 -0.85294354 0.073397614 -0.2026537 0.09924641 1.2196223 -0.04195099
GTAAT 1.4991508 -0.22228475 -0.37322208 0.8960778 -0.10028989 -0.31020716 -0.8654255 -0.46018255 -0.22073239 -1.1937486 0.5407771 -0.43008274
CTCTT 0.45626813 1.1162074 -0.4662662 -0.7969631 0.3116835 -1.2469361 -1.201925 -0.3347228 0.1183406 0.1727641 0.8540485 0.62978315
AATCT 1.1646036 -0.0058990815 0.2653757 -0.38789636 -0.4129768 -0.11021565 -1.4289114 -0.46993545 -0.179399 -0.105126984 0.41722783 0.5434098
CACTG 0.06321904 1.446795 0.10136876 0.47428283 0.08946596 -1.12547 -0.62653005 0.17141326 -1.1255169 0.20158502 0.30622005 -0.9642157
CAATT 1.8124937 0.18637021 -0.64469236 -0.2934288 -0.49211738 -0.7329265 -0.27503595 -1.0157189 -0.71611077 0.23670875 -0.008830828 -0.16708046
TATAA 2.4116366 0.36159894 -0.2749746 0.37110585 0.050809577 -0.0424943 -0.9522085 -0.14696588 -0.11111294 -1.0472031 -0.32184798 0.28687844
CCACT 0.46678877 1.6248798 -0.019663913 -0.24679212 -0.28471482 -1.2140707 -0.8908687 -0.28404793 -0.096396714 0.53382593 -0.02536339 -0.4927366
AAGTG 0.49889866 -0.1455574 -0.31519482 0.45346123 0.13817658 -0.32506964 -0.42912462 -1.0349514 -0.74368113 -1.5740232 0.6579888 -0.8552904
AAATC 1.3821123 -0.2583277 0.20665199 -0.8533351 -1.045325 -0.22566919 -1.3268028 -1.0598363 -0.28752565 -0.34726095 -0.0549564 -0.037230197
TTAAT 1.884301 0.082845576 -0.9668082 0.30967 -0.07636662 -0.5599303 -0.52335876 -0.51693577 -0.01575998 -0.8551761 0.3838622 0.47632924
TTGAT 1.1271987 0.6388411 -1.5995843 0.76718247 -0.3961616 -0.28073356 -0.90079355 -0.71350056 -0.3791938 -0.037606124 0.6263387 0.9755933
TTCG 0.6539968 0.9182931 -0.8084312 -0.5903551 -0.5442371 -0.17899545 -0.68878746 -0.7031863 0.061633732 0.18964134 0.7277458 0.32149222
AACTT 0.87716407 0.97610146 -0.0636344 -0.66801476 0.14511319 -1.3898593 -0.38739175 -0.6294453 -0.79071283 -0.72035086 -0.41153395 0.80055416
CAGCA 1.0235956 1.0614767 0.4354447 -0.58030945 0.3998969 0.117034845 0.06011568 -0.60790086 -1.2507005 0.20417568 0.38219354 -1.4693385
TGGTG 0.06266004 0.7982987 -0.97790027 1.1680894 -0.5014425 -0.27263966 -0.32791308 -0.13951412 -0.3662324 -1.1143513 1.2158496 -0.37841412
TCAGA 0.6789954 0.31357202 0.36068264 -0.86293316 -0.65362746 0.49716496 -0.5552222 -1.1063169 -0.7910994 0.26343417 1.1229365 0.19139288
TCTAT 1.7697473 0.59594065 -0.419702 0.039112363 -0.031388495 -0.45527303 -1.5472565 -0.15030064 0.49553335 0.23389547 0.90777165 0.52775013
GAGAG -0.0950209 1.0305907 -0.1013492 -0.22237372 -0.2559112 0.86243 -0.7806176 -1.0669073 -1.955247 -1.1544663 0.82671356 0.30568603
TTGGA 0.42259932 0.9950549 -0.91002476 0.3024991 -0.8122111 -0.16612867 0.078099705 -0.6001498 -0.43803984 -1.0034041 0.6996243 0.7078461
ATATC 1.757059 0.11727239 -0.041349184 -0.23681067 -0.5610085 0.39852962 -1.4659289 0.050390303 0.020113753 -0.039207358 0.16960664 0.034897134
TGCTT 0.4464314 1.3298849 -1.1515102 0.16712284 1.2031219 -0.6882617 -0.5062409 -0.43427908 -0.15541652 -0.06909633 0.6785788 0.050932184
CAATG 1.0480319 0.31512052 -0.3643618 0.76768976 -0.71435976 0.071690686 -0.36955214 -0.84040785 -0.8300045 -0.26277316 -0.15840589 -1.0463035
TTCAC 1.101289 1.0651414 0.03784381 -0.6835691 -0.576507 -1.4969674 -0.069215536 -0.083490096 -0.5171662 0.48622566 0.47516176 -0.22547482
GCATT 1.3003292 1.0049497 -0.8925621 0.41902232 0.31647688 -0.019601537 0.4285257 -0.83989435 -0.088203445 0.2079134 0.65690166 -0.39898962
AGATT 1.1761768 0.5089744 -0.75342274 -0.5140805 -0.24722293 0.45329204 -0.39185333 -0.74618214 -0.5478192 -0.556646 0.5015262 1.0669135
CTGGG -0.45532218 1.9609722 -0.10248779 0.44230175 -0.5058144 0.019545374 -0.83782566 0.1643532 0.120034985 -0.40298605 1.1653206 -0.26751563
CAGTG 0.066414386 0.30927423 -0.3006086 0.29822093 -0.07181383 -0.339665 -0.1794907 -0.6963717 -1.1795456 -0.38275903 1.1795485 -1.6320637
ACTGG -0.09988042 1.6350665 0.23148699 0.53523624 -0.75570804 -0.44045612 -0.55447644 0.21468107 -0.46914917 -1.0564202 0.38045046 0.07850242
ATGTA 1.6134158 0.048894405 -0.2907788 1.0517031 -0.2822172 -0.37248388 -1.1184034 -0.07244623 -0.2908389 -1.307203 0.09730531 -0.51392585
ATACA 2.1526625 0.6746308 0.5540279 0.24798 -0.54118806 0.034628835 -0.28515613 0.15146503 -0.9072099 -0.43173254 -0.2950335 -0.5410436
GACTC 0.016392866 1.3132749 0.3977939 -0.27526402 -1.0891821 -0.1687698 -1.2174393 -0.5218205 -0.7898382 -0.31842119 0.3781405 0.47985905
ATGGT 0.80238515 0.433348 -0.6179588 0.82473636 -0.91981524 0.15480173 -0.5902649 0.12105775 0.36461124 -0.9850146 1.0638555 -0.33225566
TATTA 2.245628 0.7977575 -0.6937969 0.33252195 0.11174395 -0.2571342 -0.7023623 0.30365166 0.12562896 -0.9638458 -0.01208729 0.70196664
CATCA 1.4629815 0.60002434 0.09504841 -0.5624796 -1.148701 0.04836817 -0.28523687 -0.13379216 -0.73211604 0.64359874 0.43811002 -0.88161165
ACATA 1.9428856 1.0250174 0.5556281 0.36125565 -0.5664025 0.08026476 -0.055629537 0.32796296 -0.5808203 -0.43556887 -0.24078022 -0.19489422
GTGTT 0.528827 0.19533291 -1.0851488 0.62938017 -0.045928158 -1.4411598 -0.4401206 -0.3333694 -0.3667389 -0.83366805 1.3921311 -0.5185981
GGAGA -0.002377756 1.1740057 -0.090813056 -0.0898022 -0.7537422 0.871097 -0.53103626 -0.6561766 -1.2106613 -1.2954981 0.7658705 0.40671772
GATTC 1.082331 0.6759589 -0.9433558 -0.37349737 -0.694734 0.10760964 -0.77576685 -0.8145179 -0.15178593 0.31894568 0.74825996 0.72468346
AGAGT 0.24306263 -0.00036798592 -0.21841538 -0.6759502 0.12456343 -0.0023201716 -0.6628772 -0.72557837 -1.3927164 -1.0577955 1.0706905 -0.13949747
TCCTC 0.6433148 1.1028037 -0.21534653 -0.66202456 -0.43046218 -0.6092198 -1.6445203 -0.8584923 0.4171045 1.105921 0.8176925 -0.24970958
CACAA 1.2751135 0.8393164 0.720395 -0.3441461 -0.8247144 -0.65281063 -0.03977754 -0.674429 -0.9902415 -0.066662356 -0.3733459 -0.96652997
AGAGG -0.035025187 0.98008853 0.19213136 -0.55154335 -0.47872213 0.9867466 -0.46938577 -0.95145327 -1.2630435 -1.1948243 1.0554463 -0.34388852
TACAA 2.0143905 0.5957548 0.7237146 0.087878205 -0.24714625 -0.54931366 -0.33147112 -0.25458783 -0.6517935 -0.55488825 -0.46659228 -0.1745119
TATCT 1.6006494 0.42839924 -0.0888511 0.036205977 -0.038279172 -0.21658446 -1.4406292 0.39614925 0.21086662 0.086812206 0.81047636 0.65111303
CAGTT 0.6912184 0.10982107 -0.7472786 -0.62680185 0.19243774 -0.85176426 0.08042522 -0.47724617 -1.1306555 -0.24154373 1.0546706 -0.7246686
CTCG -0.1347319 1.3308417 0.12410972 -0.16628258 -0.8213786 0.064692825 -1.2666526 -0.44909906 -0.30277124 -0.48141003 0.5603653 0.08994165
ATCG 0.748201 0.70783913 -0.16097055 -0.10130301 -1.0519751 0.62193704 -1.1159769 -0.6769495 -0.19472297 -0.5226347 0.3036919 -0.110879585
CACCA 0.9797131 1.3657538 0.2638861 -0.15177971 -0.7554335 -0.58223 -0.48415858 -0.37739837 -0.5137028 0.5018504 -0.41077745 -1.5863209
TGCCT 0.15669556 1.2558736 -0.8508944 0.34016186 0.64887726 -0.2800665 -1.3355932 -0.32392952 0.32440084 0.37545022 0.36564034 -0.77989453
TCCAG 0.45024124 0.41061395 -0.18884191 -0.5606521 -0.4419822 -0.24934773 -0.63441503 -1.2988256 -0.32743114 0.5988128 0.9628833 -0.5137103
GTGTG 0.19670619 0.29245564 -0.72177625 1.5033965 -0.042291407 -0.8429356 -0.7096994 -0.64010113 -0.5456212 -0.9931927 1.3955021 -0.976614
CAGGA 0.24019046 0.8843082 0.19570382 -0.86809534 -0.89818025 0.58994627 -0.26040113 -0.51446223 -0.93164474 -0.3908781 0.7114948 -0.51194847
TAAAG 1.28685 0.22654766 0.20902237 -0.5674836 0.2697538 -0.013746018 -0.44342142 -0.55938786 -0.3053669 -1.5816919 0.32394415 0.26757812
AGTGT 0.34842536 -0.1443442 -0.42199856 0.5175403 0.09781471 -0.77691287 -0.6040309 -0.59236705 -0.6534247 -1.1775463 1.0993803 -0.8932708
GCAAA 1.0394583 0.3513317 0.29776287 0.016732678 0.42498443 -0.086886786 0.020727456 -1.5101943 -0.55485576 -0.79402363 0.016675182 -0.8531454
TGTCT 0.46176302 0.4149959 -0.5392827 0.47233564 -0.113176756 -1.0095185 -1.3719915 0.18663535 -0.050029878 -0.010145954 1.6678846 -0.025318472
ATGTT 1.1533324 -0.122798026 -1.1354618 0.61547714 -0.41053417 -0.70727015 -0.48484996 -0.38601062 -0.08576568 -0.5441676 0.6779277 -0.25204584
CACTC 0.58312064 1.3894191 0.48508346 -0.7613783 -0.379446 -1.1845729 -0.9663376 -0.13822947 -0.5904319 0.7821746 0.36715087 -0.69018507
CCACA 0.95419115 1.2796988 0.39661157 -0.2189103 -0.68845516 -0.53489405 -0.239528 -0.4596277 -0.5144993 0.4291592 -0.2977658 -1.3656765
TTCAG 0.616384 0.42858052 -0.3908214 -1.3553272 -0.34241888 -0.25236773 0.09998652 -0.811536 -0.47919464 -0.02490135 1.5032977 -0.19983375
CCCAG 0.012071107 1.1864196 0.30825174 -0.43018427 -0.42477015 0.41893804 -0.9447328 -1.3456006 -0.07140055 0.13754527 0.22314617 -1.454375
ACATG 1.1647298 1.0786301 0.0042523546 1.1884507 -0.88464326 -0.23534434 0.12275929 0.006607862 -0.5020702 -0.4699024 -0.36902446 -0.81532
TGAAG 0.1559775 0.19716841 -0.5986264 0.14048493 -0.23218508 0.14614104 -0.60653114 -1.2747357 -0.777579 -1.1131287 0.32968503 0.058755998
CTGAA -0.22440174 0.6264282 -0.44059896 -0.0229867 0.021398604 -0.2379717 -1.2332574 -1.1039809 -0.5935804 -0.58271277 -0.37082073 0.22659703
TCATC 1.7999604 0.55169797 -0.058543425 -0.59802026 -1.0665171 -0.30938888 -0.85439163 -0.3089001 0.25589648 0.881727 1.0903101 -0.10921228
AGGGA 0.19218023 0.99212956 0.23002064 -0.36836788 -0.7750392 0.72828215 -0.39480323 -0.6218903 -0.5354235 -1.5312275 0.7016162 -0.10382093
TCTGA -0.008437359 0.5599888 -0.5473561 0.0070321644 -0.32282606 -0.06305528 -1.4702032 -0.6123969 -0.62509173 0.20081502 0.7053081 0.9585045
ATCTG 0.57687736 0.38841107 -0.21792674 0.12273358 -0.3898891 0.22190435 -1.4668405 0.20191506 0.020813676 0.12270302 0.72231823 -0.12432392
TGTCA 0.70263517 0.07326105 -0.27564722 0.42409715 -0.81526786 -0.86082596 -0.528182 0.087529406 -0.79924077 0.11417404 1.2536246 -0.9272604
GTGAA 0.11547973 0.08661086 -0.6011361 0.6618904 -0.4935534 -0.2740846 -0.6288164 -1.0337675 -0.86331576 -1.4497422 0.3937314 -0.2800239
GAACA 0.7729466 1.1317672 0.3183946 0.011875533 -0.8232788 -0.050350443 0.076513514 -0.6143163 -1.4881867 -1.0570937 -0.3727431 -0.22199082
CACTT 0.5959302 1.4337239 -0.042209495 -0.55330795 0.22704339 -1.5027243 0.00041757748 -0.14480491 -0.8372576 0.091112785 0.114886746 -0.015029674
CTTCC 0.4195593 1.2737743 -0.76265204 -0.7536117 0.28695416 -1.0266145 -1.2178241 -0.8686799 0.17475508 0.8015093 0.2543506 -0.046242356
CCAGG 0.04507649 1.4221358 0.43679258 -0.38084152 -1.0021752 0.56884116 -0.6721932 -0.84765226 0.19888383 -0.22783391 0.5864598 -1.2207346
CTGCT 0.060255043 1.7134876 -0.39539897 0.33538738 0.9246071 -0.5944183 -1.1840711 -0.14752759 -0.13887586 0.45240477 0.8998262 -0.25178605
TGAGG -0.44319543 1.236886 -0.67206895 0.3670842 -0.10163029 0.7413477 -0.6847664 -0.5803481 -0.8301806 -0.5826639 1.0145282 -0.06447841
TCCAA 1.0079725 0.2667635 0.0688214 -0.5330951 -0.5430992 -0.761607 -0.840679 -1.5324873 0.060072828 0.29589072 -0.09711824 -0.48670027
TGGAT 0.79291475 0.96592927 -1.0123527 0.61622804 -0.80952036 0.70485324 -0.6420543 -0.095813096 -0.074582785 -0.5172025 0.6849934 0.41664714
ATCAT 1.6992875 0.28594333 -0.48845407 -0.27013573 -1.3223909 0.18326859 -0.79469794 -0.05307297 0.18117154 0.19428922 0.3703867 -0.3367838
CCTCC 0.2536711 1.6533604 -0.32470468 -0.7137713 -0.29430202 -0.50048494 -1.5741539 -1.1705248 0.616893 0.8310583 0.20291086 -0.86028516
CCTCA 0.5270931 0.99962217 0.33244112 -1.1213471 -0.5111668 -0.47780418 -1.0062029 -0.51620185 -0.07477911 0.7143075 0.52517176 -0.8920664
AACAC 0.8492692 1.138628 0.7140627 -0.21804988 -0.61479944 -1.0036818 -0.11344535 -0.49128723 -0.92254555 -0.6255958 -0.58913016 -0.603853
AAGTT 0.82809776 -0.16511928 -0.5196202 -0.7644712 0.045480203 -0.8328223 -0.09043561 -1.0433922 -0.45895648 -1.32023 0.89300656 -0.043061763
TTTAG 1.082684 0.69882804 -1.0487263 -0.67269236 0.77093935 -0.24067776 -0.24104528 -0.09386511 -0.32881477 -1.04952 0.64313614 0.4352794
GTGAG -0.46936828 0.53339654 -0.621089 0.40043542 0.035883036 0.18126482 -0.7204817 -0.99728024 -1.2773973 -0.86639076 0.99354345 -0.5230688
TGATG 0.43259475 0.48291108 -1.180162 1.3581501 -0.3758442 0.1571992 -0.9992623 -0.4677562 -0.6331334 -0.30841345 0.7415168 0.15670179
GATAT 1.329074 0.36922103 -0.6168191 0.543741 -0.4931983 0.8041831 -0.9905929 -0.0069738035 -0.3375017 -0.46716973 0.37097535 0.5678733
CAGAT 1.1202644 0.5689846 -0.009788307 -0.098584846 -0.48655394 0.9244767 -0.595691 -0.27791467 -1.2706269 0.022764802 0.30328023 0.062112954
GCCTG -0.51053995 1.584487 -0.46426815 0.6723841 0.4226455 0.40372702 -1.168559 -0.8196016 -0.21407036 -0.0040043006 0.8074309 -0.9533175
GAAGG 0.27261472 1.0017697 0.12837666 -0.34346554 -0.7718452 0.62877554 -0.35415277 -0.83970535 -0.63928306 -1.8092757 0.81405103 0.04201074
CATGT 1.0401295 0.25507745 -0.61070466 0.98651695 -0.8002097 -0.7485969 -0.43582436 0.1764233 -0.59799147 0.14401586 0.4890356 -1.1736109
GGGAA 0.09298732 0.92917657 0.0073520206 0.12595315 -1.1389289 0.2295557 -0.31426916 -0.7484403 -0.39427003 -1.8309716 0.41994756 -0.3062274
TCCCT 0.44482785 1.242116 -0.7775567 -0.18355311 0.075867705 -0.6961048 -1.4192508 -1.0421902 0.5169448 0.6928354 0.48894107 -0.06765337
CATTA 1.9210223 0.88196224 -0.6107581 -0.46265808 -0.4951466 -0.45981556 -0.27780202 0.1483787 -0.08641648 -0.06890234 -0.25178373 -0.24455985
TATTG 1.4110659 0.6405078 -1.0253462 1.0163386 0.10840795 -0.11889251 -0.44086975 -0.2577779 -0.21275152 -0.65511334 0.42859536 0.7536822
TTGTG 0.37207934 0.47259364 -1.2818257 0.9903306 0.06416704 -0.93832266 -0.5119191 -0.6654486 -0.33797136 -0.49388853 0.82185465 0.045369796
AAGCA 1.1184009 0.6946616 0.21329087 -0.5565815 0.37598032 0.25858822 0.15330221 -1.1889986 -0.76458895 -0.7323167 -0.07219551 -0.80579376
TTATG 1.241681 0.54049677 -1.3498284 0.86063296 -0.10344773 -0.29477373 -0.5848806 0.2683844 -0.030596213 -0.71916884 0.31045714 0.20471354
GGAAG 0.16377106 0.8957632 0.11442456 -0.13206138 -0.6907091 0.5697171 -0.4108974 -1.0430721 -0.47920412 -1.6207355 0.8024966 -0.05428694
TCACT 0.9604959 1.1163945 0.5619907 -0.4141395 -0.08649557 -1.4042263 -0.5018676 0.13559783 -0.49598193 0.6659111 1.1269914 -0.07974834
CCTGT 0.04585914 0.8803256 -0.7756213 0.6496546 0.022233373 -1.2251986 -1.5020667 -0.1791019 0.19500674 0.31349263 0.73932487 -0.9914499
AGCAG 0.4898615 0.83664346 0.21143618 -0.6289951 0.5170125 0.662304 -0.028532175 -1.0093414 -1.2446624 -0.7819658 0.7061964 -1.2751305
CATTG 0.96255296 1.0445275 -1.3188008 0.6480872 -0.35854086 -0.3702421 0.1245707 -0.5722178 -0.5006526 0.26735598 0.26215184 -0.32010946
CAACA 1.2323527 0.9435662 0.498837 -0.4899344 -0.76384544 -0.6629098 -0.011518882 -0.49014422 -0.90163845 -0.08074467 -0.35352615 -1.0306082
GGTGG -0.15247567 1.2175667 -0.4798656 0.7365083 -0.76377845 0.29219338 -0.17861 -0.26565456 -0.119434915 -1.4834917 1.4751455 -0.7493173
ACTCA 0.6675145 0.96445966 1.0141251 -0.8670361 -0.65855145 -0.869468 -0.7308646 -0.27788013 -0.8219193 -0.012872927 0.26993242 0.021922115
GCTTT 0.5425464 1.1994886 -1.0141973 -0.35758144 1.0527022 -0.50393075 -0.13455328 -0.59165287 -0.19294 -0.30882645 0.8527093 0.31962246
TCTGC 0.4826188 1.1294175 -0.3091959 0.108013436 0.7077918 -0.3104075 -0.9827974 -0.32159027 -0.111085035 0.79817194 1.2533364 -0.3764881
GGGAG -0.32025445 1.3319203 -0.16258028 0.012897217 -0.5560358 0.8382535 -0.45211735 -0.5663139 -0.8726127 -1.3343041 1.1730323 0.032456916
GAGAT 0.4694221 0.6878427 -0.4982897 0.06689769 -0.5046416 0.98342365 -0.8257645 -0.6892573 -1.0492477 -0.29729775 0.5762438 0.7527194
CCCTT 0.5729656 1.4386784 -0.89609605 -0.3551902 0.17685512 -0.98136646 -1.0273887 -0.8316984 0.6144456 0.45153996 -0.15407622 -0.093404055
CATAT 1.9599588 0.5637142 -0.47384354 0.3219019 -0.39850166 0.4122903 -0.62688285 0.43373966 -0.2658859 0.25705197 0.15001631 -0.51783067
TGCTG -0.08906638 1.4095534 -0.8019068 0.8153583 0.78263766 -0.10020692 -0.826257 -0.227511 -0.4328298 -0.05175437 1.0160958 -0.36584175
TGTAT 1.4766792 0.19205956 -0.8604664 1.1695604 0.064624354 -0.600362 -1.0225013 0.49595958 -0.17113724 -0.54444957 0.6834713 -0.1637233
ACAAT 1.7896183 0.52177817 0.3391138 0.43489468 -0.6259529 -0.3466198 -0.053022407 -0.53560406 -0.7348246 -0.15188211 -0.3858769 -0.35856783
AGGAG -0.025518142 0.8490121 0.005915151 -0.66138667 -0.5439325 0.85846823 -0.51431984 -0.83545595 -1.2631751 -1.201115 0.87738043 -0.24600945
ATTGT 1.2721199 0.027849684 -1.110307 0.8844904 -0.2164512 -0.65677613 -0.57448643 -0.33729792 -0.30510247 -0.33833668 0.6561827 0.047543913
ACTCT 0.3884905 1.0690653 0.63215774 -0.4973036 0.022946423 -1.2744938 -1.1534826 0.05191368 -0.3937431 0.065285675 0.48199058 0.5053351
GCAAT 1.4319893 0.44661182 -0.17608663 0.62386 0.12433408 0.41402566 -0.103234164 -1.2349007 -0.33763707 -0.451521 0.17646468 -0.78205824
CTCCC 0.22252284 1.6825945 -0.2458006 -0.53605336 -0.26778227 -0.4898393 -1.6228938 -0.796954 0.4586093 0.83835644 0.15861137 -0.5493982
TGGCA 0.50165397 1.2899823 -0.33399066 0.5947679 -0.38886443 0.5336191 0.20079443 -0.24729446 -0.25170302 -0.5950809 0.5908398 -1.1870483
AACTG 0.10645817 0.93579626 0.33639482 0.41195467 0.26063767 -1.0262922 -0.75169003 -0.24216418 -0.8886427 -0.83535606 -0.3249523 -0.17006324
TTTGC 0.89611655 1.1422207 -1.2758632 0.2192482 0.9260965 -0.6189991 0.14802805 -0.97312033 -0.24008495 0.09575092 0.41672045 -0.16022445
GGATT 0.88421124 1.0170392 -1.0005103 0.31927842 -0.61236227 0.43231943 -0.23621267 -0.54708123 -0.07197061 -0.8955045 0.8116569 0.7986597
TGTGG -0.13202526 0.8635488 -0.6446786 1.1191387 -0.5427286 -0.3821213 -0.4802758 -0.009105879 -0.1992796 -1.0272765 1.345236 -0.53263396
AACG 0.30036172 1.0096767 0.36801624 0.009199322 -0.731385 -0.18197997 -0.3589327 -0.6631237 -0.5488611 -1.0547944 -0.11619406 -0.43639573
ACTCC 0.44967163 1.68382 0.2831981 -0.5012842 -0.36808679 -1.0934131 -1.2088588 -0.44953504 -0.26419905 0.7241558 -0.124916084 -0.28383186
AAGGG 0.40441602 0.97472703 0.33631855 -0.25842384 -0.9036884 0.48617244 -0.07818513 -0.79916275 -0.29217806 -1.7470331 0.8920894 -0.38137043
CCTGA -0.38581014 1.273475 -0.6317854 0.07182792 -0.27401718 0.1060104 -1.5193975 -0.8683201 -0.5952142 0.022070346 -0.52757776 -0.089645565
TGAGC -0.2015185 0.995092 -0.63866454 0.20479989 0.6473176 0.36127794 -0.6357189 -1.1239774 -0.9675385 -0.006771887 0.55919176 -0.39212725
AGTAA 1.348263 -0.15353455 0.121667795 -0.2072876 0.34571052 -0.41254 -0.6320908 -0.20105007 -0.79480314 -1.7565813 0.47662738 -0.4306392
AGTGA -0.023846097 0.14686362 -0.59864235 0.37957454 -0.10412206 -0.046703998 -0.7682968 -0.9817019 -1.5066267 -1.2365588 0.45438427 -0.45851862
CACG 0.13555056 1.3444878 0.29436395 -0.07744756 -0.5643781 -0.30333105 -0.16745694 -0.291668 -0.73258567 0.064789385 0.2857449 -0.9718908
AAAGC 0.8661212 0.63922626 0.27762803 -0.88672954 0.51054245 0.041808244 -0.28341475 -1.3199376 -0.3239202 -1.027261 -0.16582744 -0.6597781
TTGCT 0.6361773 1.2392238 -0.9719962 0.27862987 1.2441869 -0.5160294 -0.514622 -0.65137583 -0.07069982 -0.060151435 0.93701994 0.48735145
GAGTT 0.29831415 0.18075536 -0.8008711 -0.41199967 -0.047011722 -0.30367258 -0.16961187 -0.652922 -1.0344884 -0.9469639 1.1702232 0.13517319
GAGGC -0.44779658 1.6738292 -0.17248608 -0.048327662 0.121681765 1.0314307 -0.64849895 -0.7916323 -0.8646649 -0.5882199 0.89836466 -0.43685034
CTAAA 1.4020215 0.22087505 0.61307216 -0.47716767 0.3739161 -0.596797 -1.3594466 -0.530431 -0.150891 -0.8031694 -0.43806976 0.09962361
ACTTC 0.64233845 1.0893835 0.24567342 -0.786709 -0.12983978 -1.3636993 -0.45649955 -0.52399385 -0.49430078 0.20264538 0.21642329 0.37643942
CCCCA 0.5394099 1.3140373 0.1986135 -0.18312812 -0.792579 -0.16600183 -1.312235 -1.2638869 0.021201292 0.453257 -0.6264893 -1.2579904
TGACA 0.48510635 0.9888257 -0.041752055 0.8007886 -0.7292113 -0.32269117 -0.16337997 -0.31321624 -1.4664009 0.031450663 0.09562535 -0.042524025
CCACC 0.5251795 1.8614631 0.28717554 -0.18622284 -0.5069267 -0.59647435 -1.1837114 -0.81493986 0.08434929 0.61993974 -0.50008297 -1.4515022
CCTGG -0.5304803 1.7560791 -0.41489363 0.25915268 -0.5681466 -0.046410896 -1.0159922 -0.04501124 0.41975978 -0.21772967 0.6596223 -0.72305304
GGCTG -0.3267448 1.7139417 -0.5015339 0.540139 0.38750988 0.43519938 -0.6462495 -0.10666266 -0.28486514 -0.6440094 1.374594 -0.35836166
ACTGC 0.26056236 1.508184 0.27329215 0.45785087 0.6907495 -0.7614684 -0.4696962 -0.28556243 -0.87456495 0.10685254 -0.013824985 -0.7079604
AGCCT -0.11347309 1.2856941 -0.14922248 -0.80975306 0.5501686 0.30274466 -1.1086946 -0.92599905 0.03614006 -0.13592991 0.26457483 -0.71974427
TCTCC 0.5929671 0.9945772 -0.22555004 -0.64809006 -0.44381493 -0.79068434 -1.419703 -0.7647221 0.45995107 0.92051476 0.86786413 -0.22688963
CCTTC 0.5125681 1.2427412 -0.7044532 -0.86428887 0.07998667 -1.0547974 -1.2957574 -0.7485151 0.5190843 0.6831365 0.6076254 -0.15991911
TATCA 1.9882915 0.16258676 0.09819324 -0.48387527 -0.6261354 0.15605214 -0.6572455 0.23489897 -0.23619887 0.0029472057 0.73465776 -0.087350115
CAAAC 1.1786714 0.6073643 0.7947403 -0.56909615 -0.5669311 -0.9239786 -0.61259484 -0.7849842 -1.0042592 -0.33535007 -0.6163926 -0.6938441
ACCAT 1.327818 0.9639192 -0.17841153 0.40560344 -0.8466103 -0.33967367 -0.6212641 -0.112687275 -0.19303168 0.37221456 -0.6606639 -0.6149859
ATATG 1.4275726 0.28507522 -0.7413525 1.0479794 -0.42852202 0.69136053 -1.1033317 0.2722405 -0.27659473 -0.72680223 0.11130059 -0.2595583
CTCAC 0.3462781 1.4325095 0.5432745 -0.7827994 -0.42188904 -0.8419852 -0.6678039 0.1714747 -0.61567396 0.6192753 0.6337936 -0.5053497
GTGGG -0.2597571 0.98001474 -0.26323837 0.6941684 -0.7721272 0.047163326 -0.3232302 -0.42182705 -0.2875603 -1.5107591 1.5101026 -0.62902
TGTTG 0.41336206 0.33858126 -1.4956285 1.0465778 0.027284466 -0.8734094 -0.4471013 -0.46756667 -0.646491 -0.6526337 1.0428114 -0.012113012
GTTCT 0.4774589 0.3080133 -0.623943 -0.32853043 0.14128625 -0.96499515 -1.0164952 -0.34893298 0.033805314 -0.12609966 1.796295 0.15221703
GAGGA -0.01591969 1.1052139 -0.0019731103 -0.09381859 -0.6158961 1.0252908 -0.6402216 -0.83814555 -1.1029797 -1.2185308 0.5530266 0.19695337
AAACC 0.6714064 0.8538157 0.4342487 -0.291525 -0.75926137 -0.3667442 -1.0599585 -1.013198 -0.35043862 -0.7538863 -1.2290514 -0.71425825
ATCCA 1.2522665 0.44365424 -0.24692003 -0.38349432 -1.1062818 0.0041244724 -1.0764335 -0.61634696 0.10439265 0.3146285 -0.21947518 -0.6581739
CTGCC 0.055916782 1.5612384 -0.5029931 0.26752344 0.5935571 -0.3157577 -1.303053 -0.5873476 0.19488259 0.5768286 0.6182684 -1.0112355
ATGCT 0.6861443 0.8524896 -0.7066977 0.5885987 0.64946735 0.4855394 -0.7450648 -0.4204929 -0.005704548 0.011766967 0.2739528 -0.13654177
AGATG 0.5022236 0.3477834 -0.37961444 0.5297537 -0.5720348 0.8669623 -0.645954 -0.7684108 -0.8749649 -0.71652114 0.31179166 -0.061915122
GTAAA 1.3763908 -0.3377819 0.0721022 0.4380342 -0.09397857 -0.5968851 -0.6860553 -0.36111164 -0.29534534 -1.5549413 0.34200007 -0.46764013
GGAGG -0.3486847 1.5257624 -0.09426295 0.038963407 -0.76157063 0.92526764 -0.51953536 -0.58365536 -0.6110985 -1.24733 1.361133 -0.37948337
AACTA 1.2071756 0.7246166 0.7317113 -0.2614709 0.25952885 -0.58246195 -1.1125133 -0.14598764 -0.5466592 -1.1464205 -0.616166 0.2526115
TGAAC 0.09825605 0.9113565 -0.3984691 0.3990661 -0.39326292 -0.77656746 -0.53474426 -0.72527164 -1.0993733 -0.58722603 -0.6018351 0.2382392
ATCTC 1.1077051 0.5719599 0.08295734 -0.7731273 -0.79516923 -0.41896343 -1.2993556 -0.22766542 0.202805 0.6057731 0.6314089 -0.03944091
TTACT 1.484079 1.1330745 -0.19816273 0.27094206 0.31205174 -1.4423664 -0.6065408 0.48088154 -0.29938948 -0.44192174 0.13737427 0.60197777
TCAGG 0.37462175 0.8877802 0.5753242 -0.9682674 -0.72550267 0.22568509 -0.24714011 -0.51481783 -0.30206585 -0.04005164 1.5894147 -0.20044433
CAGGC 0.04364032 1.586049 0.36416277 -0.37886855 -0.05175094 0.5869422 -0.4512185 -0.5256408 -0.5079072 -0.033822224 0.8231541 -1.4267961
AAGTA 1.4408833 -0.12599108 0.2068743 -0.044429373 0.25871342 -0.2545657 -0.44636726 -0.3546497 -0.5887412 -1.788178 0.47558302 -0.52643293
CTCAT 1.1932294 0.80807745 -0.33594742 -0.5027138 -0.54564726 -0.5094873 -0.85606015 0.1435064 0.2378671 0.7488337 0.6324761 -0.3446898
TCTAA 1.5341914 0.18728714 0.48838788 -0.47184566 0.23114704 -0.5922223 -1.3354878 -0.4530867 0.3063556 -0.3637323 0.46307224 0.53913844
AGGCC -0.37924623 1.3366567 -0.0119016655 -0.5081159 -0.051354915 0.6253723 -0.7302125 -0.8119587 -0.15965275 -0.43317688 0.5432129 -1.0471623
GCAGT 0.38771805 0.31401202 -0.22662282 0.22959197 0.61329246 -0.203753 0.08155663 -0.7678709 -0.77092785 -0.7894034 1.3082443 -1.2340428
ACACT 0.6363023 1.4501762 0.7106986 0.085731715 -0.16015562 -1.3501146 -0.36842635 0.04444573 -0.9714638 -0.05123703 -0.18216452 -0.27631104
TTCCC 0.71074337 0.9535978 -0.97503155 -0.33726287 -0.38145483 -0.87040555 -0.96350956 -0.9693195 0.6963675 0.53924096 0.27697477 -0.30429843
AGCAA 1.0451698 0.52337354 0.2872244 -0.61193466 0.43322077 0.25025442 -0.06518154 -1.2268482 -0.94114375 -0.7690011 -0.05142336 -0.9531052
TCTGG -0.13727176 1.2277033 -0.33385208 0.0542169 -0.57347995 -0.054848656 -0.9707971 -0.0019180303 0.3330248 -0.044049606 1.5404972 0.44292095
ACTGT 0.2205639 0.68320435 0.1167477 0.8727779 -0.07141151 -1.4302299 -0.82372576 0.16884507 -0.92280805 -0.50525683 0.4084781 -0.28444278
AACTC 0.5446893 0.74060273 0.60241556 -0.7159582 -0.3847718 -1.04188 -1.0568563 -0.5361522 -0.5671796 -0.08590614 -0.24438219 0.17968546
TGTTC 0.715363 0.15954563 -1.0537375 0.15764807 -0.11237574 -1.0102991 -0.72876805 -0.18355425 -0.26706508 0.22553079 1.4635099 -0.33475763
CGAG -0.026487853 0.80290264 -0.22962637 -0.5280853 -0.44734198 0.15693715 -0.89334553 -0.92756045 -0.56123185 -0.042616636 0.7814933 -0.20209375
CATAA 2.00893 0.29793918 0.08365665 -0.12523179 -0.24401976 -0.17566958 -0.43523058 -0.16520338 -0.4761256 -0.29468778 -0.42583275 -0.68904245
TGCCA 0.62550944 0.7123386 -0.6275319 0.4440847 0.13043235 -0.066576004 -0.43146738 -0.7471317 -0.18396004 0.27858016 0.14238271 -1.2589782
TGTAG 0.60424334 0.3097279 -0.43801114 0.6937727 0.48763233 -0.07558847 -0.7581163 0.29529205 -0.6572469 -1.1948285 1.0183702 -0.1933929
GACAG 0.1458547 1.092064 0.525656 -0.23994517 -0.47046298 0.36622983 -0.31396484 -0.49299368 -1.6784408 -0.6933562 0.45072347 -0.3030652
TAACA 1.9177545 0.46697623 0.32178533 0.23833427 -0.21384542 -0.6426802 -0.1182046 -0.05744245 -1.0192059 -1.0377043 -0.2383456 -0.22888759
AGGCA 0.4690948 1.1982005 0.24402182 -0.19441658 -0.079378076 0.91263485 -0.041621447 -0.5636162 -0.61990845 -0.7853277 0.4856883 -1.2515323
CCTGC -0.027134443 1.8980315 -0.659402 0.17932007 0.6109617 -0.3446571 -1.1661693 -0.5406573 0.12740344 0.5507503 0.5391189 -1.028428
GGAAC 0.23235957 1.3455501 0.47962412 0.09100885 -0.86940515 -0.08664587 -0.33709702 -0.4587287 -0.75560194 -1.2102689 -0.1388213 -0.32604587
CTAGA 0.6004692 0.8497198 0.3887057 -0.606441 0.35883725 0.49561775 -1.3670297 -0.2383276 -0.6430538 -0.5797062 -0.03029264 0.6000595
GAAGT 0.331992 -0.048994876 -0.33672082 -0.09710217 -0.13411754 -0.13361558 -0.35399267 -0.9151429 -0.931016 -1.4252411 0.83464503 -0.22535358
TACTT 1.329546 1.1460252 -0.2410232 0.19111335 0.44240952 -1.3226653 -0.55769086 0.3105972 -0.44876134 -0.35124224 0.0654789 0.7350187
GACAT 0.9413604 1.0569234 -0.21245529 0.5106927 -0.9006634 0.06940461 0.075530544 -0.016389359 -0.98926127 -0.08604604 0.09993394 0.079455905
GCTGG -0.2380096 1.6615855 -0.48000973 0.5535417 0.18451929 0.42815787 -0.4370456 -0.17014503 0.032525294 -0.65730286 1.2478273 -0.33792594
GATTG 0.5197554 1.0312691 -1.1033494 0.71579784 -0.24797167 0.22906926 -0.30858707 -0.734638 -0.53262615 -0.66850716 0.6275708 0.71017426
GACTG -0.17940326 1.4786273 0.125352 0.80397755 -0.38942933 -0.24721599 -0.8837451 -0.1099411 -1.0245045 -0.9393263 0.34801915 0.043666482
AATCC 1.255351 0.24460948 -0.19020745 -0.36196488 -0.6567828 0.08810122 -1.3057507 -1.1140983 0.13227649 0.2892389 -0.26193464 -0.4427526
ATTAC 1.7604103 0.96581525 -0.4594608 0.22642152 -0.28672564 -0.64091647 -0.45473778 0.30940336 -0.35447156 -0.031464092 -0.40078065 -0.07948801
CTTGA -0.13127421 1.0446227 -0.75114316 -0.04604834 0.098876275 -0.4269791 -0.83388853 -0.6841503 -0.9669856 -0.35134056 0.16529831 0.83767664
GTTTA 1.2026143 0.2196086 -0.90192956 0.08291187 0.16067979 -0.7342832 -0.15094173 0.035553496 -0.31905934 -1.243255 0.8029113 0.14518024
GTTGA 0.17440042 0.25923246 -1.1000036 0.48679936 -0.31544888 -0.43137455 -0.6287547 -0.9261518 -1.0232023 -0.82012427 0.7409859 0.51737183
TCATG 1.1004391 0.43246117 -0.5267683 0.6114798 -0.95252967 0.03282536 -0.26381734 -0.28715694 0.07297733 0.40935335 0.9912298 -0.37943092
ACTGA 0.09646394 1.1255174 0.16244566 0.34184718 -0.19398814 -0.4599695 -0.9811604 -0.24498731 -1.309223 -0.4130638 -0.44397813 0.42659953
TAGTT 1.3687484 -0.0366128 -0.8749807 -0.21250513 0.48730686 -0.54589844 -0.32450923 -0.09403662 -0.35920048 -0.9885621 1.2114744 0.17698084
GGTTT 0.54899853 0.6315499 -1.0145013 -0.13853881 -0.37413412 -0.6749793 0.15931548 -0.14639634 -0.07971465 -0.8951158 1.5771011 0.17323968
ACCTG -0.08086759 1.410081 0.0067612804 0.69053215 -0.15896954 -0.38446456 -1.0540663 -0.17758825 -0.30953854 -0.039118078 -0.35264394 -0.5335355
GCACA 0.82178664 1.3848895 0.590946 0.2443307 0.04174393 -0.14698389 0.27617252 -0.45998156 -1.0528284 -0.12551738 0.18432325 -1.2952812
CAGCC 0.22052799 1.249977 -0.0072195167 -0.7856506 0.10580338 0.22857729 -0.99372834 -1.0324014 -0.3831496 0.6383733 0.39946607 -1.4870616
TGTGC 0.17992425 0.8280057 -1.0026656 1.1499656 0.510966 -0.695945 -0.56155676 -0.45264038 -0.44368562 -0.08470964 0.9493561 -1.0337292
AGCTG -0.085773684 1.0787679 -0.27737987 0.111999065 0.9657488 0.40562662 -0.70516336 -0.6644639 -0.7356009 -0.5756611 0.7033616 -0.29089123
GAGAC -0.1686766 1.487643 0.23700275 0.037025232 -0.68341553 0.1888224 -0.5037173 -0.5300083 -1.5501564 -0.4273168 0.102592416 0.4015088
CAAGT 0.557306 -0.15904424 0.1816814 -0.31114522 -0.083649315 -0.7065871 -0.4723145 -0.86751765 -0.70338196 -0.6011083 0.66569394 -1.1696103
GATGG 0.3602557 0.93987924 -0.5542544 0.7968476 -0.96380395 0.8296425 -0.5904528 -0.29999238 -0.5086105 -1.0923603 0.83010864 -0.005497147
AACCT 0.33985308 1.0256175 0.06788065 -0.089432925 0.061161697 -0.7198248 -1.0144447 -0.5256677 -0.16170879 -0.43390098 -0.8709779 -0.2600561
TGGCT 0.03128249 1.6207157 -0.6208239 0.19172145 0.3923026 -0.114585765 -0.42606616 0.04364949 0.062830836 -0.18689077 1.1456438 0.02886627
ACGG 0.18529129 1.306953 0.2587556 0.1963886 -0.85522205 0.10793757 -0.20987743 -0.40262526 -0.54836386 -0.8764054 0.19688144 -0.44147503
ATACT 1.5156685 0.8761333 0.33375373 0.2856637 0.042618185 -0.4996607 -0.97168094 0.45113948 -0.49940744 -0.2946212 -0.2855359 0.33760238
ATTGG 0.69060826 0.92437935 -1.1009576 0.40041533 -0.5796173 0.2394367 -0.19071585 -0.396906 -0.22413051 -0.7627538 0.6641828 0.45814943
TGTTA 1.1234862 0.24683325 -0.9798173 0.6235735 0.13523772 -1.1260731 -0.517781 0.34554872 -0.48574477 -1.029426 0.5489794 -0.18109758
AGTCA 0.784922 -0.11817065 0.24517609 -0.5815962 -0.4913889 -0.37356597 -0.3177132 -0.2945337 -0.798988 -0.57504696 1.184101 -0.8425581
AGCTT 0.42596215 1.0449228 -0.4082661 -0.90937316 1.1342212 -0.15651728 -0.22474258 -0.7706167 -0.48698315 -0.48770297 0.68163556 0.2742909
CCTCT 0.2911748 1.4813447 -0.21745405 -0.7528023 0.07056816 -0.7701429 -1.729934 -0.3571026 0.4531883 0.6995919 0.5300859 -0.07401537
GCCTC -0.13509038 1.5172014 -0.0127825355 -0.5589621 -0.029131964 0.10211971 -1.1250982 -1.0112047 0.2261779 0.49182102 0.7840121 -0.7397272
CCAAT 1.3127815 0.5179099 -0.30477577 -0.102049425 -0.61815035 -0.10217853 -0.8024207 -1.0792574 0.2877619 0.26397765 -0.40200737 -0.6683957
ACCTT 0.60492086 1.2958134 -0.39273736 -0.20558095 0.11379147 -1.1170659 -0.7057098 -0.34917188 -0.10312926 0.14475313 -0.47249815 0.16047737
CTCTC 0.48907974 1.2871101 0.15746595 -1.0049698 -0.07128657 -0.9028915 -1.6339151 -0.3240088 0.13947697 0.7381944 0.960289 0.09024455
GTGAT 0.33200642 0.23084188 -1.0296141 0.90958714 -0.5020053 0.15053079 -0.8926974 -0.47816598 -0.42547777 -0.4403161 0.9319559 0.07187915
TATGA 1.1301923 0.5122459 -0.7963256 0.82614976 -0.43120193 0.3054784 -1.0967618 -0.097782254 -0.5937761 -0.6726042 -0.16207622 0.74028
CATGA 0.5616861 0.7005652 -0.66093284 0.38984317 -0.848273 0.3162206 -0.70179707 -0.38598016 -0.9333257 0.19863285 -0.36736253 -0.46952686
CCATG 0.5502114 0.98061264 -0.59639853 0.8465643 -0.80794615 0.035292577 -0.5840048 -0.45947313 0.20529264 0.2993094 -0.06514283 -1.1389648
GGTGA -0.25878507 0.770114 -0.6506785 0.8466747 -0.8556515 0.16272494 -0.54782885 -0.6103684 -0.870741 -1.1066345 0.7759665 -0.2117469
TATGG 1.0281186 0.8168291 -0.5452965 0.8478451 -0.36196676 0.47421226 -0.597704 0.42283687 0.29154545 -0.98316985 0.6561253 0.015731568
ATCAC 1.1122671 0.85562223 0.39488634 -0.4842248 -1.0372654 -0.14566703 -0.54523534 0.17153592 -0.66478914 0.34111026 0.1073985 -0.4368502
TAGAG 0.72171587 0.4744905 -0.04541398 -0.32349172 0.52732027 0.6923847 -0.6788435 -0.30053166 -1.0318696 -1.1532693 0.8289641 0.4476644
TGGGG -0.28548455 1.3521669 -0.562276 0.5442745 -0.74690974 -0.0016222878 -0.37525624 -0.15317981 0.0016831693 -1.0735207 1.4327325 -0.28647134
AGCAT 1.348521 0.8635166 -0.3857291 -0.253376 0.45506135 0.63820744 0.20447032 -0.47812882 -0.34535918 -0.3205593 0.1649596 -0.5516914
GCAGA 0.33994997 1.0149102 0.458073 -0.26397482 0.17558362 0.8516001 -0.21127915 -1.1627277 -0.9570034 -0.46602196 0.5204228 -0.62737226
GTCCA 0.39289254 0.47193375 -0.53155303 -0.16273865 -0.92428464 -0.7373342 -0.7033164 -0.6667918 0.054212697 0.119163744 0.8300356 -0.93944836
CTGGT -0.0455717 1.1055893 -0.41854307 0.46609387 -0.23812371 -0.6394428 -0.6710783 0.27651092 0.17026973 -0.39593124 1.3419626 -0.30123326
TGCTC 0.15210886 1.1815488 -0.35718876 0.07539445 0.49625435 -0.29081574 -0.92675316 -0.30868235 -0.03391251 0.5294195 1.00883 -0.36419
GTTTG 0.28013456 0.54058796 -1.1830077 0.50574213 0.06317211 -0.76379645 -0.10943841 -0.48029065 -0.59945136 -0.80133337 1.2837324 0.07269219
AACCA 0.91096556 0.8504056 0.35044473 -0.046387106 -0.60421133 -0.35678798 -0.7592801 -0.6834471 -0.46615553 -0.43702522 -1.0038351 -1.0211993
GCTCC -0.103095606 1.4542023 -0.32678264 -0.23284999 0.28194448 -0.089943975 -1.067349 -0.85770434 0.18043885 0.5956944 0.6996899 -0.6047975
CAATA 1.930593 0.17048241 0.18724932 0.082133844 -0.24383314 0.25524363 -0.6703894 -0.27202833 -0.61788553 -0.28263193 -0.21778971 -0.4850724
ATGAT 1.095567 0.35674974 -0.9652158 0.8832198 -0.8029441 0.6914969 -1.1200701 -0.5717518 -0.2850226 -0.44609421 -0.089639336 0.24750258
AGGCT -0.31379774 1.5329311 -0.18864512 -0.42112178 0.48226136 0.47401485 -0.6017855 -0.39059204 -0.41499624 -0.830958 1.0770396 -0.17931737
GGACA 0.6073283 1.3492162 0.4826223 0.35594863 -0.9348059 0.053065334 0.16797909 -0.22293545 -1.076041 -0.64000314 0.24388699 -0.12758
CCTTG -0.014361036 1.2266104 -1.2275804 0.1516442 0.18300012 -0.9990995 -0.7056327 -0.8850729 0.074902594 0.077157676 0.37144527 0.0811055
ATGAG 0.42191768 0.4036555 -0.78646684 0.51229984 -0.39340782 0.8111779 -0.7399518 -0.7195104 -0.9538754 -0.84642375 0.00567776 -0.037579622
AGGTG -0.09437727 0.5487175 -0.0705147 0.39656878 -0.43046477 0.26084116 -0.36975253 -0.3264918 -0.7421717 -1.2872123 1.2081046 -0.80782795
GTATT 1.5594176 0.06717801 -1.0818496 0.64446384 -0.058520876 -0.47153452 -0.6997075 0.02408935 0.07095336 -0.8287631 0.83181894 0.28063732
ATGTC 0.85088205 0.06661913 -0.36560765 0.7053526 -0.8467311 -0.6081685 -0.9901531 -0.070422255 -0.07407156 0.1398676 0.89823073 -0.58767116
CGGA 0.05703751 1.2146215 0.04085902 -0.09499962 -0.854254 0.34050995 -0.39339784 -0.6367814 -0.4731197 -0.86067176 0.26582128 -0.25718024
GGCAT 0.8966822 1.1801772 -0.5029313 0.44976932 -0.40165505 0.8176912 0.10948611 -0.16240008 -0.024666676 -0.23694031 0.68386704 -0.76688075
GAGCT -0.24285679 1.2950015 -0.42821208 -0.37976602 0.5557009 0.39378127 -0.7092927 -0.7471955 -0.77283114 -0.30081543 0.89660054 0.30951613
