1344 12
AAA 0.546189 -1.259668 -0.366947 0.969053 -0.504060 -0.456787 1.116572 -0.008423 -0.056775 0.619004 0.033565 -0.376411
TTT -0.344229 -0.425393 -1.152862 0.813219 -0.125951 0.875238 1.282149 -0.123639 0.009176 0.086126 -0.515594 0.132046
AAT 0.474628 -0.864700 -0.184958 1.350230 0.316870 -0.580679 1.035690 -0.337995 -0.123307 -0.162033 -0.288421 0.043777
GAA 0.330343 -0.934976 -0.226808 1.187080 -0.373331 -0.397190 0.936016 0.119489 -0.468260 -0.112125 -0.135486 0.005868
ATT 0.350908 -0.573798 -1.081136 1.159762 0.855219 0.580489 0.773274 -0.150796 -0.372844 -0.316263 -0.337082 0.748988
ATG -0.034731 -0.864593 0.236959 1.233980 0.440055 -0.267860 1.037553 -0.474075 0.032739 -0.667933 -0.067932 -0.096923
TGG -0.445273 -1.289125 0.009625 1.246895 0.165632 -0.152397 0.702077 0.070254 -0.342303 -0.890420 -0.342413 -0.080352
GGA -0.171479 -1.322656 0.144900 1.248439 0.273928 -0.206738 0.752680 -0.041780 -0.910902 -0.458491 -0.120207 -0.134977
TTC 0.092711 0.026518 -1.457474 0.714839 -0.115150 0.554167 0.745122 -0.749999 -0.068693 0.308462 0.124892 0.453213
AGA 0.127798 -0.535240 -0.148841 1.520696 -0.551292 -0.434565 0.355871 -0.281922 -1.209827 0.274918 -0.239478 0.131302
CAT 0.073716 -0.465628 -1.240675 0.803730 -0.148969 0.080753 0.326389 -0.966793 0.687468 0.106469 -0.220643 0.932891
TCT 0.092082 0.055045 -0.843923 0.648312 0.437563 0.283577 1.155337 -1.003636 -0.116065 0.402730 0.227560 -0.557157
ACA 0.209190 -1.481848 -0.183591 0.952533 -0.110722 0.238624 -0.226531 -0.771979 -0.390827 0.699955 0.011424 0.581044
TGA 0.239690 -0.216650 -0.147703 1.264111 -0.857912 0.358145 0.940185 -0.358275 -0.327454 -0.794140 -0.139352 0.166867
TGT -0.726906 -0.270709 0.206578 1.267456 -0.124692 0.686375 1.188185 -0.608463 0.455139 -0.192293 0.190892 0.297301
TTG -0.219619 -0.416410 -0.774841 0.797200 -0.544081 0.379618 1.218855 -0.290518 0.138878 -0.934104 -0.593836 0.199114
CCA 0.033753 -0.629788 -1.547567 0.757666 0.232864 0.075136 0.237833 -0.167239 0.308267 0.294250 0.739826 0.896121
CTT 0.014824 -0.271079 -1.163428 0.749176 0.045008 1.304293 0.775230 -0.358873 -0.297718 0.021557 -0.003750 -0.474470
TCA 0.301154 -0.997242 -0.645266 0.380093 0.549754 -0.223998 0.702014 -1.107370 -0.420756 0.718917 0.323976 0.657205
CAA 0.685055 -1.378237 -0.460297 0.543133 -0.114161 -0.467986 0.848141 -0.528430 0.101220 0.312625 0.493289 0.390156
ATA 0.334066 -0.519546 -0.493570 1.819810 0.510506 -0.552805 0.159209 -0.269363 -0.186259 0.518426 -0.546403 -0.046661
AAG -0.232947 -1.073942 -0.292902 0.552998 -0.824181 -0.859995 1.111870 -0.238029 -0.499150 0.349502 -0.134182 -0.341464
CTG -0.046363 -0.572535 0.179357 0.771144 0.369851 0.561913 0.702773 -0.790171 -0.405146 -0.655079 0.611568 -0.701663
TAT -0.269932 0.163274 -0.666834 1.515608 0.315880 -0.157802 0.698402 -0.514682 0.576728 0.213350 -0.522611 -0.081896
TCC -0.147457 -0.290404 -1.675700 0.685184 0.213771 0.369160 0.665928 -0.155859 0.407640 0.358520 1.003923 0.697425
CAG -0.642839 -0.664987 -0.684767 0.466575 -1.248295 -0.422079 0.044815 -0.718529 -0.378233 0.261921 -0.264825 0.483900
TTA -0.223107 -0.431410 -0.901388 1.413379 -0.023152 0.335456 0.590561 -0.006174 0.270921 0.745388 -0.831174 0.042340
TAA 0.083187 -0.881374 0.046745 1.480157 0.023647 -0.255733 1.097897 -0.097629 0.361482 0.808557 -0.229989 -0.280105
GAG -0.722809 -0.278549 -0.398914 0.768796 -1.166237 -0.275903 0.680646 -0.447324 -0.847556 -0.526644 -0.294167 0.019228
AGG -0.632470 -1.329399 -0.727789 0.482794 -0.161920 -0.774849 0.689049 0.322418 -0.798317 -0.092859 -0.308016 -0.315052
ACT 0.587507 -0.702582 -0.529459 0.786405 -0.276660 0.886657 0.224664 -0.472955 -0.401915 0.150641 0.281169 -0.915461
CTC 0.689419 -0.353592 -0.978981 0.478320 -0.043706 0.535594 0.314611 -0.829297 -0.902561 0.025501 0.759703 -0.214093
CCT -0.275292 0.110867 -1.420062 0.770790 -0.025283 0.326480 0.640568 0.282061 0.209720 -0.043290 0.795881 -0.679031
GTG -0.959831 -0.675703 0.362173 0.911261 -0.304888 0.191970 1.187907 -0.580015 0.088483 -0.742829 0.292707 0.242069
CAC 0.206640 -1.141454 -0.694943 0.526823 -0.548278 0.413753 -0.395751 -1.034195 0.225720 0.437238 0.553430 0.214986
AGT -1.039354 -0.484051 -0.061534 0.901472 -0.536262 0.096025 0.945692 -0.120437 -0.636114 0.201876 0.129024 0.735583
AAC 0.490324 -1.313811 -0.442128 0.776374 -0.502771 0.345981 0.241317 -0.007895 -0.081869 0.404754 0.231330 -0.583615
AATG 0.291440 -1.446429 0.208284 1.489961 0.270506 -0.608250 1.108914 -0.394902 -0.163073 -0.746392 -0.083834 -0.149111
GTT -0.751360 -0.447907 -0.423180 0.771652 -0.232486 0.932315 1.184074 -0.098992 -0.542421 0.183776 0.053277 0.540246
ATC 0.842369 -0.196608 -0.739388 1.029368 0.432887 -0.567150 0.622652 -0.878688 -0.441644 0.043143 0.469818 0.370028
TGC 0.201439 -0.639994 -0.476914 0.519712 -0.270466 -0.230874 0.575893 -1.126653 0.900078 -0.906242 -0.006704 -0.277034
GAAT 0.297825 -1.040601 -0.282785 1.541637 0.229211 -0.888864 0.982450 -0.184514 -0.488024 -0.745278 -0.251085 0.001295
TTTT -0.319947 -0.627043 -1.446140 0.925729 -0.057146 1.316307 1.387941 -0.263916 -0.119121 0.313449 -0.884345 0.133367
GCA -0.100780 -1.006028 -0.388680 0.272427 0.017384 -0.626826 0.439120 -1.332960 0.484195 -0.266423 -0.114505 0.084760
TGGA -0.310096 -1.411276 0.039555 1.432081 0.000446 -0.144871 0.706969 0.093590 -0.575005 -0.888799 -0.239807 -0.058172
GAT -0.135883 -0.134030 -0.571136 1.247606 0.197211 -0.110115 0.616686 -0.580406 -0.436734 -0.724631 -0.691362 0.463420
AAAA 0.714487 -1.476171 -0.340549 1.185711 -0.348955 -0.442046 1.416679 0.067912 -0.107872 0.861085 0.168655 -0.400316
GGAA -0.125725 -1.767705 0.092490 1.370196 0.130471 -0.745949 1.050057 0.142997 -0.616667 -0.350678 -0.075788 -0.143439
GCT -0.378231 -0.178162 -0.809214 0.309610 -0.014679 -0.041455 0.705412 -0.808034 0.090574 -0.383615 0.060704 -1.287741
TAG -0.629974 -0.381354 -0.430650 1.427370 -0.634963 -0.931746 0.433991 -0.075882 -0.326794 0.476044 -0.727204 -0.463751
ATGG -0.154693 -1.373016 -0.083817 1.447385 0.696806 -0.621548 1.010448 -0.142955 -0.330712 -0.791611 -0.255559 -0.280411
CTA 0.027744 0.071054 -0.540394 1.453250 0.463406 0.243918 0.249731 -0.393490 -0.239586 0.794000 0.195172 -0.668606
AGC -0.176068 -0.226450 -0.818959 0.448749 -0.737128 -0.833123 0.049754 -0.783018 -0.310430 -0.175774 0.182769 -0.538055
GGG -0.982917 -1.312583 -0.794074 0.321485 0.141839 -0.236440 0.526797 0.373444 -0.736547 -0.825860 0.042458 -0.178267
CCC -0.140669 -0.372256 -1.427939 0.801721 -0.398467 -0.057533 -0.039841 0.255792 0.399050 -0.014540 1.307120 0.015967
GTA -0.860427 -0.606816 0.376630 1.786828 0.268358 0.107269 0.648835 0.100121 0.137433 0.458094 0.007751 0.041384
ACC 0.210577 -0.840151 -0.785480 1.078355 -0.403398 0.394607 -0.317049 0.482451 0.137486 0.118046 0.998294 -0.010203
GGT -1.306661 -0.843942 -0.195118 0.563243 0.533391 0.250767 0.864496 -0.082056 -0.349469 -0.187734 0.023133 0.215341
AAAT 0.827381 -0.922353 -0.346245 1.443992 0.128534 -0.753530 1.421393 -0.199886 0.320428 0.169213 -0.069033 0.089472
GAC 0.284419 -1.177585 -0.388919 1.064191 -0.072696 0.471837 -0.467034 -0.095571 -0.887527 -0.326984 0.119149 -0.327784
TAC -0.153937 -1.024485 -0.788662 1.014535 0.510277 0.247008 -0.316437 -0.259920 0.511198 0.924711 -0.157776 -0.335389
ATTT 0.112627 -0.643743 -1.038347 1.444674 0.686488 1.063759 0.936809 -0.072861 -0.395637 -0.067855 -0.737350 0.649397
GCC -0.473414 -0.207952 -1.046044 0.480118 -0.091206 -0.669469 0.152916 -0.268284 0.595482 -0.672581 0.961352 -0.491863
GGC -0.721752 -0.942379 -0.967746 0.073893 0.187472 -0.571644 -0.025347 -0.570478 -0.023852 -0.963778 0.207097 -0.495596
CATT -0.037873 -0.434103 -1.618319 0.871696 -0.347275 0.490981 0.328504 -0.871929 0.540954 -0.146099 -0.404849 1.052638
GTC -0.694152 -0.108567 -0.420055 0.643611 -0.124476 0.109295 0.902027 -0.713793 -0.525726 0.226361 0.997678 0.981127
AGAA 0.270576 -0.784253 -0.274895 1.513873 -0.697882 -0.683455 0.554214 -0.039074 -1.128286 0.444339 -0.080158 -0.035658
ATGGA 0.065870 -1.651207 -0.125587 1.689748 0.420817 -0.581576 1.086424 -0.127111 -0.660753 -0.675224 -0.204194 -0.346824
ATTC 0.268879 -0.274542 -1.409763 1.008076 1.008432 0.457463 0.664507 -0.740869 -0.317688 0.142286 0.230393 0.737290
GAATG -0.070116 -1.433005 0.071259 1.741487 0.024001 -0.776431 1.105713 -0.178371 -0.473083 -1.087341 -0.141348 -0.182845
GAAA 0.319477 -1.287233 -0.139773 1.087856 -0.554295 -0.181827 1.186957 0.257330 -0.730257 0.166917 0.084983 -0.173367
TGGAA -0.126867 -1.790631 -0.103095 1.591508 0.007454 -0.573034 1.051298 0.298665 -0.198638 -0.834573 -0.363202 -0.048605
TCCA 0.026045 -0.522177 -1.677238 0.781874 0.160611 0.302210 0.440537 -0.491887 0.319831 0.488797 0.939767 1.022021
AATGG 0.084935 -1.677079 0.027176 1.617532 0.369332 -0.574121 1.120127 -0.244454 -0.542378 -0.786907 -0.064925 -0.121372
TTCC -0.181606 -0.121421 -2.123319 1.078093 0.004719 0.699270 0.519463 -0.283020 0.515805 0.079869 0.372979 0.730107
TTCT -0.167157 0.408586 -1.161619 0.904029 0.016929 0.837192 1.223942 -1.053080 -0.217870 0.349671 0.150411 -0.349580
TTTC -0.249893 -0.326938 -1.589827 0.359675 0.131458 0.681900 1.224525 -0.509142 -0.099718 0.506432 0.098428 0.181077
AAAG -0.067481 -1.479040 -0.374382 0.668625 -0.860388 -1.046013 1.394800 0.056362 -0.465766 0.581388 -0.059861 -0.660379
TTTG -0.488539 -0.469321 -0.977129 0.795381 -0.378370 0.882594 1.219530 -0.258800 0.213563 -0.815479 -0.690059 -0.002226
CAAA 0.806283 -1.538183 -0.286401 0.655737 -0.229442 -0.407700 1.029945 -0.559561 -0.259608 0.609032 0.600031 0.289073
GGAAT -0.194570 -1.629243 -0.123281 1.658172 0.456101 -0.899205 1.327767 -0.063649 -0.461483 -0.700336 -0.134440 -0.160901
CTTT -0.184238 -0.216230 -1.493564 0.866907 -0.141211 1.498603 0.986102 -0.086005 -0.402438 0.120931 -0.028755 -0.407752
TAAA 0.319917 -1.072872 -0.195993 1.402948 0.156367 -0.306275 1.216136 0.039750 0.293597 1.257934 -0.017589 -0.416927
AATA 0.507098 -0.771935 -0.384038 1.904278 0.231152 -1.056716 0.687885 -0.306883 -0.194231 0.775966 -0.426378 -0.364402
AATT 0.744976 -0.858539 -1.024461 1.175886 -0.120108 -0.000315 1.621418 -0.132180 0.101678 -0.069133 -0.764591 0.475429
TGAA 0.526060 -0.784331 -0.059635 1.403682 -0.958654 0.317190 1.472516 0.101510 -0.118089 -0.774228 -0.077786 0.058589
CCAT -0.283526 -0.318997 -1.848825 1.103117 0.439175 0.230467 0.327691 -0.555108 0.635339 0.043172 0.458542 0.957076
TTTA -0.313245 -0.652835 -1.136462 1.133871 0.156029 0.370473 1.018050 -0.099087 0.340467 0.869649 -1.138509 -0.224490
TTCA 0.318365 -0.835537 -1.387308 0.267273 0.079790 0.187925 0.838091 -1.180571 -0.201040 0.550242 -0.316053 0.859967
ATAT 0.310954 -0.256387 -0.702833 1.862387 0.962675 -0.309417 0.527419 -0.608436 0.073165 0.227889 -0.710085 0.032626
TATT -0.319431 0.157036 -1.288168 1.584328 0.258626 0.268812 0.843175 -0.464856 0.684410 0.391023 -0.804480 0.176183
TTGA 0.268168 -0.203893 -0.784177 1.201754 -0.958478 0.522367 1.247549 -0.130706 -0.354033 -0.866791 -0.536923 0.125431
CACA 0.222700 -1.547556 -0.560003 0.665423 -0.515061 0.062381 -0.382352 -1.238654 0.073509 0.796428 0.224688 0.565956
TCTT 0.006694 -0.156087 -1.460895 0.466893 0.180474 0.713026 1.529584 -0.926303 -0.002343 0.340442 -0.169705 -0.587618
AAAC 0.774197 -1.602452 -0.434123 0.931815 -1.076320 0.306644 0.484979 0.075662 0.026240 0.439842 0.264459 -0.510807
GTTT -1.049953 -0.739824 -0.661206 0.701417 0.002151 1.361047 1.202147 0.083686 -0.597502 0.279549 0.066800 0.571920
TGTG -0.767430 -0.532737 0.305083 1.179562 -0.361305 0.990805 1.122382 -0.918985 0.617280 -0.741914 0.264026 0.070869
AAGA 0.440757 -0.812468 -0.275920 1.349380 -1.087012 -0.756417 0.960673 -0.263376 -0.994883 0.344752 -0.269785 -0.032212
TGTT -0.911293 -0.347193 -0.503543 0.997059 -0.177399 1.327187 1.367324 -0.508134 0.478243 -0.055499 -0.125222 0.280330
TTAT -0.135855 -0.126517 -0.994406 1.706286 0.389940 0.432347 0.864357 -0.351758 0.538565 0.267047 -1.041422 -0.032427
CAGA 0.095525 -0.763984 -0.684689 1.075367 -1.359388 -0.632235 -0.290971 -0.828839 -0.815862 0.078448 -0.282404 0.556106
TTAA 0.212618 -0.801560 -0.752546 1.285508 -0.235122 0.109720 1.387649 0.284546 0.335428 0.721236 -0.691054 -0.311119
ATGT -0.522721 -0.527859 0.471054 1.667085 0.182102 0.004805 1.172380 -0.619874 0.728097 -0.192471 0.232091 0.711515
TCAA 0.591923 -1.218811 -0.588977 0.286158 0.380805 -0.400166 1.550472 -1.021359 -0.336217 0.785248 0.433777 0.322154
AACA 0.337947 -1.973764 0.063012 1.101861 -0.433644 -0.201521 0.104637 -0.503711 -0.138169 0.665799 -0.032816 0.240974
TGCA 0.292883 -1.102123 -0.302912 0.417004 -0.200827 -0.171242 0.645536 -1.538398 0.812873 -0.693342 -0.140126 0.097463
ATAA 0.931288 -0.896085 -0.307115 1.983312 0.054810 -0.438212 0.566506 -0.321855 0.458583 0.775106 -0.228049 -0.296029
ACAA 0.801100 -2.110909 -0.234801 0.976411 -0.007662 -0.123373 0.127131 -0.387372 -0.141605 0.739646 0.452627 0.230511
TCTG -0.062834 -0.077812 -0.238579 0.559649 0.586674 0.174131 1.392348 -1.199095 -0.235864 -0.256324 0.709908 -0.735462
ACAT 0.310792 -1.309816 -0.479024 1.226683 0.441006 0.491746 -0.276827 -0.948982 0.277213 0.242519 -0.454124 0.878007
TGAG -0.313771 0.209054 -0.384758 1.006452 -1.134062 0.271761 0.470761 -0.781274 -0.859159 -0.878911 0.080648 -0.058778
TAAT 0.052168 -0.299727 -0.289649 1.911350 0.299486 -0.473402 1.523349 0.072813 0.552243 0.313001 -0.122582 -0.006354
AGGA 0.006982 -1.583252 -0.756935 1.058143 -0.357690 -0.765376 0.628244 0.402803 -1.241125 0.075064 -0.328826 -0.277888
TTGT -0.854664 -0.244419 -0.548169 1.159541 -0.276231 0.904927 1.557172 -0.226432 0.695051 -0.305786 -0.236900 0.154598
GAGA -0.005518 -0.538681 -0.465576 1.382094 -1.113567 -0.174106 0.244465 -0.298169 -1.475048 -0.589703 -0.536491 0.098208
ACAG -0.564160 -1.392173 -0.097571 1.020794 -0.721026 -0.170873 -0.495532 -0.763477 -1.036272 0.878875 -0.076298 0.265211
TCCT -0.445295 0.256351 -1.592382 0.829123 0.336092 0.713821 1.245284 -0.066102 0.153493 0.181958 1.083923 -0.471220
TTTTT -0.154665 -0.726945 -1.758578 1.134314 0.018167 1.568252 1.571638 -0.208155 -0.092470 0.263418 -1.053584 0.155641
CAAT 0.866371 -1.095717 -0.590407 0.928461 0.305417 -0.587150 1.049111 -0.771567 0.536372 -0.240002 0.206817 0.597011
AGAG -0.671856 -0.575209 -0.197605 1.048347 -1.040516 -0.669120 0.390255 -0.743761 -1.579606 0.051610 -0.128124 0.159547
ATTG 0.224538 -0.893259 -0.718633 1.102609 0.374517 0.431980 1.150195 -0.299923 0.010790 -1.072136 -0.573560 0.357119
AAGG -0.457406 -1.726978 -0.572831 0.470680 -0.424076 -0.940709 1.280138 0.193377 -0.711700 0.198938 -0.284965 -0.761448
ATTA 0.127579 -0.899720 -0.998779 1.542894 1.071398 0.221021 0.528391 -0.066876 -0.136342 0.974438 -0.614711 0.357290
AGTG -1.138582 -0.845622 0.493102 1.101484 -0.794097 -0.114444 0.994450 -0.374449 -0.482759 -0.429251 0.277646 -0.045264
AATC 1.041900 -0.412666 -0.724616 1.162063 0.115299 -1.005556 1.243575 -0.582084 -0.500514 -0.034919 0.612352 0.248206
TCTC 0.137621 -0.106204 -1.049654 0.238854 0.100649 0.344923 1.139821 -1.441007 -0.590747 0.596107 1.079014 0.023768
CTCA 0.752393 -0.793594 -0.820646 0.237120 0.275150 0.085931 0.265870 -1.548853 -0.981230 0.198165 0.665538 -0.049395
GGAG -1.190596 -0.975299 -0.167747 0.971898 -0.331398 -0.391457 0.653723 -0.341654 -1.208803 -0.745535 -0.126813 -0.099476
AAAAA 0.898904 -1.804014 -0.383752 1.291513 -0.359066 -0.405212 1.743605 0.244604 -0.228821 1.062035 0.232550 -0.517876
AGTT -1.027419 -0.433718 -0.551057 0.774499 -1.055181 0.595027 1.050347 -0.109086 -0.758504 0.574463 -0.324013 0.563942
TAGA -0.058578 -0.293474 -0.536292 2.023458 -0.602696 -0.907993 0.297918 -0.103322 -0.739216 0.436652 -0.752596 -0.161916
CCTT -0.351265 0.009886 -2.050188 0.853075 -0.187109 0.876595 0.913801 0.402874 0.320608 -0.014385 0.454341 -0.413249
GATT -0.012916 -0.252138 -1.357725 1.012664 0.130486 0.123857 0.862953 -0.464254 -0.746961 -0.710431 -1.026169 0.623195
TGTA -0.694857 -0.404573 0.347181 2.030244 0.037627 0.266864 0.959925 0.042894 0.688109 0.256458 -0.098009 0.056391
TCAT -0.255358 -0.394286 -1.082031 0.679808 0.943588 -0.178082 0.843620 -1.570037 0.171695 0.416641 -0.095517 0.743222
ATGA 0.773525 -0.547190 0.078498 1.951168 -0.431412 -0.366682 0.643800 -0.508338 -0.169859 -0.897604 0.007228 0.124101
CGA 0.348214 -0.486201 -0.762198 1.275711 -0.026671 -0.560731 0.587845 -0.109305 -0.968398 -0.795787 0.493946 0.240960
CTTC 0.173203 -0.358434 -1.487392 0.349604 0.208414 0.958753 0.527732 -0.879614 -0.498956 0.606279 0.599032 -0.338246
CTGT -0.805314 -0.095241 0.080956 1.050431 0.136579 1.200922 0.914555 -1.023945 0.389086 0.190883 0.916536 -0.504816
ACTT 0.335984 -1.106622 -1.165643 0.575688 -0.713090 1.306532 0.333792 -0.162036 -0.066728 0.349350 -0.510331 -0.901284
CACT 0.337679 -0.949191 -1.065752 0.446393 -0.318315 1.191897 -0.113998 -1.095694 0.135181 0.184796 0.417196 -0.462782
CTCC 0.003160 -0.142632 -1.555596 0.607245 -0.314377 0.737314 0.045975 -0.803454 -0.478048 -0.200305 1.561412 -0.072925
TATA -0.120367 -0.207979 -0.556313 2.203632 0.235708 -0.253375 0.312119 -0.548208 0.715000 0.910174 -0.787816 -0.156579
AACT 0.695047 -1.040637 -0.385013 0.746299 -0.505303 0.718522 0.766200 -0.448322 -0.231578 0.537199 0.207236 -1.364653
ATCT 0.619346 0.320844 -0.667086 1.180949 0.256402 -0.057430 0.899838 -1.424096 -0.067153 0.339559 0.193571 -0.250865
ACAC 0.360046 -1.970614 -0.458326 1.031837 -0.519809 0.659809 -0.814027 -0.732725 0.130474 0.478859 0.288282 -0.013887
GAAG -0.341668 -0.910892 -0.259112 0.943684 -0.852854 -0.845393 0.980658 0.018102 -1.191810 -0.204679 -0.104369 -0.263491
TGAT -0.139150 0.258016 -0.500714 1.759130 0.025511 0.496442 1.081411 -0.897722 0.111168 -1.149286 -0.526330 0.420535
GAGT -1.208281 -0.437937 0.006018 1.112325 -0.851149 0.000781 0.990251 -0.241033 -1.096707 -0.311862 0.089913 0.517222
TCCAT -0.343921 -0.430862 -1.850555 1.177338 0.305464 0.463099 0.785342 -0.865096 0.616584 0.225136 0.530313 1.133393
CTCT 0.175380 0.342929 -0.936535 0.729119 -0.045019 0.798202 0.796710 -1.389253 -0.494448 0.061552 0.701740 -1.046744
CTGG -0.502245 -1.377011 -0.318952 0.740449 0.877534 0.390205 0.263713 -0.147262 -0.631589 -0.848400 0.567007 -1.012386
AGAT -0.067330 0.010764 -0.568256 1.573248 -0.123783 -0.603633 0.208543 -0.819008 -1.034818 -0.035517 -0.761906 0.585887
TCG 0.242943 -0.359574 -1.106606 1.030057 0.258835 -0.530687 0.709896 -0.175296 -1.033230 -0.839935 0.490977 0.295047
AGCA -0.091630 -1.009278 -0.406394 0.331900 -0.705328 -0.909122 0.112713 -1.438771 -0.507847 0.143469 -0.146178 -0.065452
TGCT -0.160366 -0.042702 -0.690772 0.699627 -0.033874 0.466277 0.714066 -1.185288 0.569066 -0.827597 0.021918 -1.265728
ATCA 0.901365 -1.129742 -0.668770 1.002482 0.385759 -0.833581 0.649286 -1.193190 -0.689154 0.317548 0.045126 0.856880
CCTG -0.430380 -0.236918 -0.459188 1.008652 0.185839 0.267550 0.316545 -0.142885 0.147611 -1.072004 1.653032 -0.902035
GTGG -1.517237 -1.359489 0.172174 0.846747 -0.043278 -0.465153 1.045631 -0.228868 -0.384917 -0.778141 0.175444 0.061970
CATTC -0.058090 -0.275990 -1.990771 0.904777 -0.083610 0.337717 0.489914 -1.263242 0.571095 0.244643 0.259211 0.921862
AAGT -0.638644 -0.793394 0.252640 0.783128 -1.067081 -0.215416 1.710075 -0.150404 -0.333979 0.722618 0.587199 -0.030112
TACA -0.269000 -1.461280 -0.548858 0.985852 0.573098 -0.071527 -0.235731 -0.760979 0.360301 1.366140 -0.497894 0.086462
TTCCA -0.098390 -0.352766 -2.056067 1.143157 -0.124829 0.591152 0.550242 -0.474559 0.339298 0.350887 0.397625 1.147871
TCAG -0.705393 -0.353121 -0.861584 0.121634 0.062986 -0.615923 0.419203 -1.274396 -1.178104 0.469827 0.361702 0.381383
ACTC 1.050590 -0.655614 -0.912811 0.721278 -0.245681 0.781269 0.155883 -0.837195 -0.870829 -0.009881 0.817114 -0.469552
ACTG 0.033028 -1.451840 0.491968 1.139151 -0.068070 0.807900 0.066906 -0.624277 -0.026913 -0.549834 0.390701 -1.186298
CAGG -1.080154 -1.513342 -1.389269 -0.162637 -0.464696 -0.751489 -0.264541 -0.373177 -0.642076 -0.216957 -0.020623 0.417159
TTGG -0.686907 -1.118109 -0.953680 0.560022 0.320696 0.168461 1.080784 0.125090 -0.099984 -0.965806 -0.816177 -0.063243
CTGA 0.642716 0.023108 -0.184741 1.284401 -0.276772 0.312121 0.500119 -0.680362 -0.921275 -0.991780 0.579535 -0.789073
TCTA -0.171100 0.408506 -1.005122 1.374961 0.703503 0.031780 0.894355 -0.904882 -0.152663 1.258900 0.302519 -0.570232
CCAG -0.982650 -0.415196 -1.441734 0.645916 -0.556413 -0.600970 -0.395656 -0.089932 -0.507565 0.344574 1.029901 0.592604
TCAC -0.056843 -1.105513 -0.743912 0.337346 0.209730 0.521949 -0.243383 -1.630454 -0.249205 0.928401 0.465861 0.263459
TGGG -1.218282 -1.120109 -0.586487 0.691175 0.557984 0.053850 0.411206 0.201914 -0.250742 -1.280127 -0.073380 -0.370588
CCCA -0.123668 -0.948052 -1.181291 0.793367 -0.554487 -0.653304 -0.245425 0.078146 0.211843 0.177026 1.482991 0.913298
GTGA -0.564683 -0.310905 0.545804 1.436235 -0.759018 0.304279 0.764717 -0.584610 -0.307451 -0.852617 0.325557 0.248517
GTGT -1.559325 -0.453405 0.231593 1.124583 -0.073690 0.563653 1.358174 -0.672261 0.480337 -0.038492 0.483046 0.386369
CTGC 0.307599 -0.778783 -0.521848 0.306147 0.037681 0.104666 0.393023 -1.360250 0.361969 -0.547900 0.816067 -1.163736
CATG -0.081292 -0.897366 -0.192355 1.094591 -0.017472 -0.215995 0.120995 -0.980697 0.633068 -1.081452 0.172271 1.104788
CCATT -0.306220 -0.464459 -2.070066 1.157778 0.295854 0.416197 0.495397 -0.531365 0.490664 0.113851 0.333622 0.969179
TGGT -1.454518 -0.792846 -0.089510 0.996052 0.651477 0.457662 0.743815 -0.128825 -0.001146 -0.619295 -0.048653 0.021744
GACT 0.386927 -1.203304 -0.373006 1.068954 0.155703 0.613795 0.334209 -0.381318 -1.119689 -0.489588 0.153834 -1.182194
CCAA 0.685054 -1.080970 -1.232731 0.788369 -0.182844 -0.779287 0.604393 0.176338 0.351255 0.330579 1.254572 0.515354
GACA 0.068857 -1.510417 -0.191427 1.075807 -0.344676 0.328218 -0.524212 -0.782119 -0.911615 -0.165855 -0.400124 0.457398
ATAG -0.366368 -0.627492 -0.440166 1.769908 -0.092448 -1.398930 0.336267 -0.271132 -0.539775 0.327497 -0.666400 -0.044681
ACCA 0.198436 -1.068893 -0.606791 1.396461 -0.314906 -0.131223 -0.639069 -0.036562 0.230078 0.251380 0.999855 0.712786
CCTC 0.093093 -0.058428 -1.675271 0.356961 -0.041691 0.046170 0.333038 -0.720502 -0.380041 -0.278696 1.610886 -0.318524
CCAC 0.126685 -1.017643 -1.268332 0.703520 -0.226767 0.601894 -0.572143 -0.573402 0.406626 0.070428 1.099014 0.173563
GGGA -0.527714 -1.486984 -0.570200 0.804737 0.145126 -0.465542 0.370649 0.239912 -0.969240 -0.766644 -0.473195 -0.467542
ATTCC -0.008591 -0.448220 -2.011458 1.398426 0.736965 0.608983 0.608951 -0.356485 0.249126 0.327761 0.611830 0.845764
TATG -0.677661 -0.206193 -0.020709 1.575958 0.452720 -0.256977 0.518241 -0.528438 0.809739 -0.498064 -0.398132 -0.370874
GCAA 0.457144 -1.521522 -0.098640 0.500552 -0.090351 -1.068264 0.934311 -1.167716 0.500297 -0.150587 0.234758 -0.607348
GCAG -1.122806 -0.915666 -0.097226 0.234558 -0.586103 -0.940030 0.030862 -1.582450 -0.389425 -0.102287 0.319692 -0.255080
ATGC 0.586760 -0.914717 -0.415936 1.015679 0.421922 -0.930113 0.536510 -1.174230 0.939111 -0.956455 0.252977 -0.427325
CATA 0.043275 -0.512720 -0.681272 1.469891 0.041057 -0.537403 -0.458417 -0.901451 0.480528 0.718197 -0.339077 0.459616
CAGT -1.252558 -0.545558 -0.426486 0.438212 -1.206436 0.163828 0.365694 -1.067069 0.234130 0.726306 0.361552 0.825115
GCCT -0.572806 -0.021706 -0.886948 0.625928 0.076486 -0.548317 0.447485 -0.085231 0.254331 -0.468656 1.243474 -1.283026
CATC 0.541153 -0.364352 -1.050242 0.760495 0.079471 -0.427914 0.140397 -1.861282 0.125337 0.119397 0.524872 0.840032
GGTG -1.512410 -1.249773 0.163270 0.773266 -0.101062 0.272757 0.741621 -0.119500 -0.218641 -0.900274 -0.074766 0.188300
GCAT -0.246476 -0.700944 -0.895568 0.529158 0.619868 -0.507351 0.302449 -1.594194 0.762784 -0.657799 -0.496960 0.265618
AGCT -0.298192 0.025852 -1.000370 0.382705 -0.259977 -0.317678 0.290788 -0.918719 -0.961072 0.022437 0.104896 -1.272413
GCTG -0.751907 -0.426726 -0.073578 0.634904 -0.064409 -0.132194 0.751140 -1.101032 -0.069140 -1.170738 0.416491 -1.357121
GAGG -1.000022 -0.876700 -0.632361 0.609220 -0.752603 -0.757517 0.297358 -0.243789 -1.145673 -0.993119 -0.155655 -0.548163
AGGG -1.198168 -1.624700 -0.970385 0.238636 -0.289904 -0.758031 0.413457 0.382064 -1.020128 -0.481492 -0.050261 -0.234504
TGTC -0.612041 -0.166684 -0.088529 0.791553 -0.040624 0.635741 1.005789 -1.354065 0.144464 -0.340288 1.028962 0.926014
CAGC -0.403621 -0.649286 -1.209251 0.247090 -1.010524 -0.871565 -0.623224 -1.580856 0.052663 0.182591 0.573097 -0.244249
AGGC -0.673753 -0.787009 -1.127395 0.269597 -0.267675 -0.984946 -0.425303 -0.623268 -0.385925 -0.705954 0.090243 -0.504470
GCTT -0.430081 -0.269113 -1.341773 0.118839 -0.261400 0.079375 0.947624 -0.598695 0.070368 -0.286378 -0.403322 -1.289933
TCCC -0.294504 0.108053 -1.548946 0.739398 -0.228920 0.019080 0.446462 -0.151446 0.298601 0.132321 1.587317 0.197233
CTTG -0.061611 -0.351245 -0.808465 0.792697 -0.294336 1.283275 0.899496 -0.308179 -0.084122 -0.880847 0.071975 -0.484856
CTAT -0.110059 0.455861 -1.007758 1.611628 0.885673 0.442856 0.335364 -0.987115 0.245169 0.153495 -0.080020 -0.513586
ACG -0.257226 -1.565960 -0.133300 0.763982 -0.670276 -0.050756 -0.125488 -0.145864 -0.316843 -0.485794 0.283524 0.048189
CAAG -0.023073 -1.205261 -0.600446 0.105462 -0.506954 -0.916913 0.788470 -0.531307 -0.672447 0.487297 0.614908 0.253028
AAAAT 0.899210 -1.187266 -0.412516 1.448437 0.162002 -0.779758 1.557003 -0.017498 0.108317 0.418791 0.102439 -0.037176
CCCT -0.183533 0.082479 -1.618828 0.947152 -0.248561 0.296121 0.353452 0.235268 0.231499 -0.114031 1.394902 -0.799891
CTAA 0.461747 -0.319918 -0.124609 1.446400 -0.150303 -0.022727 0.873242 -0.169806 -0.223231 0.844459 0.436220 -1.354047
GAAC 0.359057 -1.430182 -0.273470 1.075120 -0.873262 0.281805 0.010666 0.191119 -0.518266 -0.382170 0.237645 -0.225188
CACC 0.042034 -1.184440 -1.305898 0.539126 -0.382820 0.379151 -0.657784 -0.548344 0.449562 0.308456 1.493202 0.108859
AGAC 0.245981 -0.928993 -0.565042 1.427715 -0.719183 0.091147 -0.739604 -0.290011 -1.195563 0.206271 -0.030671 -0.059144
TTAC -0.293223 -0.941273 -1.084501 1.262310 0.116208 1.058749 -0.175271 -0.150956 0.445056 0.925389 -0.452340 0.008092
GTAA -0.482014 -0.927464 0.514670 1.982713 -0.164362 -0.078449 1.131753 0.153405 0.240624 0.787996 0.217928 -0.101291
TTGC -0.013335 -0.642411 -1.131836 0.396848 -0.111724 0.327279 0.915993 -1.006815 1.083116 -0.967319 -0.315638 -0.302280
CCG -0.740045 -0.682607 -1.187982 0.460519 -0.471215 0.204925 -0.020057 0.204955 -0.101825 -0.609817 0.936802 0.079408
TACT -0.076892 -0.554621 -0.594031 1.401210 0.354060 0.848323 -0.035772 -0.429452 0.375698 0.871741 -0.091949 -1.199446
GATA 0.046306 -0.320925 -0.317452 1.957422 0.238862 -0.713661 -0.099788 -0.503182 -0.571409 0.138641 -0.757295 -0.178100
ATTTT 0.169159 -0.629242 -1.239292 1.294969 0.575903 1.006875 1.052270 -0.315573 -0.316477 0.105680 -0.857997 0.746980
GATG -0.544515 -0.322630 0.056075 1.408318 0.292508 -0.363936 0.691567 -0.972576 -0.157131 -1.377825 -0.223632 0.410901
AGTA -1.130282 -0.593905 0.034732 1.758349 -0.466179 -0.352251 0.374597 0.180747 -0.355687 1.282973 -0.149751 0.110031
GGAC -0.000108 -1.683305 -0.344353 1.228469 0.185881 0.410653 -0.118752 0.070699 -0.993777 -0.481991 0.175041 -0.828898
TTAG -1.016379 0.073029 -1.211650 1.026815 -0.651755 -0.097834 0.488809 0.037017 -0.333538 0.755206 -0.818763 -0.372152
ACTA 0.385030 -0.649221 -0.384203 1.798093 -0.307728 0.329191 -0.163546 -0.215215 -0.261978 1.081249 -0.133742 -1.420459
TGCC -0.131320 -0.095338 -0.897466 0.973157 -0.120894 -0.058746 0.321474 -0.474250 0.986050 -1.096352 0.975105 -0.187983
TTTCT -0.300314 0.115844 -1.715762 0.763663 0.201177 1.084983 1.604027 -0.756987 -0.146892 0.702698 0.037281 -0.503012
AAGC 0.178618 -0.775827 -0.698988 0.457277 -0.948053 -1.385559 0.488590 -0.646424 -0.168035 0.380693 0.410376 -0.990552
TATTT -0.247269 -0.113678 -1.339995 1.781228 0.193916 0.594397 1.121449 -0.440302 0.499763 0.454562 -1.353936 0.211436
AGCC -0.359801 -0.141940 -1.203090 0.877792 -0.503802 -1.124558 -0.244246 -0.016623 -0.526949 -0.289995 1.316752 -0.389125
CGG -0.671844 -1.396960 -0.608830 0.610310 -0.258283 -0.320922 0.022840 0.143374 -0.318740 -0.901428 0.253760 -0.158305
TAGT -1.356239 0.007387 -0.382191 1.289106 -0.558755 -0.178135 0.805993 -0.228425 0.195484 1.166564 -0.197212 0.011907
CGT -1.083601 -0.389806 -0.731484 0.361903 -0.457256 0.590738 0.289210 -0.584843 0.104277 -0.237191 0.603725 0.338704
TTTTG -0.475513 -0.699963 -1.229136 0.878440 -0.108055 1.288275 1.440914 -0.305338 0.223216 -0.681078 -0.816540 0.068861
AAATA 0.747199 -0.942960 -0.533430 1.880327 0.221634 -1.057023 0.876087 -0.029262 0.177322 0.756025 -0.164556 -0.339805
GTCA -0.634797 -0.837379 0.002875 0.480319 0.003006 -0.240480 0.816233 -1.353531 -0.385773 0.193449 0.489861 1.305789
ATCC 0.553146 0.044632 -1.398679 1.361217 0.295587 -0.477948 0.324298 -0.245634 0.143278 -0.254656 0.992526 0.640067
GGAT -0.462847 -0.586044 -0.899258 1.033752 0.923187 -0.605835 0.585629 -0.358949 -0.468411 -0.911731 -0.803195 0.163794
TAAG -0.743307 -0.354382 -0.155732 1.007422 -0.304512 -0.726739 1.025292 -0.198416 -0.372747 0.967605 -0.183708 -0.762905
TGGC -0.657570 -1.113555 -0.725970 0.464601 0.149982 -0.125574 0.016220 -0.702227 0.475646 -1.374699 -0.048672 -0.315160
ATAC 0.356086 -0.895207 -0.613338 1.804235 0.593161 0.060090 -0.736020 -0.358281 0.256506 0.466140 -0.158775 -0.214751
GTCT -0.731636 0.102879 -0.311891 0.462435 0.091942 0.527910 1.332526 -1.145739 -0.482218 0.200362 0.757439 -0.273000
GGCT -0.919817 -0.604373 -1.034135 0.085615 0.347669 -0.051242 0.389170 -0.753939 -0.560343 -0.683101 0.050691 -1.325872
GGCA -0.431012 -1.817339 -0.518151 0.226457 0.298263 -0.782415 -0.196736 -1.167610 -0.036900 -0.742574 -0.059679 -0.001077
AGGT -1.507185 -0.738026 -0.366022 0.396763 -0.136684 -0.226061 0.739274 -0.271641 -0.879395 0.213487 -0.170105 0.234736
ACCT 0.016235 -0.474378 -0.620164 1.211912 -0.080268 0.684906 -0.232004 0.206141 0.271672 0.229724 1.216115 -0.765273
TATC 0.102924 0.428990 -0.842668 1.410661 0.444734 -0.384649 0.529303 -1.155603 0.255399 0.662463 0.058941 -0.027102
GCCA -0.181484 -0.807707 -0.779566 0.544935 -0.174822 -0.672287 0.098985 -0.430079 0.735108 -0.563579 1.077951 0.297257
AAATG 0.709618 -1.441991 0.077209 1.364862 -0.100571 -0.668923 1.412395 -0.375204 0.474642 -0.434508 0.445913 0.107658
AAAGA 0.482539 -1.350774 -0.328673 1.247911 -1.005734 -0.988013 1.038370 -0.201313 -1.025462 0.557845 -0.158047 -0.199176
GTAT -1.111980 -0.047849 0.003674 1.907790 0.693932 0.013966 0.598040 -0.398437 0.366138 0.280789 -0.276577 0.283470
GGGG -1.455498 -1.742717 -0.943494 0.214367 0.119241 -0.234344 0.423437 0.179700 -0.824210 -0.981349 0.092329 -0.548764
GAGC -0.377081 -0.150745 -0.713097 0.570472 -1.168251 -0.671572 0.117288 -0.982876 -0.635453 -0.876295 0.293724 -0.561499
AGAAA 0.579679 -1.237653 -0.408378 1.354080 -0.949799 -0.555702 0.821514 0.116452 -1.276577 0.513493 0.118320 -0.310040
GTTG -1.062743 -0.375496 -0.216611 0.970890 -0.489315 0.771551 1.340800 -0.208825 -0.237321 -0.937651 -0.132353 0.130465
CAAC 0.817161 -1.756716 -0.692054 0.379475 -0.548053 0.269489 0.069597 -0.665748 0.026053 0.354505 0.739927 0.019708
TAAAA 0.463764 -0.976758 -0.267262 1.614435 0.015115 -0.211274 1.474624 0.169526 0.270816 1.244745 0.054797 -0.360742
AACC 0.532139 -1.171995 -0.652462 1.239024 -0.576505 -0.155797 0.012150 0.697658 0.477433 -0.055178 1.203924 -0.415225
CTTA -0.008628 -0.153371 -0.944459 1.098729 0.155027 0.591995 0.359583 -0.424523 0.035462 0.766136 -0.405183 -1.040087
AGTC -0.838087 -0.138378 -0.691360 0.696058 -0.435974 -0.120985 0.856528 -0.644155 -0.763792 0.504762 0.887284 0.873673
GGTT -1.514783 -0.880391 -0.948742 0.126178 0.239358 0.580685 1.046973 -0.094097 -0.585449 -0.054203 -0.374789 0.297025
TCAAA 0.847908 -1.379524 -0.583683 0.492702 0.232680 -0.454967 1.533003 -0.740811 -0.425856 0.703359 0.574214 0.140093
TTTTC -0.226418 -0.386950 -1.948164 0.602379 0.052462 1.086690 1.393495 -0.485085 -0.279975 0.657718 -0.156595 0.361902
TCGA 0.377522 -0.374076 -1.112504 1.219278 0.212665 -0.533856 0.639118 -0.293446 -1.108381 -0.752610 0.439205 0.241389
TCTTT -0.085051 -0.062208 -1.849497 0.584304 0.146708 1.065675 1.679292 -0.866566 -0.041070 0.481224 -0.114687 -0.423221
AGAAT 0.197398 -0.502260 -0.537739 1.790744 -0.044806 -1.073381 0.718559 -0.183788 -1.033573 0.225164 -0.318921 0.192198
GCTC -0.354689 -0.200588 -1.148672 0.000652 -0.112506 -0.033816 0.432823 -1.337667 -0.470807 -0.444681 0.965691 -0.894990
GTTC -1.136960 -0.295530 -0.931844 0.181483 0.316866 0.561395 1.281020 -0.622610 -0.423473 0.315499 0.747331 0.455315
TAAC 0.002540 -0.919713 0.117555 1.548922 -0.502205 0.336131 0.161532 -0.324708 0.530804 1.243637 0.088237 -0.442887
GGAAA -0.097210 -2.087738 -0.176316 0.998159 -0.199190 -0.619044 1.152296 0.500952 -0.590250 -0.018246 0.143270 -0.355352
AAAAG 0.132897 -1.418176 -0.352261 0.917709 -0.823965 -0.901311 1.465904 0.147168 -0.545305 0.921576 0.198754 -0.388041
CAAAA 0.846309 -1.772519 -0.368285 0.666540 -0.403582 -0.346391 1.079455 -0.410475 -0.173712 0.878567 0.667997 0.278523
TGAAA 0.508775 -1.052994 0.087402 1.338071 -0.757980 0.165662 1.548472 0.197430 -0.155703 -0.516524 0.275494 -0.135042
TGAC 0.268082 -0.768257 0.069643 1.549356 -0.699755 1.142843 -0.281653 -0.469696 -0.166863 -0.826803 0.358630 0.088465
TTTTA -0.330095 -0.573469 -1.203089 1.409420 0.027971 0.835046 1.155411 -0.235471 0.179759 0.889681 -1.308933 0.026533
TTCTT -0.277432 0.001831 -1.789182 0.688298 -0.264737 1.140228 1.698396 -0.791789 -0.358884 0.518402 -0.288753 -0.368425
GGCC -0.919724 -0.608749 -1.090339 0.453773 0.106428 -0.699015 -0.153415 -0.019313 -0.066994 -0.990923 0.997517 -0.571086
CATTT 0.004030 -1.099933 -1.523750 0.731006 -0.215407 0.979298 0.510880 -0.821614 0.400458 -0.105372 -0.842476 1.066707
CTTTT -0.065868 -0.384724 -1.589554 0.838124 -0.040916 1.774062 1.077503 -0.516445 -0.190848 0.157221 -0.246990 -0.459924
ACCC 0.209630 -0.997222 -0.905713 1.337092 -0.761720 0.050787 -0.503296 0.359431 0.324818 0.008145 1.565819 -0.082345
GAAAA 0.496625 -1.457567 -0.154855 1.226467 -0.332396 -0.523931 1.446296 0.377297 -0.700161 -0.044733 0.300609 -0.187460
TTTGT -0.981923 -0.395527 -0.807523 1.115697 -0.038476 1.213666 1.819320 -0.305785 0.771188 -0.275403 -0.334907 0.144549
GCAC -0.174062 -1.545494 -0.333261 0.353403 -0.265760 0.054183 -0.603142 -1.477762 0.344283 -0.130897 0.486969 -0.547904
TTGAA 0.428353 -0.733891 -0.696232 1.174168 -0.878204 0.274787 1.844222 0.295868 -0.130843 -0.686749 -0.399774 0.020125
TTTAT -0.336764 -0.248595 -1.324386 1.591462 0.600592 0.654098 1.106696 -0.431913 0.457075 0.372974 -1.241225 -0.055944
AATTT 0.577855 -0.975878 -0.946389 1.122447 -0.032245 0.260527 1.669638 -0.083277 -0.108013 0.235646 -0.916002 0.416616
ATAAA 0.953408 -1.134499 -0.242889 2.010489 0.127648 -0.596925 0.804316 -0.149245 0.377553 0.858667 -0.144571 -0.250084
GGGT -1.810657 -0.962627 -0.573550 0.409020 0.374266 0.283599 0.771011 -0.091602 -0.401995 -0.600355 0.073194 0.098396
CCCC -0.088523 -0.779170 -1.509170 0.988523 -0.675761 -0.230950 -0.331554 0.061999 0.466195 -0.163118 1.857703 0.024056
CGC -0.313531 -0.713156 -1.065003 0.200491 -0.385720 -0.128167 -0.282232 -0.798215 0.195335 -0.733107 0.646336 -0.451062
GTGC -0.970645 -0.652393 -0.076748 0.353880 -0.328885 -0.131374 0.752725 -1.141492 0.822857 -0.618279 0.617171 -0.309633
AGGAA -0.071975 -1.739271 -0.671392 1.102203 -0.393297 -1.089498 0.965336 0.549910 -0.862850 0.132765 -0.144482 -0.208235
AAGGA 0.106089 -1.898550 -0.536144 1.024804 -0.473136 -0.994234 1.031109 0.142495 -1.010502 0.209055 -0.250415 -0.547832
ATTCT 0.182719 0.088073 -1.275742 1.095351 1.059300 0.378643 0.998807 -1.017222 -0.346594 0.468424 0.229886 -0.038126
GTTA -1.128660 -0.595371 -0.022410 1.325278 0.066403 0.685849 0.823954 -0.125408 0.143623 1.060842 -0.298855 -0.077458
GCG -0.852889 -0.785153 -0.708413 0.260143 -0.388097 -0.211093 -0.110406 -0.670527 -0.003472 -0.909010 0.439793 -0.369141
AAATT 0.855447 -1.028186 -1.057900 1.245991 -0.111516 -0.044976 1.597924 0.114920 0.256278 0.602922 -0.336790 0.361498
TAGG -1.328378 -0.696694 -0.730743 0.884658 0.296169 -0.805308 -0.006898 0.047267 -0.383520 0.133798 -0.789046 -0.664010
CCTA -0.332578 0.332929 -0.987717 1.570257 0.101256 -0.507300 -0.074233 0.328899 0.192053 0.447496 0.932861 -0.903917
CTAG -0.798388 0.241308 -0.633742 1.177792 -0.456254 -0.193298 -0.022614 -0.250851 -0.687404 0.774411 0.195484 -0.956138
AAACA 0.832613 -2.323109 -0.314690 1.116866 -0.602192 -0.062914 0.499069 -0.158376 -0.024798 0.715740 0.040516 0.204536
GTAG -1.606271 -0.187541 0.026881 1.521322 -0.538275 -0.438796 0.469638 -0.078320 -0.384747 0.391916 -0.194612 -0.191381
TAGAA -0.082918 -0.764874 -0.531190 2.039316 -0.451698 -1.061095 0.722538 0.063236 -0.695613 0.405720 -0.805738 -0.195470
ACAAA 0.868979 -2.273153 -0.294367 1.217702 -0.210227 -0.353241 0.316526 -0.239375 -0.050426 1.097295 0.272408 -0.044256
TTTCC -0.543949 -0.275978 -1.879480 0.811779 0.019950 0.945450 1.046808 0.014947 0.553801 0.232374 0.566694 0.547459
TTTCA -0.078778 -0.976860 -1.660272 0.131826 0.210023 0.338273 1.324173 -0.989729 -0.176852 0.727552 -0.444069 0.830497
GTCC -1.016462 -0.149985 -1.112421 0.803094 -0.250942 0.115974 0.787012 -0.294791 -0.114692 -0.031631 1.381999 1.034080
GAAAT 0.496212 -0.732949 -0.100676 1.565961 -0.149134 -0.560949 1.383887 -0.009942 -0.349666 -0.291288 -0.057635 0.074854
AAGAA 0.510844 -1.317030 -0.293904 1.473187 -0.962295 -0.912430 1.282137 0.034602 -0.827358 0.553800 -0.069612 -0.237369
CAAAT 0.916721 -1.200914 -0.390501 1.121673 0.307996 -0.514682 0.990531 -0.584723 0.000431 0.313603 0.457624 0.508070
CGAA 0.455272 -0.937308 -0.593350 1.293901 -0.101133 -0.747953 0.723145 -0.265467 -0.773581 -0.578989 0.550976 -0.161121
AAAGG -0.244319 -1.978903 -0.541185 0.566520 -0.459987 -0.925231 1.255803 0.232094 -0.714810 0.251044 -0.077723 -0.610343
ACAGA 0.117827 -1.284155 -0.145788 1.613472 -0.826488 -0.429530 -0.559895 -0.837141 -1.291652 0.646072 -0.100168 0.395755
TTTGA 0.230191 -0.283150 -1.159675 1.111616 -0.458936 0.863313 1.242313 -0.298925 -0.299539 -0.784433 -0.751866 0.164569
ACACA 0.213421 -2.476958 -0.353769 1.254935 -0.300608 0.131271 -0.896098 -1.223510 -0.092599 0.844707 -0.100252 0.302419
GTTTT -1.026669 -0.630554 -1.082665 0.784849 -0.149457 1.375513 1.356117 0.008663 -0.311363 0.277975 -0.371831 0.579378
CTAC -0.054013 -0.384307 -0.698971 1.271585 0.216305 0.598910 -0.730182 -0.779401 -0.109899 0.998503 0.601490 -0.862883
TGTTT -0.894041 -0.448369 -0.702718 1.020720 -0.043737 1.486429 1.707112 -0.358733 0.588190 -0.212570 0.020125 0.372551
GAAAG -0.208640 -1.373100 -0.333001 0.930994 -0.696382 -0.793542 1.460067 0.182451 -1.118822 -0.054438 0.127367 -0.340569
TTTAA 0.178928 -0.917425 -0.898039 1.241601 -0.173287 0.434634 1.667900 0.125520 0.240827 0.932609 -0.840598 -0.233272
ATATT 0.209919 -0.449985 -1.104626 1.852090 0.870256 0.045161 0.679005 -0.256868 0.186840 0.234114 -1.056834 0.268384
ATTTG 0.093377 -0.638750 -0.949986 1.275963 0.671335 0.889493 0.999071 -0.296928 -0.072492 -0.858117 -0.644149 0.589088
TTATT -0.375894 -0.107415 -1.661720 1.700332 0.566317 0.760662 0.971646 -0.239105 0.340395 0.375318 -1.079510 0.181463
AATAT 0.513460 -0.521551 -0.597435 1.930490 0.694840 -0.755343 1.020901 -0.273946 0.201703 0.415070 -0.561488 -0.118710
TTAAA 0.452572 -0.977883 -0.852039 1.337854 -0.358018 0.353041 1.648307 0.401183 0.372224 1.048367 -0.477007 -0.366940
TTCCT -0.484084 0.292358 -2.166203 1.185200 0.125004 0.980711 1.145466 -0.132648 0.352425 0.082127 0.634449 -0.187405
AATAA 0.996714 -1.127003 -0.121026 2.293629 -0.055711 -0.790312 1.301273 -0.132007 0.189425 0.846124 -0.029638 -0.126401
AAACT 0.960317 -1.248377 -0.399632 0.868621 -0.644554 0.573428 0.913761 -0.305212 -0.086094 0.468196 0.283464 -1.354878
ATGAA 0.613391 -1.020438 0.111531 1.731196 -0.550481 -0.547240 1.231177 -0.178668 -0.154376 -0.688788 -0.012804 0.160121
TGAAT 0.450415 -0.382329 -0.330065 1.774782 -0.157464 -0.001814 1.477627 -0.158650 -0.007437 -0.930524 -0.251726 0.130229
AAAAC 0.972036 -1.963175 -0.436708 1.290331 -0.715180 0.075405 0.717521 0.223371 0.187168 0.907727 0.514247 -0.485739
CCTTT -0.187540 -0.158677 -2.132848 0.885257 -0.199427 0.884744 0.806361 0.369252 0.401887 0.103573 0.341070 -0.383990
ATAGA 0.081831 -0.863186 -0.671524 2.265115 -0.256719 -1.122666 0.510760 -0.229384 -1.010247 0.395145 -0.804655 -0.038050
CAGAA 0.417873 -1.054013 -0.587238 0.965981 -1.266123 -0.915288 0.172452 -0.550077 -0.850805 0.268389 0.112487 0.431081
GCCC -0.581473 -0.513362 -1.153001 0.658834 -0.601959 -0.618094 -0.080252 -0.122254 0.335118 -0.677970 1.597664 -0.308994
AGAGA -0.105373 -0.818897 -0.212997 1.657225 -1.116344 -0.697817 0.019163 -0.616454 -1.769485 -0.005735 -0.297203 0.141785
TCTGT -0.772201 0.283986 -0.322298 0.956259 0.397099 0.824837 1.599358 -1.404987 0.248736 0.132036 0.916054 -0.238909
TACC -0.361608 -0.376891 -1.093036 1.574664 0.334703 -0.093901 -0.669100 0.330695 0.764684 0.728658 0.754986 -0.295251
TCCTT -0.375180 -0.031402 -2.063104 0.920959 0.090476 0.936638 1.373907 -0.156427 0.377685 0.154412 0.529623 -0.181498
TGGAG -1.157079 -0.881943 -0.258610 1.223230 -0.338493 -0.159277 0.653560 -0.107829 -0.903549 -1.039953 -0.301185 -0.283353
GGTA -1.514869 -0.917608 0.086658 1.279582 0.477396 -0.293233 0.387596 0.073870 -0.089857 0.245194 -0.341540 -0.290835
TTCAA 0.651484 -1.035902 -1.339376 0.358687 0.061836 0.096572 1.554060 -0.587256 -0.263749 0.578161 -0.104211 0.573806
GGGC -1.228867 -1.361563 -1.132940 -0.099620 0.081381 -0.352679 0.013963 -0.517757 -0.381565 -1.123075 0.415909 -0.589068
TTCTG -0.404440 0.274441 -0.889495 0.623611 0.212113 0.782330 1.322505 -1.101444 -0.184818 -0.391627 0.371629 -0.220768
ATTTA 0.132345 -0.819245 -1.021398 1.761283 0.777001 0.468514 0.795717 -0.006744 -0.241429 0.595012 -1.206688 0.329424
AGTTT -1.014349 -0.595430 -0.676800 0.710675 -0.746162 0.638537 1.287651 -0.017742 -0.708547 0.802259 -0.511495 0.378716
TTCAT -0.138051 -0.212865 -1.586404 0.723511 0.389170 0.313634 0.975785 -1.266053 0.151771 0.127461 -0.252497 1.124450
CTTTC -0.011538 -0.141221 -1.818371 0.516845 0.015137 1.197427 0.767535 -0.644438 -0.423880 0.438740 0.576080 -0.293132
AATGT -0.101562 -0.832003 0.553585 1.693273 -0.016847 -0.149494 1.572036 -0.401635 0.552312 -0.012888 0.574724 0.577023
GCTA -0.317196 -0.065365 -0.450689 1.203600 0.278158 -0.461328 -0.041763 -0.741577 0.276973 0.070855 0.051082 -1.672621
AATGA 0.720091 -1.064115 0.213754 1.865788 -0.363102 -0.428866 1.126688 -0.360963 -0.280146 -0.682496 0.135481 0.155812
AATAG -0.066552 -0.854498 -0.358083 1.861939 -0.149220 -1.240322 0.709746 -0.257286 -0.690982 0.460885 -0.542283 -0.168159
GATC 0.300098 0.307053 -0.763721 1.093596 0.165424 -0.676751 0.361922 -1.053273 -0.987119 -0.600184 0.302329 0.463209
TGTGT -1.360408 -0.425321 0.155457 1.399893 -0.176990 0.971665 1.316183 -0.830062 0.998671 -0.543122 0.437846 0.330601
ATTTC 0.372122 -0.367815 -1.430034 0.910201 0.691933 0.524508 0.929271 -0.555118 -0.327903 0.425017 -0.049970 0.864539
ATTCA 0.380595 -0.900542 -1.301016 0.769074 0.880454 -0.036872 0.761153 -1.172971 -0.511257 0.572017 -0.171505 1.055475
TAAAT 0.525205 -0.539767 -0.382548 1.981108 0.358636 -0.300514 1.599758 -0.131793 0.521224 0.905225 -0.240199 0.065423
TAGC -0.767710 -0.133238 -0.835174 0.788459 -0.362490 -0.770672 -0.171205 -0.748689 0.254534 0.651627 -0.206145 -0.842697
TTCTA 0.007870 0.568079 -1.583811 1.558616 0.239398 0.653135 0.970199 -0.828888 -0.084582 1.033636 0.023524 -0.324140
GAATA 0.006231 -0.953496 -0.405127 2.051947 -0.042569 -1.063677 0.510813 -0.001362 -0.474013 0.150198 -0.497226 -0.313582
GACC -0.002185 -0.728585 -0.775052 1.263590 -0.446525 0.047746 -0.586711 0.401993 -0.354743 -0.561788 0.826044 0.101869
ATTGA 0.539345 -0.618285 -0.450018 1.639800 -0.090699 0.334162 1.328823 -0.303000 -0.464339 -0.899858 -0.605107 0.221117
AGAAG -0.381539 -0.997921 -0.268922 1.236233 -0.986772 -1.129686 0.593371 -0.198245 -1.518765 0.406854 -0.038678 -0.217074
TGGAC 0.058408 -1.484793 -0.150309 1.479949 0.039637 0.298477 -0.003758 -0.085948 -0.580621 -0.818843 0.053799 -0.547600
TTGTT -0.952107 -0.352571 -1.143597 1.149604 -0.111650 1.291126 1.863361 -0.121770 0.686539 -0.318580 -0.215834 0.303415
AATTA 0.311806 -0.902762 -0.647841 1.654395 0.079581 -0.321753 1.068829 -0.078063 0.109470 1.022141 -0.830868 -0.066758
TGCAA 0.812268 -1.401954 -0.123486 0.686173 -0.187346 -0.269429 1.071914 -1.090948 0.618219 -0.607279 0.080735 -0.327831
GTGGA -1.130704 -1.238082 0.206729 0.975995 -0.186340 -0.406617 0.862130 -0.146054 -0.536634 -0.726509 0.143987 -0.027630
AATTG 0.271697 -0.849752 -0.482198 1.353764 -0.325352 0.154487 1.600681 -0.169062 0.019097 -0.693136 -0.600890 0.231148
TGTAA -0.418102 -0.726866 0.505137 1.873323 -0.123801 0.069498 1.371371 -0.059155 0.650298 0.300635 0.232416 -0.039319
GGTC -1.138872 -0.540780 -0.649104 0.090076 0.351667 0.049819 1.011353 -0.675358 -0.569169 -0.443126 0.840015 0.534249
CTTCT -0.130283 0.154037 -1.495029 0.536959 -0.026155 1.142820 1.078512 -1.018484 -0.320519 0.365674 0.659378 -0.970807
GAATT 0.280935 -0.795612 -0.767000 1.341650 -0.058467 -0.117133 1.528659 0.077103 -0.564792 -0.343176 -0.759173 0.283862
CTCCA 0.384326 -0.465614 -1.573883 0.646816 -0.398058 0.557570 -0.057063 -0.922102 -0.225249 0.187406 1.483234 0.237921
TTCTC 0.035370 0.232855 -1.463734 0.466864 -0.250175 0.792409 1.206999 -1.224799 -0.426446 0.421646 0.535851 0.089810
TCACA 0.259320 -1.252116 -0.849370 0.412371 0.083613 0.247846 0.013655 -1.595155 -0.163477 1.051219 0.215882 0.572722
CACAC 0.189871 -2.165887 -0.830632 0.940529 -0.641361 0.492610 -1.020674 -1.531424 0.221431 0.578225 0.447630 0.184496
CTTTG -0.184810 -0.336102 -1.118247 0.699522 -0.265366 1.505883 0.838478 -0.377531 0.041010 -0.781419 0.043298 -0.409909
ATATA 0.220793 -0.482464 -0.452620 2.578520 0.791227 -0.636273 0.278364 -0.427707 0.335857 0.542992 -0.827126 -0.230088
AACAA 0.955717 -2.364072 -0.208787 1.134451 -0.372018 -0.243489 0.765964 -0.148183 0.027309 0.788434 0.256218 -0.032706
CAGAG -0.583599 -0.791894 -0.609972 0.715608 -1.294989 -0.485281 -0.336095 -1.030047 -1.242163 0.149856 0.067745 0.502710
TGTGA -0.454727 -0.284013 0.304881 1.499343 -0.489131 0.785395 0.957742 -0.464320 0.137768 -1.001055 0.283754 0.243428
AGTGG -1.419374 -1.399725 0.219688 0.954503 -0.507639 -0.351557 0.722401 -0.416980 -0.765678 -0.635131 0.050843 0.028368
ACTTT 0.177080 -1.240803 -1.338982 0.468837 -0.536437 1.465509 0.428862 -0.222719 0.172647 0.463180 -0.614994 -0.843687
AATCA 0.997314 -1.166248 -0.532655 1.128558 0.104273 -0.846167 1.121418 -0.914264 -0.383318 0.414029 0.174913 0.538842
GAGAA 0.125811 -0.800329 -0.192257 1.338123 -0.994447 -0.598120 0.790366 -0.191232 -1.119948 -0.480335 -0.307755 -0.176948
GAGTG -1.357511 -0.891412 0.317644 1.299134 -1.002430 -0.227010 0.878229 -0.466217 -0.707705 -0.745587 -0.007634 -0.063779
TCTCT 0.081095 0.318635 -1.162508 0.624739 0.184044 0.615552 1.445914 -1.503389 -0.418919 0.473917 0.864208 -0.641010
ACATT 0.169175 -1.257657 -0.921695 1.179631 0.227280 0.768356 0.042506 -0.510292 0.255938 0.413563 -0.716429 0.845369
TATTC -0.311703 0.253743 -1.731181 1.450304 0.544390 0.204696 0.742531 -0.737992 0.243097 0.859010 -0.053019 0.166247
TAATT 0.178352 -0.355669 -0.832520 1.833619 0.382370 0.124864 1.588915 -0.013169 0.332326 0.736494 -0.603852 0.219231
CAAAG 0.307443 -1.414833 -0.387432 0.231057 -0.604082 -0.741981 0.800817 -0.635115 -0.711650 0.537577 0.608290 -0.101426
TATAT -0.285049 0.119355 -0.674417 2.482647 0.749416 -0.116610 0.577492 -0.620579 0.686520 0.394887 -0.875084 -0.090636
GGACT -0.020299 -1.361854 -0.319019 1.283213 0.093831 0.315756 0.133561 -0.315701 -1.173920 -0.595884 0.133176 -1.142498
GAAAC 0.458769 -1.661795 -0.204199 1.009780 -0.868117 0.158440 0.352757 0.233895 -0.510803 -0.033778 0.376790 -0.315885
TCATT -0.095257 -0.588870 -1.539737 0.741176 0.668419 0.449154 0.957065 -1.136710 0.237402 0.430944 -0.186788 0.938020
ATGCA 0.485721 -1.427211 0.006599 1.064005 0.092965 -0.695539 0.513292 -1.240511 0.720647 -0.699609 0.071614 0.097036
GGAGT -1.470075 -0.887433 -0.056550 1.135465 -0.413863 -0.162798 0.876224 -0.341660 -0.952539 -0.602663 -0.090056 -0.097685
TCTCA 0.069378 -0.387859 -1.072776 0.009907 0.181042 -0.036102 1.043270 -1.553965 -0.684701 0.527024 0.688253 0.162567
TGATT -0.084076 0.028767 -0.970240 1.563692 0.139681 0.679409 0.958265 -0.682765 -0.095895 -0.781135 -0.734963 0.586900
AAAGT -0.533384 -1.175943 0.120194 0.803176 -0.737363 -0.356041 1.683821 0.101250 -0.190519 0.998077 0.449610 -0.055522
TTGAG -0.588777 0.099071 -0.944752 0.953124 -0.880655 0.350599 0.942765 -0.324473 -0.878123 -0.960053 -0.641404 -0.145949
TAATG -0.195867 -0.709159 0.142515 1.914239 0.310877 -0.164864 1.252819 -0.185372 0.549970 -0.209996 -0.242956 -0.216341
CTGTG -0.903726 -0.459551 0.131812 0.888058 -0.224488 0.952297 0.798631 -1.081822 0.447508 -0.810877 1.022709 -0.570772
AGACA 0.093857 -1.411412 -0.241215 1.471189 -0.781026 -0.354517 -0.630611 -0.697302 -1.062131 0.462356 -0.243795 0.164643
TGAGA -0.037674 -0.046225 -0.050440 1.560796 -0.778475 0.150276 0.441179 -0.555119 -1.128067 -0.810788 -0.301432 -0.120689
TGGGA -0.713204 -1.274993 -0.224521 1.141810 0.204582 -0.177845 0.314348 0.187098 -0.666198 -1.228821 -0.347182 -0.534976
CTGCA 0.235109 -0.953498 -0.151653 0.335673 -0.041509 -0.123495 0.192595 -1.782373 0.162936 -0.487448 0.735029 -0.570719
AATGC 0.764857 -1.194365 -0.195365 0.996553 0.084992 -0.728346 0.962507 -0.964526 0.646578 -0.788293 0.414392 -0.370949
TTTGG -1.065600 -1.129054 -1.221910 0.333694 0.224622 0.850959 0.912053 -0.118320 -0.010624 -0.821231 -0.896572 -0.105862
TCGAA 0.412415 -0.710810 -0.713709 1.263370 0.050419 -0.653503 0.683695 -0.278863 -0.896693 -0.524452 0.436740 -0.157690
CACAG -0.348173 -1.536667 -0.600126 0.446655 -0.811357 -0.237863 -0.641685 -1.245073 -0.529145 0.595135 0.396203 0.449378
TTATA -0.292682 -0.341096 -0.983533 2.041316 0.300792 0.152280 0.593846 -0.122860 0.361239 0.795802 -1.178368 -0.152726
GTTTC -1.138438 -0.092348 -1.099219 0.581457 0.050403 1.011521 1.501094 -0.504377 -0.433528 0.251552 0.423668 0.520263
CTGGA -0.190286 -1.059609 -0.382886 0.988086 0.444311 0.146349 0.434436 -0.248408 -0.807244 -0.762853 0.176997 -1.136405
TTACA -0.332134 -1.345086 -1.055555 1.127176 0.333500 0.769461 -0.172515 -0.522497 0.384026 0.942373 -0.841434 0.387541
CTTCA 0.298011 -0.683123 -1.404984 0.074994 0.099995 0.528134 0.434712 -1.316513 -0.457492 0.665848 0.244973 0.074597
CACAT 0.173305 -1.206852 -0.657337 0.986038 0.178260 0.228713 -0.543835 -1.355662 0.724891 0.176615 0.058428 0.799864
GAATC 0.557522 -0.539538 -0.557407 1.349170 0.142330 -0.855241 0.945379 -0.481296 -0.733288 -0.415354 0.259163 0.201763
ATAAT 0.765172 -0.447650 -0.435677 2.460014 0.344878 -0.514861 0.895789 -0.458388 0.146559 0.496710 -0.619569 0.114256
CTGAG -0.228909 0.061904 -0.320319 0.974024 -0.639778 0.108989 0.248237 -0.734428 -1.152190 -0.937795 0.545458 -0.911794
AAGAT 0.284474 -0.430737 -0.308026 1.534877 -0.244070 -0.869561 0.780209 -0.519007 -0.666417 0.120831 -0.789580 0.152373
CTCAA 0.775072 -0.996131 -0.700686 0.127134 -0.101218 -0.113116 1.092716 -1.043358 -0.744216 0.398346 0.897347 -0.301034
AATTC 0.721292 -0.448803 -1.217509 0.919688 0.053936 -0.167850 1.374818 -0.445466 -0.290031 0.555130 0.196291 0.514145
TGCAG -0.857839 -0.681823 -0.132822 0.429110 -0.625262 -0.205562 -0.065854 -1.592949 0.054792 -0.700963 0.198659 -0.070467
TTGCA 0.095636 -0.916984 -0.838610 0.378558 -0.201903 0.356312 0.615905 -1.290069 0.783175 -0.691629 -0.461047 0.191887
ATGTG -0.696488 -0.635409 0.418214 1.401909 0.145884 0.187990 1.024840 -0.728691 0.774509 -0.623770 0.249114 0.530622
TCCAC 0.069420 -0.735158 -1.539434 0.626392 -0.220315 0.817939 -0.142695 -0.731829 0.292583 0.464994 1.330864 0.152861
GAAGA 0.023656 -0.906802 -0.043449 1.448791 -0.924323 -0.811787 0.782637 -0.273131 -1.321268 -0.191074 -0.284533 -0.024675
AACAT 0.785497 -1.533664 -0.396929 1.208746 -0.044107 -0.115042 0.276873 -0.589613 0.543083 0.399613 -0.222964 0.531265
CTATT 0.028726 0.205099 -1.537920 1.594320 0.674479 0.760608 0.568730 -0.762535 0.152212 0.571453 -0.186956 -0.428005
CTCTG -0.312027 0.027876 -0.560615 0.593926 0.100078 0.859465 0.647719 -1.252563 -0.386930 -0.667965 1.064290 -0.801989
ATCTT 0.514615 0.187226 -1.206085 1.084081 0.215501 0.347658 0.875264 -1.068414 0.038078 0.329498 -0.359714 -0.075720
AAGAG -0.122394 -1.017641 -0.165011 1.047385 -1.077528 -1.001525 0.810542 -0.361917 -1.365316 0.198924 0.038905 -0.147819
AGATA -0.007240 -0.478926 -0.357405 2.128428 -0.146157 -0.966571 -0.049502 -0.507823 -0.778414 0.531616 -0.755737 0.066186
TCTTC 0.074182 -0.001792 -1.748986 0.279344 0.191743 0.352240 1.357774 -1.210008 -0.080105 0.755427 0.568400 -0.220309
GTAC -1.048434 -1.014694 0.097925 1.292217 0.023975 0.831432 -0.227499 -0.068564 0.348666 0.740496 0.236080 -0.125763
CCAAA 0.842890 -1.289854 -0.994883 0.819495 -0.432902 -0.600272 0.565784 0.187929 0.248599 0.589536 1.462876 0.168162
ATTAA 0.462453 -1.063785 -0.588194 1.582946 0.515583 -0.033168 1.078511 -0.023250 -0.001061 0.893977 -0.619239 0.078944
GATTT -0.263216 -0.302911 -0.922737 1.130490 0.003203 0.254745 0.922782 -0.421772 -0.729016 -0.358027 -1.279564 0.244268
TAATA 0.164160 -0.304984 -0.501941 2.298813 0.365001 -0.614547 0.829775 -0.142645 0.317812 0.968663 -0.363425 -0.192146
TCAAT 0.686893 -0.756511 -0.990065 0.937929 0.666847 -0.157991 1.298519 -0.933851 0.042543 0.392445 0.231667 0.692941
CTCAG -0.299519 -0.161187 -1.360818 0.113757 -0.284248 -0.239429 0.146101 -1.273965 -1.391124 0.071967 0.918090 -0.038538
CTTTA -0.263544 -0.158155 -1.402183 1.168698 -0.071651 1.018556 0.483061 -0.074421 0.122325 0.869810 -0.180671 -0.846332
TCCTG -0.662870 -0.080720 -0.970282 0.632898 0.195650 0.639790 0.888273 -0.528024 0.058907 -0.741974 1.558330 -0.545035
AACAG -0.187989 -1.685076 -0.008406 1.159696 -0.823211 -0.515535 -0.131365 -0.371504 -0.578249 0.774402 -0.054789 0.091060
TCCCA -0.017235 -0.218591 -1.356744 0.874862 -0.270837 -0.236673 0.190262 -0.220662 0.226341 0.249155 1.273337 0.965717
CTCCT -0.129233 0.218916 -1.543113 0.780043 0.107313 0.728339 0.426080 -0.664725 -0.140304 -0.379835 1.271895 -0.967544
TGCAT -0.114883 -0.580916 -0.712527 0.990930 0.282906 0.292884 0.256058 -1.550486 0.996659 -0.935636 -0.187094 0.461879
CATCT 0.544472 0.012244 -1.148882 0.865533 0.197384 0.304692 0.472067 -1.859375 0.302692 0.246534 0.682107 0.350612
CGAAT 0.400858 -0.818046 -0.567614 1.485425 0.089367 -0.722254 0.694200 -0.332530 -0.654239 -0.703226 0.431098 -0.114480
ATTAT 0.131546 -0.533521 -0.686966 2.077908 1.142707 0.171792 0.722082 -0.693956 0.328827 0.480375 -1.043534 0.371570
TTGTA -0.832615 -0.174488 -0.417763 1.611693 0.089143 0.499235 1.187992 0.096859 0.620997 0.217447 -0.374262 0.104276
TATGT -0.863087 -0.110003 0.016169 2.005198 0.397503 0.366202 0.911490 -0.461962 1.008437 0.160434 -0.332131 0.278960
TACAT -0.172514 -1.070629 -0.855200 1.498211 0.675840 0.462816 -0.105229 -0.764845 0.898425 0.620050 -0.588346 0.452497
CTGTT -0.835629 -0.157180 -0.556653 0.736071 0.241891 1.252856 1.240515 -0.859871 0.442495 0.017281 0.545346 -0.144044
ATCAA 1.127409 -1.156766 -0.750683 1.001370 0.179423 -0.698920 0.944307 -0.772995 -0.274582 0.277100 0.125973 0.498574
CTCTT -0.030147 0.143971 -1.505457 0.457118 -0.221173 1.089561 1.049109 -1.082022 -0.225759 0.261020 0.443627 -0.805347
GTAAT -0.385143 -0.554168 0.200995 1.880889 0.117856 -0.145340 1.291279 -0.078653 0.438267 0.184136 0.067694 0.088544
AATCT 0.833643 0.122820 -0.366941 1.179505 0.019709 -0.313969 1.305217 -1.040201 -0.271143 0.423047 0.511599 -0.379398
CACTG -0.094607 -1.334821 -0.181400 0.595567 -0.196129 0.898823 -0.203124 -1.374846 0.465656 -0.358308 0.810745 -0.547641
CAATT 0.695409 -1.047048 -1.161194 0.936201 0.157748 0.241588 0.969754 -0.457923 0.109796 0.430410 -0.001709 0.913248
CCACT 0.185943 -0.819799 -1.456253 0.672813 -0.088521 0.947996 -0.258267 -0.650946 0.266442 -0.023427 0.980129 -0.300007
TATAA 0.330332 -0.451945 -0.487960 2.315979 0.151519 -0.359470 0.891479 -0.135798 0.575207 0.855119 -0.663356 -0.401496
AAGTG -0.823947 -1.001260 0.620183 1.075782 -0.946547 -0.303996 1.345228 -0.199433 0.001186 0.120304 0.427201 -0.249012
AAATC 1.209163 -0.511634 -0.743256 1.123754 -0.183435 -0.740957 1.408979 -0.525310 -0.279625 0.489417 0.713605 0.213773
TTGAT -0.196830 0.204122 -1.031837 1.712691 0.184474 0.496914 1.341022 -0.668818 0.113596 -0.849053 -0.771278 0.398478
TTAAT 0.062836 -0.292322 -0.624808 1.673266 0.077115 0.293478 1.569905 -0.214135 0.470134 0.420369 -0.717031 0.054534
TTCG -0.261991 -0.039107 -1.610487 0.740882 -0.048272 0.183553 0.579124 -0.494880 -0.486413 -0.226475 0.048199 0.308688
AACTT 0.711932 -1.171879 -1.037771 0.637769 -0.583423 0.850641 0.806797 -0.056897 -0.110219 0.618779 -0.307743 -0.950124
CAGCA -0.187221 -1.314051 -0.691878 0.294692 -0.885702 -0.703813 -0.453473 -1.660249 -0.025324 0.257773 0.344910 0.048119
TGGTG -1.486247 -0.958548 0.125404 1.074824 0.022341 0.563495 0.788959 -0.379784 0.063917 -1.103265 -0.166634 0.034232
TCAGA -0.061485 -0.147811 -0.788991 0.646180 -0.224442 -0.751184 0.429391 -1.199651 -1.371865 0.371999 0.306645 0.543552
TCTAT -0.183047 0.402214 -1.344674 1.529749 0.822947 0.267097 0.959524 -1.021770 0.189920 0.573258 0.171319 -0.290402
GAGAG -0.681157 -0.810393 -0.180309 1.443415 -1.116898 -0.750601 0.300872 -0.731901 -1.729689 -0.701317 -0.430664 -0.181239
TTGGA -0.510397 -1.023430 -0.721291 0.780940 0.168135 0.195746 0.967499 -0.022339 -0.466190 -0.811160 -0.845198 -0.008795
ATATC 0.640291 0.132572 -0.841082 1.690952 0.551113 -0.534768 0.313818 -0.871627 -0.099601 0.412877 -0.069850 0.057033
GCATT -0.320276 -0.753905 -1.015336 0.454236 0.286696 0.144427 0.376731 -1.226476 0.649607 -0.572638 -0.490518 0.421513
TTCAC 0.190869 -0.948439 -1.386603 0.293956 -0.166199 0.884693 0.082529 -1.225838 0.114943 0.722694 0.159388 0.329336
CAATG 0.466513 -1.353911 -0.068910 1.070559 0.060662 -0.416130 0.576240 -0.675348 0.523132 -0.651181 0.442532 0.468592
TGCTT -0.398594 -0.164598 -1.108935 0.574991 -0.058427 0.845654 0.813652 -0.796275 0.477839 -0.707764 -0.110481 -1.100978
AGATT -0.095050 -0.229007 -1.019596 1.190181 -0.015856 -0.237243 0.630249 -0.537013 -0.913224 0.157721 -1.175706 0.368506
CTGGG -1.131017 -0.948070 -0.693078 0.440209 0.645859 0.310828 0.061984 -0.542265 -0.524911 -1.133117 0.669629 -0.806858
CAGTG -1.364831 -0.944521 0.126043 0.447265 -1.118873 -0.108832 0.320715 -1.102192 0.008807 -0.244353 0.561393 0.480450
ATGTA -0.354422 -0.810362 0.282132 2.210511 0.238462 -0.229774 0.896153 -0.114570 0.738213 0.211046 0.021467 0.177717
ATACA 0.320631 -1.505557 -0.345183 1.757530 0.451357 -0.335618 -0.480285 -0.576168 0.092259 0.872377 -0.389696 0.348066
ACTGG -0.495855 -1.594800 -0.185613 0.837686 0.333540 0.592847 0.066001 -0.116382 -0.431501 -0.692492 0.188714 -0.984136
GACTC 0.419891 -1.004505 -0.727904 0.859096 -0.021650 0.200146 0.176166 -0.622073 -1.236652 -0.505115 0.557401 -0.656038
ATGGT -1.159047 -0.673882 -0.069760 1.081394 0.767977 -0.263339 0.841100 -0.396729 0.154701 -0.495806 -0.234229 0.378438
CATCA 0.537628 -0.951911 -0.939574 0.624119 0.057413 -0.481394 0.045651 -1.646529 0.003868 0.111081 0.322357 1.072156
TATTA -0.288930 -0.321904 -0.950778 1.998231 0.405180 0.138567 0.592234 -0.281392 0.555345 0.888889 -1.158136 -0.232904
ACATA 0.190094 -1.196272 -0.396670 1.691372 0.314599 -0.265208 -0.651022 -0.680145 0.231929 0.776359 -0.543943 0.247436
GTGTT -1.453635 -0.605372 -0.147330 0.911004 -0.176124 0.914653 1.588904 -0.433391 0.452938 0.077131 0.274834 0.186754
GATTC 0.002630 0.077049 -1.370018 1.021872 0.238322 0.068140 0.925634 -0.816723 -0.591542 -0.180586 -0.272353 0.579415
AGAGT -0.975396 -0.268999 -0.165581 1.120901 -1.108333 -0.255543 0.700889 -0.472752 -1.259131 0.469459 -0.033427 0.245901
GGAGA -0.646798 -1.171236 -0.321248 1.231295 -0.437863 -0.539503 0.193768 -0.176361 -1.478546 -0.824241 -0.571997 -0.266548
TCCTC -0.040365 0.187446 -1.845760 0.638653 0.157823 0.239806 0.775969 -0.952407 -0.136283 0.208957 1.699502 0.014874
CACAA 0.838920 -1.899632 -0.558378 0.706847 -0.282921 -0.138062 -0.075120 -0.864041 0.079145 0.567004 0.580695 0.319792
AGAGG -1.004022 -1.157707 -0.521893 0.889753 -0.743424 -0.981202 0.125639 -0.382545 -1.615595 -0.360407 -0.091799 -0.082579
TACAA 0.495853 -1.424046 -0.468025 1.428845 0.204044 -0.260550 0.093661 -0.260568 0.414892 1.242831 -0.039174 -0.137818
TATCT 0.082510 0.473969 -0.665097 1.438926 0.599979 0.087891 0.904058 -1.266498 0.274352 0.630394 -0.020031 -0.482475
CAGTT -1.002454 -0.554393 -0.705473 0.385580 -1.081047 0.512610 0.658912 -0.595647 -0.229356 0.631334 -0.055400 0.690460
CTCG -0.092332 -0.676866 -0.775167 0.908227 -0.145199 -0.006596 0.216468 -0.541561 -0.971261 -0.810869 0.666282 -0.565651
ATCG 0.265832 -0.586611 -0.730375 1.268497 0.070113 -0.808930 0.568925 -0.520752 -0.597815 -0.670428 0.291753 0.096057
TCCAG -0.820164 -0.220049 -1.280055 0.570250 -0.437038 -0.046652 0.290728 -0.420430 -0.631162 0.439935 0.873175 0.797120
TGCCT -0.330336 0.076112 -1.028822 0.959278 0.149511 0.313389 0.327179 -0.617383 0.765618 -1.039728 1.207857 -0.790035
CACCA 0.184584 -1.477030 -1.242453 0.824631 -0.222713 -0.134226 -0.792183 -0.738846 0.555596 0.209619 1.066878 0.575906
AGTGT -1.357635 -0.626700 0.348602 1.040022 -0.700424 0.077018 1.131142 -0.375594 0.071460 0.125105 0.363551 0.356127
TAAAG -0.268784 -0.677161 -0.236208 1.157411 -0.320722 -0.655952 1.112139 -0.025486 -0.491618 1.066192 -0.226999 -0.626086
CAGGA -0.375803 -1.204856 -1.089808 0.228660 -0.541577 -0.723783 -0.041481 -0.386009 -1.049340 -0.146040 -0.078274 0.179630
GTGTG -1.657490 -0.857012 0.458870 1.090776 -0.295014 0.331246 1.386274 -0.719839 0.593039 -0.658533 0.510010 0.050802
TGTCT -0.836288 0.190844 -0.291174 0.815340 0.152481 0.802857 1.481641 -1.359482 0.133653 -0.208067 0.725861 -0.115090
CACTC 0.446652 -0.909776 -1.338187 0.392591 -0.382737 0.806690 -0.188507 -1.414662 -0.115407 0.406180 1.128325 -0.176949
GCAAA 0.497033 -1.551610 -0.009224 0.480329 -0.351623 -0.792403 0.969146 -0.895673 0.108271 -0.037838 0.384048 -0.529948
ATGTT -0.437112 -0.375783 -0.191945 1.172962 0.291980 0.319017 1.507790 -0.467350 0.593768 -0.065112 -0.079562 0.541061
CCCAG -0.783740 -0.781873 -1.221364 0.649547 -0.693869 -0.724881 -0.412458 -0.156670 -0.344209 -0.060382 1.524391 0.146261
TTCAG -0.768544 -0.389870 -1.464724 -0.014130 -0.423067 -0.115467 0.601550 -0.918516 -1.081104 0.487391 -0.224971 0.595855
CCACA 0.041177 -1.395840 -1.108472 0.718255 -0.380070 -0.147760 -0.731147 -0.695798 0.430562 0.417748 0.919231 0.623530
ACATG 0.058317 -1.572747 0.211446 1.394593 0.209446 0.040197 -0.274797 -0.659009 0.739898 -0.408237 0.021567 0.616248
CTGAA 0.578828 -0.440478 -0.158773 0.944228 -0.437224 -0.097138 1.190498 -0.102410 -0.494202 -0.644278 0.946209 -0.885705
TCATC 0.377636 -0.107214 -1.428554 0.827972 0.598927 -0.155229 0.794855 -1.710242 0.009713 0.403692 0.547319 0.858364
TGAAG -0.157820 -0.520816 0.154898 1.137943 -0.776930 -0.399467 1.280309 -0.145351 -0.687987 -0.511515 0.201502 -0.107145
AGGGA -0.600289 -1.399606 -0.584697 0.828285 -0.159057 -0.856935 0.366401 0.169797 -1.115574 -0.415218 -0.293583 -0.400385
ATCTG 0.141085 0.173954 -0.337471 0.991021 0.531318 -0.144582 0.647700 -1.335039 -0.075661 -0.439254 0.480247 -0.187251
TCTGA 0.200607 0.392869 -0.447123 0.922861 0.028166 0.257496 1.150787 -0.851861 -0.821821 -0.562327 0.524603 -0.490402
GTGAA -0.556210 -0.929099 0.502136 1.193275 -0.643005 -0.238960 1.453362 -0.039153 -0.265628 -0.546460 0.284566 -0.058153
TGTCA -0.655134 -0.674770 -0.020283 0.609932 0.031137 0.360569 0.817447 -1.404685 0.111903 -0.085521 0.544578 1.038311
CACTT 0.110432 -1.141750 -1.274593 0.194220 -0.606176 1.083551 -0.034300 -0.851158 0.224811 0.423543 -0.150942 -0.516920
GAACA 0.317582 -1.955646 -0.044685 1.194566 -0.644557 -0.227748 0.051025 -0.262748 -0.569638 -0.042621 -0.218144 0.219014
CCAGG -0.967308 -1.150254 -1.406335 0.467644 -0.152656 -0.782736 -0.460593 0.094547 -0.525167 -0.319791 1.015815 0.172970
CTTCC -0.074971 -0.081514 -1.942517 0.515898 -0.050574 0.945920 0.442420 -0.386433 -0.068643 0.149277 1.132501 -0.413623
TGAGG -0.956262 -0.434839 -0.395260 0.913990 -0.443114 -0.136740 0.296564 -0.446594 -0.923424 -1.417938 0.077072 -0.560186
TCCAA 0.627791 -0.772467 -1.117653 0.633059 -0.184579 -0.075520 1.005941 -0.113402 0.135351 0.544377 1.291286 0.453387
CTGCT -0.396765 -0.220683 -0.925685 0.565399 0.239069 0.726449 0.444156 -1.317995 0.216252 -0.758816 0.947768 -1.291484
TGGAT -0.446592 -0.510368 -0.731702 1.277726 0.741814 -0.250870 0.525187 -0.405515 -0.178173 -1.114339 -0.673362 -0.007794
ATCAT 0.661182 -0.335031 -1.147845 1.213422 0.692755 -0.559900 0.509583 -1.190585 0.125535 -0.305555 -0.140702 0.907162
CCTCA 0.250435 -0.426366 -1.562664 0.265188 -0.054708 -0.211965 0.081661 -0.996907 -0.329092 0.198190 1.386081 0.111156
CCTCC -0.155765 -0.240145 -2.134054 0.676799 -0.283623 0.074545 0.216172 -0.330309 0.174560 -0.219558 2.080822 -0.217126
AAGTT -0.527354 -0.651258 -0.368995 0.637354 -0.833307 0.094304 1.804994 0.124726 -0.552662 0.819374 0.086518 -0.018969
AACAC 0.545158 -2.002093 -0.399720 0.755748 -0.567961 0.206988 -0.093251 -0.403489 0.063259 0.661474 0.441104 -0.202233
GTGAG -1.231960 -0.332128 0.171289 1.012340 -1.030687 -0.314772 0.622172 -0.724973 -0.820003 -0.935870 0.314208 -0.090020
TGATG -0.559679 -0.152939 0.110520 1.616820 0.085435 0.275958 0.941295 -0.808127 0.137055 -1.282550 -0.172624 0.138389
TTTAG -1.077262 -0.183496 -1.259526 0.954160 -0.354967 0.255017 0.653975 -0.108892 -0.387011 0.729805 -0.971115 -0.228245
GCCTG -0.990975 -0.497656 -0.385637 0.807227 -0.161864 -0.353383 0.250886 -0.618770 -0.065752 -1.358573 1.505136 -1.011761
CAGAT -0.044974 -0.488021 -0.488700 1.347124 -0.397645 -0.688683 -0.226819 -1.042333 -0.557510 -0.016003 -0.611502 0.613600
GATAT -0.164380 0.006449 -0.325073 1.815866 0.453598 -0.504603 0.435024 -0.598059 -0.253954 -0.247599 -0.825173 0.022485
GAAGG -0.747082 -1.542126 -0.480971 0.864797 -0.323734 -0.890756 0.801310 0.174524 -1.254315 -0.373638 -0.313779 -0.455908
CATGT -0.473421 -0.813871 -0.015182 1.141974 0.005233 0.371989 0.469514 -0.922070 1.014312 -0.216418 0.428039 1.226219
GGGAA -0.609263 -1.875929 -0.199466 0.829292 -0.188483 -0.725825 0.832477 0.436285 -0.584919 -0.679014 0.026147 -0.352325
TCCCT -0.483159 0.170571 -1.842693 0.756428 -0.105966 0.443041 0.725632 -0.220684 0.273287 0.035225 1.356799 -0.368817
TTGTG -0.857088 -0.299169 -0.300438 1.019781 -0.196998 0.806971 1.324313 -0.465028 0.529975 -0.734082 -0.121063 0.125134
CATTA 0.043359 -0.762588 -1.314779 1.232631 -0.001967 0.084386 0.121982 -0.612741 0.573910 0.915306 -0.478522 0.690820
AAGCA 0.270158 -1.229761 -0.234247 0.608360 -0.817964 -1.032399 0.361202 -0.951289 -0.229086 0.334271 0.189445 -0.264589
TATTG -0.365531 -0.251327 -0.559665 1.642158 0.290453 0.292505 0.988355 -0.245618 0.540357 -0.373933 -0.964312 -0.076650
TTATG -0.486955 -0.292585 -0.342772 1.547322 0.464505 0.478135 0.821706 -0.431237 0.727113 -0.303415 -0.824498 -0.108489
CCTGT -1.079149 -0.016839 -0.648845 1.095014 0.031919 0.749717 0.677836 -0.380362 0.824139 -0.342979 1.727236 -0.175612
TCACT -0.010528 -0.713812 -0.959837 0.254155 0.200091 0.965794 0.254483 -1.823144 -0.007202 0.748702 0.521228 -0.281293
AGCAG -0.830952 -1.025402 -0.407072 0.588030 -0.984499 -1.014839 -0.322795 -1.099673 -0.987000 0.081594 0.239632 -0.056722
GGAAG -0.711204 -1.365165 -0.246617 0.932438 -0.293775 -0.874149 0.795669 0.032581 -1.153259 -0.446791 0.038922 -0.558512
CAACA 0.640805 -1.916601 -0.793969 0.584843 -0.457474 -0.098042 -0.112088 -0.703955 0.187337 0.465925 0.494173 0.633496
GGTGG -1.797605 -1.521150 -0.154310 0.612712 0.166385 -0.045204 0.599302 -0.233734 -0.414252 -1.108823 -0.041624 -0.211670
CATTG -0.158565 -0.826040 -1.022755 0.830394 -0.098909 0.436653 0.486456 -0.738876 0.745836 -0.906436 -0.358896 0.752568
ACTCA 0.842007 -1.102173 -0.850914 0.489941 -0.288227 0.286735 0.023643 -1.093745 -0.779230 0.494193 0.516592 -0.392053
GAGAT -0.183454 -0.071099 -0.576797 1.356245 -0.409268 -0.568086 0.338296 -0.794419 -1.018227 -0.744406 -0.724277 0.272564
GCTTT -0.670858 -0.285680 -1.273519 0.306132 -0.113700 0.546025 0.844206 -0.543324 0.034084 -0.169730 -0.452558 -0.926259
GGGAG -1.236659 -1.128954 -0.458663 0.835898 -0.338197 -0.588207 0.271505 -0.249142 -1.255526 -1.018204 -0.338065 -0.480790
TCTGC -0.179785 -0.130446 -0.827255 0.356472 0.341479 0.320810 0.699426 -1.679251 0.233870 -0.499814 0.892407 -0.866433
TGCTG -0.617005 -0.378330 -0.323496 0.796541 0.142545 0.538259 0.576237 -1.105086 0.174376 -1.350924 0.482053 -1.029017
TGTAT -0.816006 -0.056447 -0.105878 1.993886 0.472876 0.606073 0.653143 -0.487005 0.865541 -0.033916 -0.221567 0.252854
CATAT 0.001473 -0.336997 -0.816182 1.534744 0.569774 -0.410614 -0.214204 -1.005262 0.677803 0.177239 -0.472513 0.483052
CCCTT -0.262555 -0.090458 -2.014735 0.749346 -0.310771 0.619228 0.423857 0.096832 0.657958 0.125560 0.903627 -0.424653
AGGAG -0.768375 -0.997928 -0.621082 0.885579 -0.736692 -0.893582 0.230130 -0.255660 -1.631490 -0.427626 -0.209751 0.000663
ACAAT 0.903153 -1.363893 -0.184748 1.368677 0.193232 -0.023577 0.119987 -0.730575 0.354911 0.356597 0.008924 0.429295
ATTGT -0.488051 -0.375940 -0.360031 1.417893 0.526798 0.549310 1.213053 -0.295687 0.512137 -0.250339 -0.241666 0.667179
CTCCC -0.035895 -0.126948 -1.954792 0.693818 -0.307083 0.446860 -0.001102 -0.640000 0.066252 -0.235918 1.736822 -0.298432
GCAAT 0.423080 -1.154795 -0.238281 0.899239 0.173742 -0.704556 0.763114 -0.983692 0.591530 -0.384271 0.140060 -0.186790
ACTCT 0.422202 -0.345986 -0.756082 0.588903 -0.380305 1.042024 0.398156 -1.055069 -0.358397 0.547984 0.605763 -0.920338
AACTG 0.392158 -1.419672 0.291486 0.879147 -0.227502 0.507500 0.595149 -0.469431 0.201930 -0.131647 0.551511 -1.290130
TGGCA -0.492053 -1.518237 -0.334303 0.537301 0.132512 -0.438031 -0.030663 -0.917297 0.322783 -1.230824 0.015320 0.051677
GGATT -0.631819 -0.753419 -0.946516 1.164607 0.548176 -0.080135 0.783821 -0.088446 -0.435961 -0.683840 -1.068516 -0.041460
AACG -0.038935 -1.593294 -0.194817 0.842335 -0.553313 -0.312586 0.159785 -0.036224 -0.322005 -0.185953 0.354355 -0.257989
TTTGC -0.153288 -0.675534 -1.257455 0.383777 -0.035144 0.739960 0.750379 -0.676043 0.754774 -0.771484 -0.425694 -0.393402
ACTCC 0.316634 -0.613332 -1.532112 0.815432 -0.443029 0.868611 -0.291369 -0.708131 -0.025711 0.239909 1.288903 -0.343615
TGTGG -1.539766 -1.019179 0.115298 0.804999 0.122294 0.397200 0.759147 -0.431686 0.138017 -1.081210 0.145793 -0.067643
CCTGA 0.283083 -0.135901 -0.579129 1.384123 -0.458727 0.002735 0.038568 0.030649 -0.458321 -1.043368 1.187179 -0.600425
AAGGG -0.862682 -1.832628 -0.425652 0.527330 -0.329683 -0.868889 0.775791 0.115711 -0.827142 -0.286953 -0.133036 -0.457790
TGAGC -0.517607 -0.079337 -0.311363 0.782664 -0.829898 -0.120985 0.161527 -0.968960 -0.548953 -1.046653 0.555002 -0.464021
AGTAA -0.665178 -0.715899 0.033902 1.613030 -0.480745 -0.396256 0.957530 0.111982 -0.311117 1.192455 -0.128437 0.051433
CACG -0.347301 -1.214000 -0.600078 0.432835 -0.553922 0.129583 -0.574201 -0.903746 -0.107587 -0.276450 0.556728 0.127326
AGTGA -0.742525 -0.659339 0.451950 1.465472 -1.210938 -0.152797 0.758470 -0.321331 -0.762310 -0.395022 0.134680 0.272840
TTGCT -0.375027 0.003870 -1.147793 0.640117 0.175259 0.655398 1.068373 -0.941184 0.301691 -0.657383 -0.346684 -1.104603
AAAGC 0.187736 -1.189493 -0.550271 0.438501 -0.577227 -1.050775 0.763230 -0.296275 -0.287950 0.589234 0.603485 -0.895029
GAGTT -1.039205 -0.351389 -0.438886 0.761446 -0.742613 0.204229 1.062351 -0.145199 -0.886917 0.101483 -0.364821 0.148574
GAGGC -0.938811 -0.796875 -0.747981 0.637172 -0.669577 -0.650229 -0.100186 -0.654043 -0.906433 -1.321706 0.205282 -0.717079
CTAAA 0.809155 -0.508981 -0.382376 1.461741 -0.147914 -0.041805 0.795083 -0.185760 -0.122707 1.087956 0.520797 -1.143177
ACTTC 0.354617 -0.826216 -1.335707 0.248606 -0.422236 0.888964 0.337248 -0.648505 -0.173595 0.682538 0.258522 -0.479032
CCCCA 0.246449 -0.846711 -1.381328 1.101476 -0.737914 -0.285172 -0.295657 -0.175114 0.323622 0.010208 1.830877 0.264265
AGCCT -0.452268 -0.072926 -1.278744 0.664870 -0.291818 -0.599538 -0.155267 -0.290209 -0.645931 -0.383519 1.193381 -0.817803
CCACC 0.021151 -1.047060 -1.574750 1.032549 -0.356306 0.010134 -0.767022 -0.420916 0.444879 0.063928 1.916693 0.011540
ACTGC 0.321283 -1.183609 -0.269192 0.642569 -0.300738 0.518280 -0.142468 -1.232139 0.532453 -0.519492 0.716655 -0.995656
CCTGG -1.021472 -0.665763 -0.883852 0.589204 0.432212 0.159945 -0.058018 -0.057059 -0.083541 -1.020949 1.256593 -0.641055
GGCTG -1.364688 -0.725720 -0.491062 0.524341 0.269128 0.010906 0.366569 -0.847849 -0.480332 -1.315866 0.278851 -1.101187
TCTCC -0.114304 0.040905 -1.742583 0.443744 -0.065593 0.437406 0.781197 -0.917468 -0.020669 0.271061 1.483808 -0.002947
TGACA 0.038507 -1.144303 0.182181 1.255875 -0.291979 0.564234 -0.291672 -0.813421 -0.196863 -0.503617 -0.024039 0.412245
CCTTC -0.300308 0.046028 -2.078812 0.393701 0.013386 0.626217 0.701456 -0.548548 0.114280 0.241922 1.305479 -0.388763
CAAAC 1.035283 -1.742560 -0.533630 0.848076 -0.614856 -0.051710 0.281481 -0.488528 0.095075 0.759738 0.852001 0.033602
TATCA 0.072649 -0.184428 -0.935756 1.244581 0.457495 -0.620097 0.322682 -1.154243 -0.075978 0.863361 -0.353577 0.633101
ATATG -0.192806 -0.472539 0.059937 2.115204 0.669979 -0.395947 0.342045 -0.475949 0.443522 -0.542268 -0.629475 -0.024939
CTCAC 0.257071 -0.783601 -1.189068 0.204174 -0.157226 0.527715 -0.419595 -1.545697 -0.441157 0.157360 0.758859 -0.171483
ACCAT 0.318809 -0.740375 -0.788029 1.519254 0.068107 0.171141 -0.442967 -0.317114 0.659257 0.135183 0.531113 0.810533
GTGGG -1.881860 -1.359694 -0.008438 0.677506 -0.034995 -0.192022 0.750734 -0.168222 -0.455089 -0.823061 0.105925 -0.266037
GTTCT -0.966596 0.108025 -0.784910 0.460939 0.042168 0.748214 1.561354 -0.908771 -0.377880 0.331352 0.514172 -0.250991
AAACC 0.791267 -1.378205 -0.583680 1.317475 -0.674045 -0.558242 0.230269 0.519257 0.260067 0.319350 1.229977 -0.206380
ATCCA 0.556789 -0.401283 -1.199828 1.285094 0.067088 -0.416184 0.092248 -0.394353 0.072919 0.068232 0.699892 0.929440
TGTTG -0.855917 -0.423318 -0.173156 1.166918 -0.150600 0.948694 1.615487 -0.244925 0.484562 -0.997788 -0.085278 0.201901
GAGGA -0.512066 -1.056166 -0.399171 1.105314 -0.478426 -0.893402 0.301863 -0.193629 -1.299121 -0.779783 -0.367562 -0.519487
CTGCC -0.366944 -0.281863 -1.094149 0.652906 0.038677 0.228962 0.207994 -0.977314 0.446002 -0.921273 1.521215 -0.833628
ATGCT 0.119924 -0.150349 -0.419604 0.936510 0.428049 -0.205290 0.568374 -1.042999 0.406246 -0.871172 -0.081613 -0.840566
GTAAA -0.432669 -0.883789 0.335147 1.594679 -0.157688 -0.147513 1.249757 0.231403 0.290675 0.822020 0.129598 -0.145197
AGATG -0.284027 -0.578959 0.129028 1.447884 -0.289355 -0.771361 0.357543 -0.640194 -0.569081 -0.729565 -0.347079 0.422917
GGAGG -1.383200 -1.381891 -0.628971 0.667001 -0.179991 -0.551747 0.220203 -0.338769 -1.212006 -1.203036 -0.060879 -0.479051
ATCTC 0.697286 0.009709 -1.268092 0.705490 0.154684 0.084522 0.681457 -1.410540 -0.170692 0.200699 0.747586 0.304032
TGAAC 0.523105 -0.983705 -0.076356 1.180833 -0.839274 0.676219 0.495522 0.056001 -0.043166 -0.576626 0.261829 -0.201622
CAGGC -0.834924 -1.267971 -1.070655 0.155925 -0.532470 -0.681534 -0.566423 -1.012042 -0.307799 -0.554036 0.755874 -0.271412
TCAGG -0.738166 -0.797144 -1.187020 -0.123585 0.227223 -0.471341 0.297844 -0.868171 -1.200119 0.203857 0.363438 0.107755
TTACT -0.321726 -0.590382 -0.968968 1.384226 0.213841 1.281198 0.166139 -0.417476 0.488665 0.877506 -0.485343 -0.751649
AACTA 0.661861 -0.930582 -0.300865 1.555640 -0.211798 -0.034901 0.292292 -0.154134 -0.076606 0.908371 0.049226 -1.259638
AGGCC -0.743697 -0.797297 -1.083084 0.294480 -0.475575 -0.748102 -0.174330 -0.228000 -0.613530 -0.828799 0.828889 -0.358519
AAGTA -0.676040 -0.907018 0.034131 1.519491 -0.568353 -0.508253 0.908795 0.310049 -0.167802 1.176340 0.022125 -0.040240
TCTAA 0.495364 0.069323 -0.744578 1.164859 0.180303 -0.064298 1.215756 -0.696567 -0.112200 1.057423 0.371999 -0.845976
CTCAT 0.392984 -0.061759 -1.372761 0.694820 0.550734 0.283620 0.387765 -1.463106 0.170701 -0.073552 0.418879 0.352510
ACACT 0.357931 -1.463284 -0.382979 0.802026 -0.306136 0.944490 -0.426376 -1.013699 0.261708 0.534221 0.397977 -0.567278
GCAGT -1.422761 -0.738863 0.169974 0.444263 -0.781776 -0.122687 0.435122 -0.997597 -0.118946 -0.061930 0.216061 0.047700
TTCCC -0.336713 -0.027518 -1.907007 0.711676 -0.348678 0.542468 0.636621 -0.138756 0.523119 0.195841 0.927624 0.312647
TCTGG -0.733607 -0.241881 -0.808750 0.224431 0.836572 0.369948 0.878930 -0.752242 -0.634627 -0.669562 0.563716 -0.695955
CGAG -0.591739 -0.206045 -0.958735 0.790950 -0.619410 -0.199966 0.216587 -0.499697 -0.920658 -0.350381 0.591127 0.223228
AGCAA 0.476585 -1.430277 -0.330766 0.586078 -0.515625 -0.981104 0.345372 -0.754981 -0.576681 0.186422 0.310310 -0.330869
AACTC 1.053706 -0.841442 -0.741849 0.625466 -0.400109 0.393003 0.515492 -0.673108 -0.265099 0.460676 0.830102 -0.587542
TGTTC -0.809818 -0.048163 -0.659656 0.564694 0.063578 0.785043 1.403610 -0.954811 0.337952 -0.067788 0.476732 0.510828
ACTGT -0.483134 -0.904065 0.374548 1.116035 -0.274601 1.174320 0.380879 -0.561754 0.415545 0.017838 0.610672 -0.377465
CATAA 0.682685 -0.936776 -0.438980 1.387299 -0.072189 -0.420981 0.245407 -0.720917 0.590729 0.784770 -0.101221 0.257484
TGTAG -1.443931 -0.153696 0.092161 1.513698 -0.230616 0.084040 0.512976 -0.160609 0.024614 -0.048177 -0.254339 -0.137283
TGCCA -0.020712 -0.624259 -0.644743 0.723408 -0.096572 -0.147530 0.083191 -0.690368 0.699050 -0.862321 0.779491 0.221830
GACAG -0.501337 -1.342903 -0.161859 1.008883 -0.819355 -0.378196 -0.413743 -0.633025 -1.143112 -0.037782 -0.082136 -0.093706
AGGCA -0.471688 -1.427964 -0.628908 0.470344 -0.343368 -1.054302 -0.319219 -0.791997 -0.455318 -0.635778 0.077079 -0.051605
CTAGA -0.022230 0.084027 -0.686641 1.482612 -0.517201 -0.341566 -0.202796 -0.309494 -0.957514 0.503170 0.002180 -0.729084
CCTGC -0.562335 -0.403857 -1.313960 0.647052 -0.018792 0.342227 0.030300 -0.877162 0.507581 -1.057207 1.354322 -0.992810
GGAAC -0.058534 -1.928167 -0.220516 0.943463 -0.343695 -0.176780 0.003988 0.103629 -0.443060 -0.338051 0.232017 -0.445086
TAACA 0.104928 -1.406340 -0.019160 1.650714 -0.254474 0.033965 0.319422 -0.469291 0.337051 1.091482 -0.413681 0.310307
GCTGG -1.215987 -0.879760 -0.444995 0.474788 0.489703 -0.086562 0.370734 -0.727743 -0.279926 -1.160508 0.217478 -1.071828
TACTT -0.302900 -0.619471 -1.038790 1.228098 0.180041 1.178425 0.228498 -0.170313 0.423456 0.764688 -0.515241 -0.839245
GACAT -0.063158 -1.158880 -0.331821 1.132137 0.034700 0.159641 -0.310566 -0.696762 -0.097360 -0.324807 -0.605471 0.600693
GAAGT -0.821083 -0.668715 0.095627 0.980845 -0.819591 -0.409422 1.286049 0.001923 -0.765868 0.134163 0.052132 0.111912
GATTG -0.443296 -0.485753 -0.600378 1.211242 0.032439 0.155454 0.883308 -0.421882 -0.310719 -1.155643 -0.819664 -0.040012
GACTG -0.353164 -1.331085 0.104046 1.184157 0.031326 0.437968 0.170918 -0.496593 -0.476108 -0.832960 0.243149 -1.080190
GTTTA -1.071237 -0.527702 -0.416102 1.208432 0.011646 0.569881 1.011807 -0.023447 0.003974 0.631271 -0.709496 0.050783
AATCC 0.760618 -0.167629 -1.053388 1.326700 -0.078353 -0.565976 0.684455 -0.204669 0.122353 0.188640 1.087666 0.545535
CTTGA 0.164737 -0.223220 -0.643712 0.948657 -0.546037 0.778854 0.658562 -0.302875 -0.754258 -0.785954 -0.081143 -0.613090
GTTGA -0.440432 -0.253372 -0.095567 1.271533 -0.568670 0.497904 1.462830 -0.165886 -0.575910 -0.792243 -0.138989 0.177627
ATTAC -0.023543 -0.997469 -0.906053 1.450888 0.789675 0.554498 -0.214483 -0.362536 0.369107 0.696036 -0.314051 0.257299
TCATG -0.201010 -0.429277 -0.444497 0.785668 0.679449 -0.103526 0.684698 -1.237917 0.290891 -0.586836 0.191284 0.941791
ACTGA 0.570442 -0.758553 0.091132 1.368878 -0.531718 0.554060 -0.018930 -0.575727 -0.442603 -0.470888 0.219734 -0.796711
ACCTG -0.034076 -0.811163 -0.131277 1.094306 0.066205 0.326448 -0.145339 -0.160089 0.289338 -0.598715 1.236598 -0.746933
GGTTT -1.432764 -0.861182 -0.862503 0.336248 0.280159 0.764453 1.148174 -0.208025 -0.357614 -0.009271 -0.537705 0.136068
TAGTT -1.162088 0.102561 -0.674104 1.279525 -0.357872 0.304772 1.226066 -0.158314 -0.177328 0.777979 -0.571908 0.159599
GCACA -0.198514 -1.784392 -0.236081 0.520575 -0.323182 -0.331263 -0.597030 -1.400865 0.201974 0.013615 0.452471 -0.063734
TGTGC -0.970553 -0.582558 -0.115994 0.745967 -0.239783 0.663977 0.716873 -1.018935 0.869620 -1.084200 0.589643 -0.179229
CAGCC -0.430205 -0.523047 -1.405582 0.443111 -0.619605 -0.789188 -0.321248 -0.960295 -0.156967 -0.248433 1.514123 -0.114202
AGCTG -0.782279 -0.202830 -0.276462 0.804868 -0.243527 -0.252577 0.247736 -0.769701 -0.786243 -0.700792 0.355590 -1.035388
GAGAC -0.193371 -0.963714 -0.385884 1.207993 -0.837524 0.112095 -0.644682 -0.348655 -1.122956 -0.556551 -0.166312 -0.230404
CAAGT -0.430636 -0.939980 -0.106364 0.392547 -0.773662 -0.304647 0.921751 -0.449754 -0.262470 0.601056 0.931758 0.402138
GATGG -0.891871 -0.963859 -0.083792 1.361213 0.315408 -0.546633 0.490527 -0.451035 -0.546931 -1.175353 -0.456766 0.114800
ACGG -0.443767 -1.572051 -0.321411 0.825144 -0.371176 -0.214078 -0.201555 -0.083534 -0.355174 -0.561695 0.133633 -0.102536
AACCT 0.445336 -0.771725 -0.597756 1.039688 -0.346976 0.243790 0.266226 0.377201 0.307191 0.180947 0.996240 -0.875333
TGGCT -0.805849 -0.393295 -1.001068 0.357613 0.299201 0.533621 0.341183 -0.855756 -0.048046 -1.019951 0.042054 -0.904083
ATACT 0.464425 -0.622728 -0.616788 1.644794 0.388753 0.464992 -0.253460 -0.395181 0.220137 0.589856 -0.276103 -0.773480
TGTTA -0.885464 -0.537118 -0.020660 1.459402 -0.054311 0.885306 1.093520 -0.186071 0.700768 0.412658 -0.220993 0.046103
ATTGG -0.488492 -0.856672 -0.771763 1.038255 0.680711 0.152298 0.750338 -0.144923 -0.318649 -0.843086 -0.700429 0.030773
AGTCA -0.620158 -0.725113 -0.222881 0.527031 -0.233918 -0.471778 0.691716 -0.988872 -0.724334 0.685304 0.295017 0.797355
AGCTT -0.419964 -0.242696 -1.224262 0.206032 -0.369293 0.018430 0.518822 -0.624854 -0.862979 0.121402 -0.364424 -1.096279
CCTCT -0.011010 0.269441 -1.717209 0.643066 -0.058579 0.680195 0.392512 -0.852194 -0.107933 0.050629 1.494075 -0.768595
GCCTC -0.411633 -0.360858 -1.394136 0.224028 -0.237690 -0.390657 0.258274 -0.739138 -0.373874 -0.581165 1.635242 -0.591204
CCAAT 0.729267 -0.617044 -1.229706 1.097781 0.190161 -0.427941 0.396157 -0.084729 0.467003 -0.044180 0.838566 0.490220
ACCTT 0.096063 -0.429227 -1.314254 0.913493 -0.355876 0.881595 0.058958 0.107464 0.375330 0.304490 0.437515 -0.437962
CTCTC 0.219123 0.065298 -1.623072 0.436074 -0.068645 0.683080 0.632590 -1.495367 -0.391441 0.269994 1.327085 -0.606580
GTGAT -0.900048 -0.008267 -0.029473 1.290955 0.190934 -0.021368 0.921841 -0.623125 -0.142322 -0.855803 -0.093087 0.282549
TATGA 0.072328 -0.116767 -0.089976 2.062502 0.102205 -0.027598 0.582048 -0.348517 0.041284 -0.418202 -0.666577 -0.070968
GGTGA -1.035265 -1.077481 0.229922 1.134791 -0.379390 0.077003 0.551316 -0.201588 -0.527933 -1.230446 -0.100846 0.045288
CCATG -0.206197 -0.589486 -0.633296 1.090677 0.166954 -0.176390 -0.195082 -0.474633 0.687153 -1.033303 0.859089 0.803369
CATGA 0.424121 -0.622599 -0.271694 1.234475 -0.279370 -0.191407 0.011006 -0.815450 0.085919 -0.921397 0.251962 0.670448
ATCAC 0.679345 -0.818859 -0.926296 0.919859 0.152105 -0.175555 -0.538691 -1.305900 -0.292271 0.181464 0.116129 0.472920
TATGG -0.928033 -0.557371 -0.256462 1.439700 0.797536 -0.236117 0.344832 -0.175796 0.357717 -0.459877 -0.606230 -0.343503
TAGAG -0.964561 -0.028591 -0.471111 1.487843 -0.621130 -0.624709 0.239614 -0.352239 -1.065636 0.505534 -0.674235 -0.236980
TGGGG -1.585668 -1.157918 -0.562987 0.565836 0.165101 0.187617 0.627890 -0.066280 -0.353719 -1.237724 -0.037176 -0.431190
AGCAT -0.050195 -0.692387 -0.704220 0.729984 0.065762 -0.759022 -0.098651 -1.012179 -0.131166 0.002351 -0.487988 0.090712
GTCCA -0.827315 -0.490449 -0.978194 0.644395 -0.247173 0.158692 0.503849 -0.480629 -0.050713 -0.038411 0.961416 0.995978
GCAGA -0.365344 -0.993353 -0.223125 0.726044 -0.645313 -1.036556 -0.205089 -1.010568 -0.879741 -0.257756 0.313540 -0.293962
CTGGT -1.424129 -0.549995 -0.487192 0.438863 0.506290 0.804050 0.456676 -0.567222 -0.045739 -0.417598 0.509953 -0.346889
TGCTC -0.212786 -0.106992 -0.892442 0.326256 0.066675 0.368685 0.471233 -1.341567 0.045391 -0.810086 0.784973 -0.641072
AACCA 0.553288 -1.410408 -0.561075 1.255144 -0.452465 -0.396769 -0.166602 0.147734 0.353555 0.348459 0.937287 0.105767
GCTCC -0.419364 -0.180324 -1.284167 0.293196 -0.259853 0.154507 0.276496 -0.730886 -0.115447 -0.691188 1.321621 -0.595257
GTTTG -1.165430 -0.525172 -0.369695 0.841673 -0.181150 0.924138 1.260343 -0.198374 -0.155140 -0.648701 -0.236311 0.103806
CAATA 0.572532 -0.800487 -0.500469 1.521146 0.243399 -0.748119 0.143387 -0.473934 0.253104 0.613396 -0.081949 0.161809
ATGAT 0.264004 -0.191753 -0.162864 1.968917 0.277746 -0.442179 0.659598 -0.603634 0.127618 -0.891971 -0.364969 0.441595
GGACA -0.155302 -1.834615 -0.218627 0.947136 0.018242 -0.015164 -0.507120 -0.472880 -0.538330 -0.231647 -0.337411 0.010182
AGGCT -0.964102 -0.654023 -0.943322 0.335051 -0.230340 -0.236279 0.206415 -0.606341 -0.935768 -0.754871 0.006864 -1.051623
CCTTG -0.409527 -0.198245 -1.400608 0.633615 -0.253857 0.861276 0.909627 0.026601 0.435872 -0.810601 0.577819 -0.374719
CGGA -0.379428 -1.224405 -0.606710 0.782091 -0.361277 -0.433604 0.033169 -0.005170 -0.677016 -0.662371 0.076732 -0.157352
GGCAT -0.476355 -1.008094 -0.612174 0.660620 0.481923 -0.582740 -0.065039 -1.021629 0.199372 -0.978988 -0.211787 0.260462
AGGTG -1.569135 -1.101546 0.098041 0.727241 -0.367719 -0.337327 0.338873 -0.348900 -0.616736 -0.505723 0.019584 0.052033
GTATT -0.900634 -0.195003 -0.487300 1.640216 0.638115 0.457777 1.020306 -0.172740 0.242495 0.216703 -0.688893 0.334419
ATGTC -0.395905 -0.237516 -0.106391 0.974047 0.402905 0.130858 0.911641 -1.231885 0.411875 -0.209678 0.641531 0.773216
ATGAG -0.065743 -0.406786 0.149089 1.588758 -0.311256 -0.640572 0.453265 -0.539346 -0.551858 -0.922903 -0.319817 0.197580
GAGCT -0.581523 -0.108750 -0.751238 0.535629 -0.560387 -0.183534 0.481103 -0.900724 -0.977009 -0.707241 0.070607 -0.993884
TGAGT -0.878382 0.193902 -0.037160 1.276285 -0.700232 0.346805 0.980127 -0.363531 -0.720273 -0.375865 0.132897 0.075154
GTAGA -0.946242 -0.217257 -0.063576 1.648026 -0.344366 -0.373286 0.347468 -0.148264 -0.643885 0.238729 -0.448044 0.131666
CTGTA -0.722001 -0.066825 0.176564 1.521370 0.323357 0.465980 0.372442 -0.649071 0.612696 0.265861 0.522176 -0.508310
GGCCT -0.871693 -0.479395 -1.051870 0.204837 0.029217 -0.339696 0.073864 -0.373062 -0.256367 -0.837411 0.903186 -0.699543
TTTAC -0.170806 -0.895679 -1.293139 1.176683 0.258424 1.166817 0.063458 -0.353981 0.446867 0.825430 -0.616950 -0.182086
GCTCA -0.175604 -0.730891 -0.900227 -0.141401 0.100806 -0.127090 0.349688 -1.471994 -0.246094 -0.179082 0.603494 -0.365003
TAAAC 0.461879 -1.222314 -0.150018 1.451098 -0.364174 0.221421 0.523994 -0.140086 0.449644 1.156639 0.054704 -0.292508
GTTCA -0.685718 -0.765452 -0.551139 0.131616 0.087876 0.262509 0.993182 -0.846935 -0.259152 0.422716 0.327987 0.803624
TCATA -0.154138 -0.206135 -0.636154 1.118348 0.509684 -0.403785 0.304984 -1.195043 0.025175 0.908779 -0.149224 0.495612
GAGCA -0.348290 -0.891254 -0.284200 0.675749 -0.814316 -0.848733 0.024189 -1.112226 -0.591925 -0.466292 -0.148042 -0.040724
CGTT -0.719064 -0.314791 -1.127153 0.495812 -0.224918 0.741334 0.612980 -0.322281 0.104558 -0.017386 0.264911 0.256134
TGTCC -0.950818 -0.124940 -0.777910 0.802055 -0.125970 0.526897 0.813567 -0.448191 0.431160 -0.520805 1.353281 0.629819
TGATA 0.023405 -0.044329 0.036722 1.999660 0.103531 -0.140778 0.551925 -0.427851 -0.006042 -0.302855 -0.552027 -0.273131
TAAGA 0.006115 -0.511884 -0.207612 1.529714 -0.515387 -0.611430 0.676269 -0.034962 -0.719694 0.766180 -0.326725 -0.282325
TGGGT -1.717809 -0.796769 -0.530478 0.687924 0.409085 0.560219 0.780100 -0.154112 -0.104540 -0.880397 -0.030197 -0.141054
CAGCT -0.449873 -0.427497 -1.161572 0.205199 -0.490269 -0.283372 -0.357754 -1.345685 -0.362573 0.201539 0.736202 -0.867691
TCTTA -0.103473 -0.062242 -1.148667 0.823749 0.030323 0.432978 1.098055 -0.621830 0.190091 0.958043 -0.167326 -0.524239
ACCCA 0.170252 -1.238315 -0.820268 1.158350 -0.590704 -0.385770 -0.626588 0.110433 0.260890 0.222206 1.305305 0.289975
TGGTT -1.400245 -0.523175 -0.623043 0.763745 0.402633 0.989668 1.160663 -0.221193 -0.050616 -0.312349 -0.321435 -0.119187
GTCTC -0.622744 -0.122293 -0.636129 0.156120 -0.115653 0.291180 1.193586 -1.224701 -0.422633 -0.135532 1.159838 0.097155
CAACT 0.923829 -1.224982 -0.738708 0.559812 -0.422481 0.647794 0.283159 -0.769118 0.017246 0.433461 0.362574 -0.533983
TTGGT -1.474863 -0.660147 -0.684271 0.639633 0.266719 0.684144 1.274129 -0.232120 0.081121 -0.727487 -0.400690 0.093941
GTGTA -1.438966 -0.498106 0.318300 1.595139 0.072040 0.169449 0.981941 -0.202486 0.428466 0.026525 -0.004786 0.116326
CAAGG -0.221292 -1.692601 -0.753502 -0.087871 -0.235784 -0.802608 0.646725 -0.223162 -0.820560 0.067482 0.396434 0.030663
ACTAA 0.432540 -0.826236 -0.267148 1.542685 -0.352331 0.161741 0.385925 -0.193081 -0.235157 0.980984 0.117688 -1.121930
CGTG -1.010178 -0.863966 -0.227247 0.439890 -0.371922 0.193691 0.137052 -0.720685 0.123400 -0.836648 0.761328 -0.119927
TTAGT -1.119355 -0.147982 -0.748748 1.291785 -0.481494 0.390104 0.870039 -0.072097 -0.137574 0.951858 -0.477843 -0.073630
CCATC 0.561576 -0.194691 -1.592681 0.946028 0.165288 -0.142422 0.105612 -1.092830 0.188905 0.116062 1.190820 0.680477
CAGGG -0.979220 -1.467497 -0.901900 0.155989 -0.384014 -0.512200 -0.180818 -0.309127 -0.629363 -0.576095 0.408349 0.046647
CATGG -0.518675 -1.190145 -0.477662 0.740364 0.532956 -0.317751 -0.017862 -0.672502 0.292324 -0.959792 -0.059736 0.730757
GACAA 0.532487 -1.841223 -0.060104 0.962107 -0.403377 -0.286231 0.017880 -0.383998 -0.487552 0.145673 0.015033 -0.070550
CCCAT 0.065819 -0.187390 -1.298514 1.231616 0.142632 -0.211853 -0.040002 -0.448522 0.780793 -0.073338 1.092188 0.862325
GATGT -0.755503 -0.266811 0.184370 1.325250 0.021162 0.193391 1.071878 -0.737194 0.015351 -0.663633 -0.003874 0.584125
AGCAC -0.177275 -1.373700 -0.605745 0.480377 -0.681807 -0.082475 -0.704355 -1.125485 -0.255566 0.211388 0.514087 -0.458817
AGTCC -0.794449 -0.181317 -1.092611 0.804836 -0.480040 0.041302 0.543723 -0.346721 -0.434961 0.326620 1.126366 0.599069
TCAAG -0.067739 -0.795459 -0.783765 -0.024679 -0.237142 -0.553399 1.128771 -0.718942 -0.855361 0.719617 0.647305 0.231048
AAGCT -0.052103 -0.445836 -0.695555 0.271711 -0.591558 -0.525179 0.759811 -0.519207 -0.633983 0.375764 0.423095 -1.164608
ATTGC 0.160832 -0.722694 -0.882739 0.847180 0.530504 0.432500 0.486868 -0.948312 0.685647 -0.674562 -0.262773 -0.037295
ACAGT -0.855159 -1.195465 0.050100 0.796347 -0.632329 0.452277 0.047070 -0.511333 -0.153858 1.012498 0.193335 0.491441
CTTGT -0.802366 -0.106745 -0.790672 0.965248 -0.119405 1.314893 1.204230 -0.561654 0.432207 -0.393374 0.316091 -0.151629
TACAG -0.865557 -1.007823 -0.463364 0.945280 0.037779 -0.163763 -0.579862 -0.619265 -0.258003 0.888053 -0.505215 -0.050074
ACAGG -0.808244 -1.941698 -0.592411 0.520115 -0.102741 -0.249488 -0.696285 -0.497678 -0.753159 0.159465 -0.155474 0.037171
GCTTC -0.445256 -0.259223 -1.421159 -0.094342 -0.023107 0.120876 0.667043 -0.960837 -0.230822 -0.068276 0.430235 -0.730126
CATGC 0.082100 -0.830417 -0.644866 0.783492 0.081580 -0.280814 -0.187698 -1.347186 0.997444 -0.845766 0.523161 0.192617
TGACT 0.236815 -0.430103 -0.306880 1.187433 -0.312366 1.071291 0.174852 -0.613732 -0.235306 -0.524462 -0.019554 -0.737858
CCAAG -0.038951 -0.836484 -0.899140 0.542681 -0.712601 -0.759913 0.209325 0.030803 -0.360932 0.345541 1.128834 0.112175
CTTAT -0.039331 0.113212 -1.217954 1.421125 0.472352 0.743598 0.346444 -0.498230 0.570248 0.344483 -0.323963 -0.524842
AGGTT -1.274876 -0.778654 -0.716908 0.286002 -0.300296 0.157436 0.904503 -0.104857 -0.734544 0.193385 -0.360494 0.166659
AAGAC 0.328160 -1.258587 -0.253777 1.126986 -0.913662 -0.315309 -0.054581 -0.232747 -0.774818 0.633776 0.156059 -0.143650
TCAGC -0.350413 -0.435293 -1.310981 0.024617 -0.114048 -0.426704 0.154215 -1.497157 -0.614747 0.327762 0.834614 -0.084203
GCATG -0.357971 -1.083962 0.032409 0.850439 0.056962 -0.520525 0.033145 -1.240270 0.486587 -1.069187 0.203197 0.173122
AGTTA -0.947200 -0.569638 -0.217385 1.239122 -0.436624 0.132357 0.722234 -0.069488 -0.422720 1.138163 -0.426546 -0.009090
TCAGT -0.959335 -0.333599 -0.412823 0.367184 -0.319244 0.028648 0.938523 -1.020036 -0.439089 0.633175 0.503199 0.656440
CCAGC -0.292050 -0.735759 -1.264469 0.572440 -0.570245 -0.563668 -0.505521 -0.653994 -0.230275 -0.036906 1.545829 -0.285179
TTAGA -0.305469 -0.174145 -1.001808 1.345889 -0.472727 -0.077934 0.522203 -0.010171 -0.765665 0.561681 -0.991914 -0.019660
TCTTG -0.579759 0.003922 -1.040429 0.364459 0.090015 0.707071 1.547612 -0.741125 -0.192471 -0.564774 0.068884 -0.505186
CTGAC 0.209266 -0.610277 -0.376258 1.103780 -0.366146 0.767935 -0.363196 -0.799604 -0.310016 -0.697203 0.806020 -0.712637
TCACC 0.141264 -0.861872 -1.325835 0.466598 0.055609 0.365499 -0.238770 -0.899908 0.345104 0.481124 1.157944 0.271715
CAAGA 0.662298 -0.962323 -0.692178 0.909924 -0.710228 -0.773544 0.236299 -0.580904 -0.968546 0.426549 0.063430 0.317812
ACTTG -0.001659 -0.747183 -0.700452 0.717870 -0.536073 1.016979 0.303958 -0.333588 0.191605 -0.404896 -0.333265 -0.643723
GAACT 0.426911 -1.036335 -0.267776 0.819843 -0.619710 0.501495 0.488043 -0.068166 -0.538449 -0.132660 0.114624 -1.074431
CTGTC -0.593180 -0.070521 -0.623775 0.540922 0.131189 0.751168 0.875684 -1.238310 0.226834 -0.117268 1.414574 -0.021051
AATAC 0.565497 -1.078757 -0.336464 1.752296 0.109198 -0.220744 0.056098 0.006374 0.243647 0.880895 -0.021525 -0.274077
ACAAG 0.026732 -1.719419 -0.199160 0.696217 -0.656912 -0.414407 0.038979 -0.429581 -0.751202 0.792769 0.143345 0.032516
CCCG -0.658587 -0.584469 -1.101695 0.715884 -0.443638 -0.108489 -0.079358 0.037402 0.006512 -0.734721 1.383510 -0.185904
TTAAG -0.351864 -0.629945 -0.694227 1.082546 -0.409656 0.009358 0.995826 0.231757 -0.521477 0.774970 -0.794262 -0.256478
CCAGT -1.063866 -0.277354 -0.907299 0.701897 -0.620486 0.152270 0.222047 -0.306437 -0.078037 0.560032 1.102295 0.710093
AGGAC -0.155110 -1.295171 -0.618873 0.849542 -0.517783 -0.141081 -0.308768 -0.060167 -1.092999 -0.011666 -0.018209 -0.655161
ACCAG -0.341484 -0.961612 -0.549897 1.074730 -0.661010 -0.610434 -0.689909 -0.139525 -0.384130 0.318045 0.967188 0.191408
TCTAG -0.705201 0.533464 -0.825213 0.962080 0.074621 -0.257362 0.633827 -0.705141 -0.635276 0.737114 0.259978 -0.690562
ATGGG -0.625442 -1.226585 -0.321748 0.899957 0.662684 -0.603040 0.368792 -0.215259 -0.120388 -1.039384 -0.501424 0.003825
TTGGG -1.349507 -0.869254 -0.941384 0.525679 0.247081 0.515357 1.011155 -0.065704 -0.402578 -0.903817 -0.788336 -0.326898
CCCTC -0.013120 -0.250393 -1.756389 0.490161 -0.207987 0.140742 0.100579 -0.701111 0.007206 0.032326 1.924987 -0.297727
TGGTA -1.264784 -0.657958 0.018779 1.378561 0.516439 -0.021160 0.489476 -0.110125 0.285849 -0.212302 -0.267013 -0.043554
GGCAG -1.040088 -1.347810 -0.476342 0.391080 -0.441019 -0.903396 -0.260349 -0.933633 -0.718771 -0.656668 0.403882 -0.203314
GCTGA -0.315943 -0.380219 -0.162529 0.901743 -0.367370 -0.370067 0.486021 -0.836336 -0.734761 -1.195976 0.316312 -1.178028
GACTT 0.149075 -0.710178 -0.958185 0.667191 -0.438373 0.839625 0.333354 -0.167564 -0.654472 -0.189321 -0.416062 -0.857394
AGAAC 0.374025 -1.345993 -0.313219 1.298198 -0.881907 -0.417132 -0.148880 -0.073384 -0.835871 0.297013 0.094582 -0.153530
AGCCA -0.158272 -0.865519 -0.781378 0.864726 -0.652015 -0.938044 -0.494495 -0.209945 -0.389618 -0.288782 0.945050 0.175578
GCACT -0.094633 -1.164693 -0.521723 0.280593 -0.351308 0.503970 -0.329190 -1.216111 0.099833 -0.089215 0.422974 -0.896692
ATTCG -0.159351 -0.265250 -1.450416 0.959774 0.391648 0.113731 0.499075 -0.579706 -0.267971 -0.227382 0.224714 0.462147
CGGG -1.125805 -1.220599 -0.707711 0.380590 -0.172199 -0.008988 0.033889 -0.170599 -0.427463 -0.949063 0.422847 -0.229077
GTCTT -0.819956 0.042075 -0.884764 0.459184 -0.125104 0.888763 1.408747 -0.752913 -0.181432 0.108926 0.226989 -0.292006
GCCG -0.839149 -0.628080 -0.861666 0.423549 -0.548103 -0.425999 -0.090391 -0.371210 -0.215666 -0.861453 0.819944 -0.608438
CAGGT -1.301716 -0.857173 -0.531621 0.238847 -0.412305 -0.176833 0.093367 -0.612649 -0.471107 -0.041639 0.205207 0.380934
CGAT -0.071018 -0.099462 -1.160651 1.067407 0.263599 -0.121490 0.303348 -0.653286 -0.205084 -0.516388 -0.026685 0.377241
CTTAA 0.510406 -0.420483 -0.727673 1.015026 -0.196684 0.444718 0.956797 -0.300727 0.092833 0.809552 0.045428 -0.726178
TGCAC 0.041940 -1.057798 -0.507811 0.585705 -0.314391 0.732966 -0.337767 -1.176135 0.560990 -0.651245 0.362627 -0.348021
GTCCT -1.003918 0.142307 -0.945328 0.650842 0.006470 0.541871 0.870063 -0.294016 0.033414 -0.128359 1.238261 -0.086268
CCGT -0.839014 -0.394689 -0.899058 0.500229 -0.296336 0.359384 0.236882 -0.268078 0.191378 -0.319403 0.973682 0.317715
ATAGT -0.842272 -0.205152 -0.094642 1.568509 -0.040146 -0.439018 0.691034 -0.361786 -0.148301 0.809568 -0.372188 0.197198
AGTTC -0.834473 -0.059196 -0.855190 0.433938 -0.583532 0.331009 1.097602 -0.447021 -0.710967 0.740083 0.321635 0.299387
ATCAG 0.105950 -0.286855 -0.908941 0.750961 0.046765 -0.809587 0.078897 -1.127743 -0.743449 0.257974 0.164625 0.682042
ACGT -0.681999 -0.803889 -0.226212 0.617555 -0.388411 0.530463 -0.027937 -0.571822 0.034014 -0.000578 0.297355 0.103717
CCCAA 0.391467 -1.048108 -0.930268 0.873058 -0.568979 -0.593214 0.218962 0.132067 0.279439 0.338060 1.575505 0.226503
GATTA -0.378132 -0.565597 -0.656475 1.447602 0.323703 -0.054882 0.384227 -0.269664 -0.240256 0.067182 -1.288543 0.015919
CTGAT 0.215290 0.191123 -0.415205 1.319548 0.380605 0.298355 0.417772 -0.993590 -0.211703 -0.947465 -0.022114 -0.446077
CCAGA 0.024601 -0.596368 -0.862471 1.145487 -0.737143 -0.827856 -0.558916 -0.124617 -0.772901 0.038190 0.896304 0.296968
ATTAG -0.331713 -0.384166 -0.848791 1.372612 0.255767 -0.246379 0.455002 -0.122847 -0.511873 0.761518 -0.738843 0.084155
TGGCC -0.885442 -0.738670 -0.846994 0.498095 -0.008683 -0.014675 0.038878 -0.202447 0.321203 -1.303990 0.915991 -0.317520
GAGGT -1.523408 -0.814367 -0.252093 0.635300 -0.421753 -0.348397 0.597156 -0.249355 -1.040948 -0.586093 -0.086863 -0.058836
AGCTC -0.371996 -0.213087 -1.247686 0.310378 -0.389358 -0.225756 0.054282 -1.080930 -0.950366 -0.028907 0.750223 -0.782892
ATCGA 0.228663 -0.716589 -0.670721 1.288848 0.017153 -0.694224 0.631627 -0.326873 -0.693408 -0.490046 0.271534 -0.009625
ACTTA 0.277225 -0.905974 -1.035953 1.067690 -0.313731 0.768194 -0.013228 -0.241755 0.126906 0.954461 -0.454749 -0.745759
CTCTA 0.344434 0.289385 -0.947718 1.173168 0.106003 0.347410 0.380863 -1.065285 -0.145636 0.872360 0.685511 -0.936944
GGTGT -1.845336 -0.904174 0.035048 0.836998 0.074573 0.445835 0.935271 -0.331305 0.192557 -0.604366 0.120888 -0.000129
CTTGC -0.274615 -0.301285 -1.249154 0.457787 -0.093317 0.848176 0.352494 -0.941267 0.388413 -0.854575 0.337478 -0.974786
GTGCA -0.878406 -1.023286 0.142931 0.471312 -0.365201 -0.149192 0.390630 -1.105605 0.471795 -0.659713 0.357139 0.090147
CATAG -0.544575 -0.394392 -0.632878 1.243281 -0.133669 -0.712544 -0.453885 -0.682713 -0.023644 0.506893 -0.324267 0.327462
GCAGG -1.111165 -1.526115 -0.600597 0.286843 -0.337753 -0.785916 -0.217027 -0.820056 -0.659672 -0.718294 0.269537 -0.427739
AGTTG -0.880916 -0.539891 -0.046615 0.864559 -0.737310 0.147276 1.244142 -0.093741 -0.581175 -0.289486 -0.185421 0.216777
ATCCT 0.445072 0.322401 -1.253624 1.187695 0.446173 -0.179244 0.433010 -0.532197 0.236475 -0.036734 0.970746 0.048715
GATGA -0.052671 -0.666754 0.057492 1.603654 -0.126328 -0.425897 0.372959 -0.452739 -0.654886 -0.968268 -0.430517 0.155645
